1111 200
360 0.236829 0.230115 -0.025939 0.555422 0.136433 0.154506 0.079257 0.113307 -0.117411 -0.235380 -0.330779 0.327488 0.460823 -0.087647 -0.149628 0.026308 0.035840 -0.347965 0.036645 -0.201179 1.020246 -0.075443 0.293566 0.235652 0.050858 0.224565 0.082332 0.021181 0.068386 0.089398 0.198277 0.058575 -0.300662 -0.202318 0.034950 0.071720 -0.020042 0.118867 0.437944 0.501317 -0.257652 -0.027497 0.161886 0.283754 0.124449 0.332826 -0.158823 0.149522 0.253707 -0.035234 0.087520 0.423248 -0.077472 0.149888 -0.040482 -0.136659 0.427952 0.090171 0.249981 0.177952 -0.005458 -0.188441 -0.288565 0.330367 -0.009936 0.166589 -0.125627 -0.022672 -0.034601 0.056545 -0.004752 -0.040466 0.062830 0.312495 0.866902 -0.127823 -0.208505 -0.233378 -0.088918 0.234369 -0.053840 0.086275 -0.129792 0.161719 0.091599 -0.244791 0.105720 -0.041957 -0.019295 -0.118959 0.180238 -0.207111 0.041224 -0.073789 -0.047720 -0.107605 0.045652 -0.018604 -0.391498 -0.220536 0.112522 -0.604087 0.143072 0.189916 0.133698 -0.082248 -0.013512 -0.225056 -0.141011 0.084580 0.151610 0.143271 0.480863 -0.146304 0.184420 0.065688 0.116628 -0.193725 -0.067991 0.346086 -0.122540 0.215183 0.033024 -0.729093 -0.113519 -0.381836 -0.011806 -0.042827 -0.004306 0.153143 -0.167311 -0.002916 0.303205 0.655971 0.217040 0.223236 0.208714 0.279376 -0.075420 0.000231 -0.046499 0.260926 -0.087384 -0.071858 -0.082123 -0.101426 0.141812 -0.158516 -0.615880 -0.029148 -0.324961 -0.277872 -0.197062 0.023100 0.362470 -0.083800 0.197391 -0.007596 -0.132755 -0.303846 0.230893 -0.123504 0.070820 0.448760 0.099790 -0.059001 -0.027864 0.211381 0.026518 -0.319472 -0.118698 0.383507 -0.012719 0.007571 0.475025 -0.260410 -0.016122 -0.166721 0.103103 0.057042 -0.163286 0.195478 0.133553 -0.499599 0.146665 -0.038895 0.007027 -0.085788 0.152252 -0.096950 -0.252020 -0.230792 -0.227794 -0.474195 -0.060411 0.132041 0.015346 0.167129 1.159035 0.351146
0 0.076421 0.021611 -0.117362 0.071717 0.030803 0.039705 -0.004639 -0.013804 -0.003907 -0.018183 0.081042 0.075501 0.131034 0.003832 0.036060 -0.078319 -0.007157 -0.039606 0.130875 -0.128263 -4.989168 -0.129042 -0.048800 0.059806 0.292185 0.010614 0.081703 -0.084227 0.062847 0.169260 -0.065633 -0.037985 -1.789666 0.075670 0.604393 -0.137299 0.168168 0.291326 0.059781 -5.708730 0.016759 -0.246440 0.066944 0.052050 -0.129365 -0.487672 0.214380 0.019652 -0.015347 0.113992 -0.028686 -0.150178 0.162855 0.034280 0.152166 0.039718 -3.667330 0.044825 -0.010313 -0.002958 -0.176519 -0.237867 0.085592 -0.123716 -0.031392 0.018213 -0.150238 -0.333031 -0.046483 -0.041660 0.102260 -0.108749 0.081336 -0.043927 -0.233269 0.153640 0.145953 0.124193 -0.159793 -0.093081 -0.082281 -0.043571 0.046194 0.024631 0.020183 -0.127000 -0.195817 0.168948 -0.002403 0.122071 0.065480 0.252652 -0.099197 0.100844 0.080441 -0.088211 -0.053069 0.076803 -0.075755 -0.127436 -0.121779 0.119065 -0.123737 0.050870 0.107117 -0.094972 21.979891 0.022470 0.105621 0.189981 -0.009696 -0.030257 0.659082 0.072012 -0.654168 -0.029842 0.011145 -0.035894 0.030645 0.287164 -0.014556 0.168413 2.180826 -0.668902 0.108532 -0.040924 -0.106578 0.239769 -0.048852 2.181323 0.021465 -0.020429 3.348944 0.072988 -0.040014 -0.035282 0.056397 -0.044139 0.058513 0.078058 -0.163961 0.201584 0.082688 -0.064213 -0.136519 0.092938 0.121693 0.057484 -2.890470 0.193339 -0.051199 0.125610 0.133568 0.110376 -0.101933 -0.048870 -0.046788 -0.058971 0.165152 0.097511 -0.068127 -0.098852 0.109808 0.188876 0.050567 0.227551 -0.077909 -0.214567 -0.334050 -0.103247 0.038074 0.008421 -0.337961 0.083817 -0.015475 0.273254 0.106383 0.129402 -0.129543 0.142720 -0.231176 -0.073676 -0.146035 0.124116 -0.055426 -0.057526 0.227076 -0.043810 0.093523 0.040718 -0.132613 -0.053599 -0.133220 -0.121126 0.124831 -0.063004 0.071306 0.026113 -1.294543 -0.182565
359 0.197879 -0.094521 0.005996 -0.036976 0.377461 -0.258055 -0.166635 0.093190 0.025682 0.188845 -0.173275 0.053547 0.137622 -0.130263 -0.024228 -0.295558 -0.108476 0.281916 0.120666 0.091016 -4.937510 0.066677 -4.340954 -0.212286 0.328973 -0.164935 0.283027 -0.025251 0.185674 -0.059631 0.168952 0.144177 -1.822532 0.084038 0.122314 0.089419 0.013338 0.312579 0.064030 -5.690450 -0.318959 -0.958780 0.077350 -0.205713 -0.213936 -0.192946 0.080698 0.046150 0.020351 -0.001474 -0.152238 -0.231097 0.173125 0.014244 0.084840 -0.086341 -3.631768 -0.024996 -0.000493 -0.053568 -0.130133 -0.292454 0.209886 0.292296 0.081185 0.122827 -0.213304 -0.140094 -0.127649 -0.172084 0.208521 -0.038565 0.029844 0.113553 -0.074969 0.031330 0.392871 0.125301 -0.117943 -0.180377 -0.056865 -0.322197 -0.030922 0.045321 -0.078438 -0.122611 0.095988 -0.006595 0.117972 0.044593 -0.007025 0.089907 0.018667 0.137490 0.200948 -0.125495 0.054568 -0.084063 -0.123459 0.127947 -0.110628 0.131754 0.099995 0.059525 -0.160001 -0.232066 -0.003473 -0.053628 0.106738 -0.001727 0.166895 -0.096163 0.073671 0.101077 -0.156257 0.027658 0.092664 0.065699 0.040423 0.192115 0.055297 0.226965 1.896417 -0.740204 -0.128640 -0.092199 -0.071482 -0.148330 0.151015 2.219759 0.088139 -0.048600 3.390585 0.167262 0.074799 0.109518 0.029412 -0.224272 -0.402320 -0.008202 0.364988 0.006313 -0.204990 -0.092177 0.031013 0.010578 0.185453 0.367555 -2.885978 0.354140 -0.043103 0.133206 0.394008 -0.216105 0.074662 -0.924725 0.089270 0.082640 0.206787 -0.024402 0.215905 -0.322953 0.044714 -0.051408 0.114210 0.306667 -0.068458 0.028219 18.813072 -0.415849 -0.071868 0.063890 -0.385423 0.083796 -0.080644 0.082119 0.080320 -0.121829 0.510301 0.150459 -0.644142 -0.050406 -0.256595 -0.094511 0.191477 -0.031372 0.216343 0.029376 -0.167413 0.017035 -0.229200 -0.191307 0.067335 -0.107854 0.078934 0.097865 0.178514 -0.077774 -1.247952 -0.175028
375 0.035288 -0.345794 0.484032 0.273638 0.040078 -0.069092 0.280516 0.391742 -0.146734 0.317580 0.475132 0.081754 -0.747999 0.093849 -0.519502 0.219126 0.504735 0.101535 0.068649 1.247041 -0.025785 -0.024712 0.226042 0.429342 -0.164348 -0.733535 -0.089273 4.101045 0.120613 -0.032985 -0.342010 0.088843 -0.722464 0.520983 -0.298142 0.151663 0.411392 0.127660 -0.473924 0.731735 0.421610 0.410721 0.496463 0.567603 0.068037 0.109388 0.068450 0.198599 -6.103689 0.271862 -0.016965 0.226860 -0.133869 3.320788 0.106192 -0.203727 0.402042 0.016841 0.355726 0.205077 0.068629 0.371575 0.081549 0.151776 0.266323 0.032166 -0.203932 0.017112 -0.171141 -0.184908 -0.376688 0.019114 -0.179054 -0.313221 0.285527 -0.186261 -0.053617 -0.093889 -0.612791 0.364565 0.759055 -0.427538 0.078070 -0.045731 0.221080 0.439508 0.013713 -0.080195 0.731756 -0.130640 -0.373642 -0.140992 -0.222277 -0.294602 -0.663352 -0.156927 -0.098833 -0.110885 0.171151 -0.173010 0.126630 -0.170707 0.436714 0.364884 -1.691579 0.047959 -0.010617 -0.277893 -0.107946 0.628304 0.457328 0.129268 -0.272358 -0.031864 -0.034677 0.539998 -0.458514 -0.733486 0.099685 -0.435910 -0.171147 -0.112532 0.433283 -0.744536 0.719235 -0.083953 -0.109409 0.544279 0.001215 -0.379829 -2.080561 0.111680 -0.808297 -0.294440 0.079197 -0.032634 0.111278 0.004734 0.344727 -0.482755 0.007960 0.040392 -0.363990 -0.062900 0.281163 -0.012942 1.021774 -0.037577 0.124082 -0.179511 0.330113 0.050496 -0.219840 0.046035 0.142591 -0.206652 -1.128994 0.183920 0.024675 0.243359 -0.035765 0.011489 -0.383779 0.042377 -0.287633 0.125177 -2.289477 -0.191622 0.033384 -0.342423 0.245824 0.282855 0.131690 -0.330377 -0.047574 0.007344 -0.343839 -0.116025 0.110818 0.552069 0.209743 0.092946 -0.074936 -0.170281 0.335280 -0.035588 -1.573115 -0.079903 0.361297 -0.483424 0.075791 0.185053 -0.360868 -0.961762 -0.166048 -0.016215 -0.369962 -0.148626 1.546119 -0.446338
5 -0.167870 -3.697620 0.438862 -0.147763 -0.193637 -0.090755 -0.129656 -0.470355 0.244958 0.157330 0.526265 -0.146599 -0.197745 0.726488 -0.027206 -0.271089 0.168812 -0.816730 0.073551 0.516256 -4.953335 -0.282440 -0.082601 0.332006 0.117337 0.348513 -0.399898 0.117030 0.083549 0.761680 0.168156 -0.061098 -1.697599 0.170934 -0.156525 0.794645 -0.274463 0.292441 -0.233165 -5.658425 0.155121 -0.069261 1.050565 0.818617 -0.167388 -0.027919 0.600213 0.202476 0.371290 -0.146532 -0.066760 -0.134962 -0.681796 -0.064155 0.487410 -0.121689 -3.586023 0.140170 0.364528 0.378722 0.139770 -0.522049 0.439217 -0.044777 0.318305 2.843084 0.518949 -0.160774 0.367705 0.399117 0.016112 -0.433702 0.188154 0.403399 0.086828 0.065894 0.453882 0.088273 0.156796 0.530658 -0.271330 -0.287772 0.149063 -0.764701 -0.003693 -0.381132 -0.054501 -0.506214 0.000400 0.059560 0.104737 -0.213567 -0.082219 -0.079343 1.202645 -0.295945 0.011758 0.067850 0.090792 0.417264 -0.925202 0.367996 -0.327063 -0.391724 -0.134126 0.111537 -0.195976 -0.688628 -0.404439 0.330281 -0.120230 0.152319 -0.020205 -0.403089 0.192861 0.451440 -0.046762 0.098851 -1.600108 1.206257 0.100277 1.568094 1.417632 -0.604632 -0.233921 -0.072216 0.385546 0.434699 0.333446 2.072539 0.506512 -0.423361 3.321274 0.304364 0.107148 -0.184260 -0.071205 0.148876 0.419248 0.869707 0.140794 0.044027 -0.205774 0.051499 -0.039526 0.420765 -0.250295 -0.250428 -2.776248 0.864847 -0.175674 -0.095378 -0.006884 0.108700 -0.681772 -0.198909 0.148775 0.218292 0.295410 0.074348 -0.115711 -0.138679 -0.679026 -0.057011 0.038314 0.145931 -0.536770 0.087694 -0.248932 0.378135 0.283542 0.031092 -0.734211 0.010651 0.364663 0.271260 0.198775 -0.479944 -0.558524 -0.114324 -0.517975 -0.847631 0.373485 -0.008908 0.287870 6.125182 0.080663 -0.674905 -0.507755 -0.193380 0.354749 0.748423 -0.111011 -0.082442 0.213823 -0.040469 0.543200 -0.382772 -0.614420 -0.462116
10 0.274601 0.004277 -0.047239 -0.082594 0.157967 -0.064275 0.064228 -0.020335 0.069775 -0.099473 0.125489 -0.107527 0.272352 0.039781 -0.096259 0.017245 -0.107753 0.056827 0.164784 -0.094575 -4.936920 0.030354 -0.049783 -0.100306 0.195955 0.158298 0.014048 0.056998 0.066211 -0.188149 0.237593 -0.059865 -1.749044 0.006376 0.070553 0.101303 -0.032942 0.085112 0.147714 -5.616209 -0.294696 -0.050667 0.212585 -0.010866 -0.507456 -0.316658 0.078808 -0.162808 0.055933 -0.031910 -0.096016 -0.134095 0.137517 0.077068 -0.008360 -0.033617 -3.483288 -0.033155 0.126055 0.078230 -0.376430 -0.385116 0.057025 -0.092426 -0.142997 -0.004963 -0.073298 19.778454 -0.085118 -0.095350 -0.110546 -0.000526 0.159758 -0.080269 -0.219033 -0.095120 0.434625 -0.078697 0.010980 0.061394 -0.317207 -0.081004 0.009230 0.001786 -0.053705 -0.289817 -0.081117 0.151833 -0.074846 0.023831 0.048474 0.204031 0.065184 0.148187 0.104285 -0.147098 0.114930 -0.036385 -0.006495 -0.072610 -0.115754 0.251161 -0.271595 0.085231 -0.029180 0.161855 0.013784 -0.099593 0.104260 0.087718 0.061405 0.033297 0.152914 0.124168 -0.318356 0.690947 -0.051414 0.063116 0.077168 0.100976 -0.013690 0.036374 1.636993 -0.632625 0.224623 0.198848 -0.058441 0.057540 -0.039322 2.087035 0.172216 0.147870 3.394332 0.160928 0.354133 -0.027694 0.097943 0.137547 -0.087361 -0.143421 -0.021830 -0.114855 0.065582 -0.019447 -0.109226 -0.108827 0.145669 -0.062321 -2.780063 0.271187 -0.058641 0.094199 0.114409 -0.052949 0.040543 0.021881 0.022331 0.129645 0.058757 0.114795 0.067229 0.000134 -0.047461 0.045243 -0.099104 0.335542 0.095496 -0.159621 -0.163936 -0.114245 0.042261 -0.108735 -0.033257 0.106583 0.104676 -0.022438 0.015845 -0.029932 -0.002786 -0.108890 -0.325671 0.059744 -0.115379 -0.076017 0.088002 -0.067013 0.112850 -0.012987 -0.118304 -0.090323 -0.170197 -0.033851 -0.103361 0.006903 -0.020104 -0.104767 -0.065673 0.147166 -1.429050 0.374148
24 -0.332688 0.100641 -0.161652 1.329535 0.067456 -0.855838 -1.022199 0.257775 -0.091733 -0.057094 -0.031298 -0.169755 0.624788 -0.122300 -0.062943 -0.266950 0.105189 -0.115744 0.443848 0.124853 -4.743187 0.368766 0.034624 -0.233614 0.084125 0.697982 0.118679 0.212334 -0.329535 -0.207318 -0.356463 0.207328 -1.686337 0.196873 -0.160002 -0.194934 0.283137 0.472162 -0.311648 -5.401321 -0.243441 -0.028406 0.385402 0.028154 -0.229216 -0.429450 0.145431 0.050345 -0.069819 0.042816 0.465238 0.569633 -0.056224 -0.004487 0.297871 -0.359123 -3.839658 -8.383769 0.449387 0.011774 -0.297159 0.452479 -0.296123 -0.178143 -0.636550 0.173888 0.199503 -0.187090 0.552394 -0.667766 0.171766 0.291261 0.876538 0.113234 -0.226637 -0.531700 0.217032 -0.240768 -0.129399 0.661781 -0.236095 0.248152 -0.589913 -0.154941 -0.554726 -0.315740 -0.085526 -0.365892 0.119182 0.098577 -0.556474 0.147930 -0.358611 0.451059 0.209995 -0.322437 0.385114 -0.240332 0.015530 0.131539 0.248895 0.045912 -0.092873 0.345434 0.710185 -0.624835 -0.167690 -0.092426 0.161555 -0.135411 -1.038362 -0.878074 0.383350 -0.137391 -0.385037 0.200976 1.310258 -0.256097 -0.174746 -0.092068 0.320129 0.157313 1.029219 -0.695067 -0.255789 0.156723 -0.488388 0.223740 0.474245 2.032662 -0.623802 -0.692350 3.163304 0.059749 -0.568360 0.122116 0.058812 0.078410 -0.256316 -0.171553 0.042766 -0.022535 0.267596 -0.352213 -0.222686 -0.373302 0.356881 -0.261824 -2.639750 -0.318106 0.194586 0.531226 -0.375828 0.203041 -0.576746 -0.251756 0.903393 0.184669 -0.043704 -0.163613 -0.248190 0.552763 -0.170117 -0.490669 -0.334117 0.571072 0.347627 -0.027024 -0.178462 -0.114776 0.100234 0.480280 0.184638 0.298016 -0.008037 -0.491633 0.191963 -0.271964 -0.207865 -0.013998 -0.372902 -0.313941 -0.044788 0.112393 -0.412036 -0.192405 0.116669 0.615966 -0.041439 -0.339379 0.095628 0.111451 -0.132583 -0.207519 -0.122224 0.474017 -0.205126 -0.253107 -0.817809 -0.044522
40 -1.234127 0.377434 -0.210276 -0.465599 -0.009521 0.085585 -0.471333 -1.026701 0.022255 0.250120 -0.365285 0.100907 0.476407 -0.245427 -0.484232 0.209837 0.563451 0.170709 -0.251498 0.260399 -4.910800 0.247314 0.152205 0.196988 0.930883 -0.442265 0.079601 0.099427 -0.426670 -0.399591 -0.182319 0.955023 -1.741787 -0.330962 -0.092594 0.142581 0.010451 -0.101397 0.320193 -5.668550 -0.425359 -0.109364 0.101955 0.528242 -0.026974 0.052015 -0.168579 0.517554 0.219898 0.111764 -0.179476 -0.634167 -0.086539 0.026166 0.090491 -0.183378 -3.201168 0.129261 0.441199 0.508079 0.481917 0.060007 -0.590252 0.072389 -0.040055 0.530778 -0.534093 -0.120165 -0.020798 0.031798 0.005987 0.123425 -0.226744 -0.023339 -0.157848 -0.156365 -0.086122 -0.842748 0.239697 0.334272 0.408901 -0.814370 0.339032 0.494528 0.009520 -0.229594 -0.250306 0.372688 0.104128 -0.160929 -0.275611 0.221290 0.546798 -0.007375 -0.170825 -0.200101 0.222110 -0.409876 -0.476440 -0.582471 -0.380073 0.148105 -0.553905 -0.156955 -0.021833 0.007520 -0.120783 0.313650 -0.290280 0.239632 0.054399 -0.658442 -0.170983 -0.163032 0.105468 -0.433229 -0.127699 0.281560 -0.327386 -0.356718 -0.283489 -0.379142 0.789418 -0.601867 0.376150 0.150790 -0.348780 0.031827 -0.323576 2.041975 0.155141 0.037992 3.332171 0.844626 0.074481 0.274350 -0.769924 -0.284683 0.188450 0.068025 -0.143451 -0.218744 0.404515 -0.260187 0.163106 0.045764 0.433215 -0.175624 -2.732168 0.200913 0.037580 0.315588 -0.183769 0.688859 -0.168515 0.159447 -0.146870 0.273418 -0.122261 0.116455 0.230096 -0.151647 -0.293145 0.089953 0.367138 0.783731 0.639694 -0.749295 -0.087159 0.511416 -0.097654 -0.169404 -0.068699 -1.249963 0.088057 0.063562 -0.104884 0.433332 0.218136 0.572948 -0.370738 -0.526714 -0.484459 -0.277097 -0.540210 -0.118808 -0.161687 -0.201496 -0.006004 0.245359 -0.137092 0.088607 -0.280313 -0.279483 -0.335584 -0.946631 -0.230658 0.620549 -0.538757 -0.351328
376 -0.307708 -0.077244 0.299602 0.149096 0.184803 0.180594 -0.077575 -0.215658 0.138682 0.209513 0.036735 -0.123667 -0.303608 0.266768 0.086004 -0.465504 0.419145 0.092708 -0.146708 0.067498 0.217236 0.179161 0.175795 0.591009 0.003932 -0.161212 -0.063565 -0.202212 -0.049125 0.457222 -0.117929 0.021212 -0.543499 -0.130946 -0.163476 0.259406 -0.205416 -0.075279 -0.726803 0.669485 -0.757527 -0.007187 0.557586 -0.771107 0.021112 0.260722 -0.186555 0.483441 0.053558 0.388560 -0.649239 -0.375125 -0.149996 0.190328 -0.263950 0.021422 0.426554 0.014987 0.228397 -0.897731 0.198539 0.000212 0.952400 0.445284 0.531228 -0.664419 0.675729 -0.012318 -0.179961 -0.055407 -0.169082 -0.125436 -0.098317 -0.905681 0.465753 -0.324625 -0.071802 0.689157 1.351532 0.008954 0.113631 -0.224833 0.069798 0.543918 0.092429 1.090147 0.263903 -0.425297 -0.486331 -0.035979 0.019931 0.308989 0.262133 0.268898 -0.220336 -0.350226 -0.055655 0.030445 0.004147 -0.800502 0.379013 -0.245109 -0.023979 0.347978 -0.078494 -0.254681 -0.009693 -0.328815 0.212493 -0.588280 -0.016195 -0.660666 -0.222936 -0.097814 0.036192 0.526362 0.273454 -0.419300 -0.143300 -0.110833 -0.168587 0.072535 0.288385 -0.682653 0.103554 0.243664 -0.283581 0.054084 0.287516 -0.398694 0.230328 0.194052 -0.296989 -0.141523 0.563960 -0.140551 -0.899399 0.280255 -0.748316 0.724878 0.154967 0.048321 -0.105022 0.281984 0.122643 0.386052 -0.039844 -1.481620 -0.285173 -0.114970 -0.119939 -0.260371 -0.715375 0.411679 -0.929838 0.177353 0.217253 -0.238102 0.128156 0.195246 0.188093 0.094852 3.075473 -0.026233 0.062601 0.117919 0.386504 -0.062574 0.009843 -0.239021 -0.033488 0.626711 0.173073 0.310414 0.298640 0.171384 -1.123085 -0.110964 0.052874 -0.251994 0.176570 0.104460 -0.151284 0.352737 1.051493 0.161583 -0.237551 0.310700 -0.208701 0.125771 0.285721 -0.086468 -0.004606 -0.453909 -0.137933 -0.277070 -0.068421 0.217306 1.047840 -0.780789
20 0.041852 -0.029985 -0.377849 -0.408844 0.163132 0.139005 -0.480746 -0.067323 0.225801 0.207667 -0.228990 0.982577 0.466665 0.378107 -0.225167 -0.022668 -0.348613 -0.195398 0.106075 -0.052566 -4.806941 0.074495 -0.025732 -0.401057 -0.291120 0.089403 0.160301 0.374039 -0.918577 -0.206222 0.017641 -0.321115 -1.630150 0.356523 0.522914 0.124534 -0.345521 0.256792 -0.053693 -5.591310 -0.094251 -0.231088 -0.143332 0.193442 -0.079055 -0.794467 0.043992 0.219966 0.266334 0.030322 -0.369550 0.061865 -0.163940 0.134190 -0.288165 -0.533844 -3.374654 0.111895 -0.089369 0.136591 0.534621 0.471190 -0.115207 -0.143557 -0.247052 -0.083241 -0.703250 -0.118693 0.318701 0.023333 -0.068452 -0.343180 -0.016461 -0.025106 0.297304 -0.225539 0.328713 0.315870 0.068213 -0.256694 0.179094 0.363173 -1.719277 0.074525 0.114938 -0.364636 -0.623106 0.004097 0.061425 0.556552 0.360994 0.353924 0.371157 0.098332 0.351542 0.420294 -0.356050 0.032620 -0.271321 -0.208750 0.073206 0.145414 0.218048 -0.301877 -0.154243 0.019987 -0.112718 0.215472 0.132529 -0.015158 -0.195037 -0.097027 -0.101406 -0.439622 0.170020 0.443052 0.068738 -0.416973 0.267059 0.231464 -0.646310 -0.075611 0.742865 -0.579704 -0.423680 -0.242722 0.441853 0.038633 -0.688703 2.053579 0.143673 0.165491 3.277602 -0.193858 0.183357 0.735262 -0.278397 0.424410 -0.096919 0.004402 -0.287994 -0.312062 -0.971629 0.227752 0.009658 0.069974 -0.775837 0.186720 -2.717187 0.129558 0.194790 -0.317417 -0.089737 -0.072863 0.354677 0.158620 -0.453524 0.162544 -0.388926 0.369537 -0.003538 -0.009860 0.412447 -1.209225 -0.457277 0.182576 -0.262378 0.034568 -0.132148 -0.520629 0.433006 -0.613936 -0.142500 0.087939 0.228983 0.134833 0.143749 0.638872 0.156091 -0.064228 -0.078419 -0.106458 0.388419 -0.143812 -0.144910 -0.198540 0.104059 0.138214 -0.195719 -0.461184 0.367004 0.033811 -0.289920 -0.166294 -0.094702 -0.586277 0.233931 -0.472729 -0.567677 -0.330432
14 0.125408 0.147610 0.865151 -0.112635 -0.046262 0.068224 -0.101321 0.186923 -0.204790 -0.315340 0.271733 -0.059061 0.486616 0.197915 0.938080 0.068041 0.336629 0.235747 0.096600 -0.583996 -4.823002 -0.149068 -0.042842 -0.246807 0.849671 -0.029945 0.375432 0.082825 -0.416106 0.436521 -0.574055 -0.366578 -1.628158 0.109000 -0.240047 0.103534 -0.278313 -0.344613 0.329146 -5.539958 0.039840 -0.488523 0.037127 -0.858418 0.242454 -0.090639 -0.184219 -0.441816 -0.108370 -0.369245 -0.653572 -0.829435 0.192335 -0.183468 0.104387 -0.226269 -3.296034 0.034355 0.161325 -0.372029 -0.094101 -0.658323 -0.068154 -0.824864 0.227274 -0.437150 -0.074917 -0.111070 -0.387590 0.616289 -0.275854 0.355566 0.330371 0.067529 -0.318845 0.242705 0.065219 -0.029927 -0.499164 -0.211275 -0.062552 -0.391631 -0.075109 -0.385643 -0.763990 -0.243480 0.208062 0.030250 -0.170303 0.257954 0.059535 0.255363 0.042632 -0.590013 -0.170944 -0.133874 -0.723302 0.516324 -0.636535 -0.268373 -0.031377 0.075911 -0.202020 -0.736671 -0.229952 0.145646 -0.141446 0.116789 -0.126999 0.001266 0.206695 0.248560 0.359445 -0.171225 -0.146614 -0.332888 -0.045984 -0.548002 -0.126992 0.116871 0.169257 0.215612 0.865527 -0.494101 -0.131308 -0.087673 -0.097500 0.108024 0.084445 2.088799 -0.127563 -0.496343 3.327490 -0.126957 -0.163705 -0.093770 0.262926 0.241253 0.050360 0.181148 0.099983 0.179177 0.094761 -0.577799 0.525213 -0.503469 0.149754 0.158370 -2.756824 0.013067 0.246399 -0.012405 0.158620 0.408203 0.294121 -0.080618 -0.056988 -0.369989 -0.030567 -0.025931 -0.227225 0.491851 0.069619 -0.124410 -0.517284 -0.449749 0.164679 0.068625 -0.125195 -0.195074 0.158864 0.168717 -0.338834 -0.781524 -0.012120 -0.927519 -0.694929 -0.301910 -0.273843 0.047941 -0.327516 0.053304 0.231794 -0.324883 0.070829 0.108359 0.127598 0.159117 0.128440 -0.098619 0.212864 0.256397 0.086476 -0.353654 0.023926 -0.167230 -0.358027 -0.057356 -0.439003 0.304994
387 -0.294125 -0.004637 0.275806 0.106682 0.121620 -0.059449 0.177581 -0.208578 0.284852 0.163804 -0.314922 0.105069 -0.264078 -0.354288 0.065842 -0.000373 0.273979 -0.700724 0.408295 -0.420686 0.023374 -0.192873 0.132520 -0.019166 -0.322046 0.004033 0.222614 0.016084 0.021355 -0.298285 -0.090184 0.034914 -0.418480 -0.316655 -0.092845 -0.183339 -0.290762 -0.154788 -0.743617 0.703254 -0.203196 0.035747 0.105403 0.317245 -0.194579 -0.099203 -0.034719 -1.846795 0.491512 -0.129194 0.336836 -0.106387 -0.147888 0.239914 -0.185031 -0.879914 0.423828 0.018443 -0.009767 -0.201673 0.196544 -0.394422 0.510184 0.133056 -0.842797 0.357690 -0.215737 -0.003614 -0.153960 -0.047936 -0.321018 -0.143402 -0.147213 -0.355041 0.341695 0.105912 0.106997 -0.461986 -0.410990 0.164860 0.586708 0.191571 0.420153 0.134835 -0.099728 0.283400 0.262670 0.035675 0.070660 0.043730 -0.053796 0.305180 -0.217457 0.065994 -0.143693 0.273016 0.147719 0.279189 0.414111 -0.396677 -0.418002 -0.046367 0.016153 0.225872 -0.380394 -0.131845 -0.023027 0.241372 -0.164198 -0.179961 0.374148 0.163203 -0.208297 0.012408 0.122078 -0.348730 0.439835 -0.105304 -0.353999 -0.081926 -0.002223 -0.303850 0.116764 -0.707306 -0.893076 -0.763120 0.331017 -0.167256 -0.501845 -0.153960 -0.035334 -0.269151 -0.193465 -0.515311 -0.109858 -0.059259 -0.774731 0.054784 0.646027 -0.337760 0.228984 -0.038247 -0.014099 -0.293493 0.166691 0.311899 0.276721 -0.026066 0.199811 -0.173842 -0.178918 0.063235 -0.684657 -1.861274 -0.225358 0.043111 -0.256409 0.102889 0.316926 -0.196120 -0.408485 0.170190 0.174959 0.173734 -0.036159 -0.078853 0.286742 -0.375308 -0.000649 -0.438423 0.039332 -0.343374 0.008223 0.054631 -0.511505 -0.168384 0.153673 -0.133761 -0.229214 0.267760 0.201288 -0.093423 -0.289875 0.266478 0.026036 -0.037283 -0.336044 -0.081956 0.144342 0.066882 -0.016037 -0.328164 0.596911 -0.438390 -0.481198 -0.121772 -0.146315 0.159512 0.877665 0.290596
22 -0.217874 -0.120980 -0.080535 -0.105509 -0.314239 -0.034332 0.613103 0.527669 0.147631 0.128837 -0.142751 -0.537786 0.289327 -0.142894 -0.174912 0.079456 -0.041807 0.183624 -0.558380 -0.117284 -4.821659 0.140468 -0.043702 0.075080 0.342969 0.387206 -0.735860 -0.298655 -0.069801 -0.171141 0.057775 0.077457 -1.711203 0.018447 -0.010474 0.242499 0.304023 0.295057 -0.230054 -5.641887 -0.404089 -0.274971 -0.216002 0.054385 -0.067613 -0.152799 0.213169 -0.217482 0.076124 0.135616 -0.174656 -0.200476 -0.243784 0.352006 0.023170 0.182250 -2.931677 0.070792 -0.897511 0.147941 0.285652 -0.200885 0.063979 -0.463987 0.505098 -0.100866 0.240647 -0.092305 -0.062877 0.003959 -0.157802 -0.169230 0.213056 0.464347 0.104113 -0.048144 -0.184401 -0.261194 0.209558 -0.115023 0.551708 -0.285076 -0.075590 0.169972 0.133505 -0.678033 0.397411 -0.195081 0.281070 -0.149232 -0.368457 -0.441281 -0.237761 0.200498 -0.107615 0.110991 -0.080966 -0.416774 -0.474430 -0.183059 0.212994 -0.133773 -0.039110 -0.128489 0.075206 0.067388 -0.110972 -0.341970 0.565388 0.023094 -0.589878 -0.062206 0.399580 0.177937 0.338812 0.170750 0.275482 -0.243566 -0.312464 0.132102 -0.277410 -0.202798 0.605993 -0.534839 -0.128150 -0.383578 -0.323169 0.220393 -0.059563 2.039258 -0.091765 -0.188435 3.313158 -0.010847 0.119147 -0.358404 0.409339 0.077026 -0.077811 -1.146223 -0.018441 0.002735 0.089968 1.492201 0.342414 0.242888 -0.015543 0.057915 -2.707743 0.408084 -0.090106 0.093525 0.145462 -0.356422 -0.334081 0.157149 0.040866 -0.466493 0.044772 -0.301032 0.113560 0.173924 0.065871 0.260880 0.073928 -0.444320 -0.227457 0.024383 -0.109495 0.095380 -0.175679 -0.168082 -0.394552 -0.021321 0.053507 0.014854 -0.090005 0.681709 -0.058677 0.021862 -0.387924 0.410993 -0.085762 0.442754 -0.395477 -0.115249 0.056131 0.362484 -0.236715 0.413693 -0.025297 0.257720 0.155579 -0.699971 -0.036395 -0.290638 0.017266 -0.098647 -0.591273 0.202284
16 -0.266807 -0.108721 -0.275147 0.042080 0.134128 0.490944 0.162831 -0.006396 1.275163 -0.267741 0.361436 0.042641 0.010182 0.091241 -0.251423 0.148267 -0.160636 0.179963 -0.015755 -0.051044 -4.885972 -0.206023 -0.068075 -0.009033 0.106492 0.032424 -0.154900 -0.058392 0.251145 -0.143986 -0.050361 -0.183242 -1.668221 -0.061786 0.146951 -0.102069 -0.409959 -0.068429 -0.114535 -5.624061 0.236278 -0.447326 -0.089824 0.094886 0.089980 -0.459011 0.047735 -0.142629 -0.166245 0.058342 0.683773 0.099372 0.176706 -0.171362 -0.085647 -0.198518 -2.924295 0.077344 0.090284 0.588212 -0.285998 -0.129182 0.065486 -0.008719 -0.264507 -0.066350 -0.243382 -0.106791 0.128181 0.323505 -0.074062 0.329790 -0.755150 -0.357143 -0.131867 0.152328 0.196100 0.153803 0.311985 -0.145061 0.246880 -0.182118 -0.122656 0.768528 0.046164 -0.008599 0.714619 -0.107134 -0.214678 0.108632 -0.270530 0.134000 0.060528 -0.506064 0.062503 -0.312120 0.205829 0.156672 -0.433931 0.044263 0.275964 0.227616 0.042838 -0.056745 -0.096499 -0.108559 -0.097798 0.629009 0.206201 0.144705 -0.319078 -0.027790 0.287111 0.223330 -0.189624 0.015412 0.202035 0.686466 0.137169 0.106936 0.097440 0.399918 0.724042 -0.673430 0.173078 0.337877 0.219877 -0.250652 0.244931 2.114690 -0.469550 0.560979 3.310010 -0.051554 -0.187593 0.505072 0.106095 0.064694 0.234501 0.193990 -0.361163 -0.219244 -0.091448 0.148127 -0.178746 -0.149139 -0.114702 -0.095888 -2.723837 0.309985 0.175881 -0.177226 -0.007882 0.113857 -0.201627 -0.062822 0.140444 -0.006661 0.008167 -0.536964 -0.160578 0.530011 0.031083 -0.104906 -0.494752 -0.289734 -0.163040 -0.173685 -0.135970 0.266390 0.107345 0.324612 0.157058 0.122996 -0.068847 -0.072479 -0.417364 -0.483327 0.274309 -0.152159 -0.250982 0.021136 -0.156895 -0.250427 0.008392 -0.075859 0.147278 0.036852 0.001096 0.417191 -0.832277 -0.048099 0.093427 0.129333 -0.145685 0.134612 0.636757 0.044432 -0.469061 0.459840
19 0.152375 0.109310 -0.216615 -0.258790 -0.149011 -0.179885 0.182312 -0.314550 -0.489706 0.477543 0.425865 -0.004907 0.450154 0.074485 -0.433255 0.582641 -0.048724 0.048734 0.492474 0.270449 -4.706558 0.182924 -0.180830 0.357294 -0.258801 0.027888 -0.350132 0.160538 -0.062907 0.325652 -0.206158 -0.141400 -1.612971 0.240047 -0.118039 -0.012207 0.007965 -0.089460 0.306371 -5.478614 -0.146984 -0.121608 0.256041 0.083637 0.007301 -0.104619 0.120664 -0.479428 -0.061727 -0.524953 -0.229039 -0.034994 0.124425 0.054620 -0.096296 0.029769 -3.219044 0.068380 -0.166205 -0.192066 -0.223352 0.026430 -0.319155 -0.157776 0.034026 -0.009922 0.251290 -0.104638 0.465193 0.094931 -0.332538 0.227793 -0.314973 -0.049955 0.121953 0.361276 -0.093290 -0.286972 -0.083431 -0.251986 0.138694 0.130058 -0.412883 0.001745 -0.070548 -0.003438 -0.090819 -0.309920 -0.468683 0.265406 -0.276545 -0.444191 -0.204955 0.437066 -0.048794 -0.059822 0.071836 0.145963 0.343972 0.106711 0.030102 0.204480 -0.245501 0.532911 0.198095 -0.529304 -0.124632 0.523157 0.188971 0.063075 0.191563 0.218943 0.139217 -0.256411 0.071330 -0.284443 -0.028167 -0.029193 0.701945 0.349907 0.355881 0.270882 0.700668 -0.605758 0.143495 -0.144290 -0.122532 0.174643 0.495226 2.083569 0.593412 0.185830 3.198826 0.050555 0.305223 -0.311339 -0.163028 0.462192 0.024597 -0.329041 0.101498 0.427526 0.147792 0.182880 -0.153977 0.756474 0.113547 0.316229 -2.641547 -0.244095 -0.237787 -0.190101 0.419845 0.092506 -0.185681 -0.060487 0.163696 -0.437312 -0.578449 0.032125 -0.133414 -0.179807 0.010861 -0.184708 -0.078200 -0.009880 0.286600 -0.048114 -0.149997 0.215497 -0.021099 -0.149720 -0.195671 -0.360572 -0.006279 0.423875 -0.347348 -0.487216 0.071328 0.531413 0.194219 -0.081266 -0.197470 -0.577314 0.118125 -0.063791 0.085616 0.061545 0.147265 -0.270001 -0.411447 -0.454847 0.371371 0.142591 0.137473 0.188684 -0.080645 -0.115281 -0.481194 -0.439773
80 -0.035737 0.036295 0.115926 0.091069 0.361895 0.126299 0.036279 0.305425 0.052946 -0.321682 -0.040549 -0.210994 0.175394 0.131205 -0.048894 -0.115412 -0.053598 -0.104519 -0.791916 0.037968 -4.689158 0.555847 0.012250 -0.345441 0.323231 -0.324447 -0.255026 0.165510 0.197617 0.050308 0.545889 0.163737 -1.619208 0.030130 -0.172613 -0.370198 0.024540 -0.146969 -0.155074 -5.491602 -0.166841 0.115776 0.008729 -0.102475 0.310260 -0.311887 0.086583 -0.157834 -0.054086 -0.061596 0.652636 0.018580 0.349792 0.165637 -0.075174 0.096978 -3.249615 0.069404 -0.188084 -0.047806 -0.124285 0.198537 -0.020955 0.268764 0.434591 -0.013795 0.362413 -0.094470 -0.255758 -0.302859 -0.087819 0.234981 0.107779 -0.008689 0.033805 0.252628 -0.261956 -0.260853 -0.245139 0.307696 -0.277815 0.085710 0.439161 0.360686 0.157694 0.110061 -0.284748 -0.178841 -0.149405 0.511768 0.097882 0.223621 0.231608 0.112340 0.102804 0.061461 -0.021016 0.248077 0.209368 -0.062011 -0.491046 0.260222 -0.017035 -0.297297 0.340475 -0.679199 -0.073067 -0.465356 -0.216467 0.169498 -0.220238 0.192084 -0.054715 -0.557519 -0.266451 -0.006995 -0.100583 -0.032611 0.397574 -0.108259 -0.256415 -0.260000 0.472024 -0.766522 -0.070320 -0.046287 0.050710 -0.107067 0.035503 1.991284 0.511472 0.094407 3.138025 0.303205 -0.307835 0.266223 -0.124725 -0.332418 -0.087931 -0.105550 -0.124231 0.129153 0.218244 0.224504 -0.489051 0.095979 -0.179720 0.251661 -2.571027 0.306052 -0.579783 0.071092 -0.345350 -0.154968 0.241659 -0.150221 0.153238 -0.394213 0.629424 0.155148 -0.195957 0.251574 -0.068587 -0.558188 -0.480989 -0.011529 -0.058766 0.620466 -0.082333 0.035952 -0.242029 -0.267578 0.115570 0.008849 -0.336819 -0.163528 -0.271183 -0.000133 0.031213 -0.361692 -0.005781 -0.099917 0.361701 -0.265193 0.326569 0.034536 0.104553 -0.237912 0.796751 0.121684 0.014468 -0.082444 -0.269552 -0.191693 0.118841 -0.461850 -0.259639 -0.012982 -0.596393 -0.024173
67 0.053131 -0.001157 -0.214580 0.182437 -0.156195 -0.410787 0.012177 0.078543 -0.065284 -0.186663 -0.240864 0.033350 -0.163937 0.070382 0.561545 0.289518 0.293058 -0.095819 -0.029854 0.205038 -4.824083 0.216592 -0.087688 -0.096131 0.259511 -0.080032 -0.089941 0.001725 0.273444 -0.141549 -0.146434 -0.473089 -1.623288 -0.151940 0.169197 -0.295554 0.133530 0.112044 0.159105 -5.512552 0.084319 -0.037390 0.309367 0.198314 -0.478773 -0.405526 -0.723707 0.193771 -0.084971 0.114955 -0.178489 -0.621002 -0.069601 -0.117846 -0.151792 0.067427 -2.884509 0.087783 -0.117462 0.157312 -0.076535 -0.046967 -0.076672 -0.136616 -0.035482 -0.000031 -0.045559 -0.099351 0.351735 -0.258552 -0.081626 -0.084260 -0.261919 -0.260456 -0.054786 -0.272865 0.027698 0.018309 -0.066181 -0.285901 0.160827 -0.359734 -0.055171 -0.420195 0.018437 0.315094 -0.453191 -0.291309 0.049671 0.239681 0.441774 -0.253552 0.045293 0.063720 0.143174 -0.480689 0.260787 0.284831 -0.332743 -0.304850 -0.256067 0.060171 0.045766 0.182690 0.172221 0.444587 -0.102671 -0.281424 -0.192032 -0.205485 -0.243534 -0.240102 0.116798 0.018526 0.252549 -0.000749 -0.058391 -0.254651 0.344520 0.005171 0.227656 0.255425 0.620095 -0.677778 0.111316 -0.877680 -0.212288 -0.454003 -0.133472 2.096592 0.032800 0.421492 3.290223 0.112295 0.338510 -0.292941 0.050138 -0.315598 0.266194 -0.003155 0.015365 -0.433301 0.202060 0.182129 0.353947 0.176235 -0.126678 -0.086595 -2.648707 0.215814 0.130521 -0.382469 -0.478063 0.051574 0.072352 -0.352964 0.445560 0.252486 0.120305 0.130035 -0.413760 -0.069610 0.001069 0.146090 -0.011708 0.188083 -0.308774 0.172681 -0.116961 -0.082797 -0.252631 -0.258761 -0.019075 -0.092286 0.217692 0.137933 0.048725 -0.197966 0.197279 -0.224827 -0.045255 -0.125882 0.182527 0.502869 -0.141727 -0.189328 -0.000249 -0.146777 0.245508 0.196067 -0.387115 0.075663 0.092177 0.848683 -0.585090 0.592186 -0.369147 -0.124230 -0.548596 0.266584
398 0.066887 0.038267 0.419262 0.060815 0.103399 0.269079 -0.223984 -0.108522 0.053500 0.327653 -0.024083 0.000775 -0.142705 -0.184808 0.522137 0.133213 -0.410798 -0.050142 -0.083432 -0.430580 0.675808 0.087609 -0.055919 0.207588 0.037521 0.094745 -0.547799 -0.075283 0.275154 -0.080640 -0.052407 0.230285 -0.061519 -0.513045 0.089391 -0.528370 -0.042902 0.143219 -0.050339 0.300198 -0.227137 0.076127 0.057954 0.043453 0.233624 -0.061099 -0.198854 0.033853 0.080654 -0.069009 0.211081 0.120210 -0.252452 -0.189819 0.104638 -0.248473 0.380232 0.047271 0.549597 -0.126856 0.507481 0.344995 -0.329820 0.106778 0.252195 0.214821 -0.320874 -0.026440 -0.086783 0.041572 0.363324 -0.223183 0.086875 -0.075381 0.443343 0.383814 -0.193579 0.363467 0.038668 0.087007 -0.082130 -0.133768 -0.287700 0.050154 -0.179517 0.474175 0.059772 0.227028 0.073623 0.082196 -0.135026 -0.169501 -0.251678 -0.230480 -0.425883 -0.019948 0.052585 0.024284 -0.044232 0.088094 -0.082039 0.121995 0.048235 0.311599 -0.242227 0.098010 -0.038157 0.014129 -0.180898 -0.036421 0.109058 -0.268024 0.012139 0.144245 0.100811 -0.060949 0.516926 0.070370 -0.061984 0.207226 0.190433 0.015792 0.109356 -0.444045 -0.124367 0.659447 -0.018798 0.140087 0.186382 -0.015271 0.539466 -0.128474 0.305968 -0.067669 -0.025956 -0.254742 0.583166 0.139504 0.063924 -0.389199 0.128716 -0.402503 0.216298 0.437673 0.104500 0.075931 0.004195 0.220974 0.098005 -0.057054 -0.163337 0.388825 0.295688 0.103942 0.303321 0.085686 -0.415530 0.306870 0.148795 0.484973 -0.045650 -0.059488 -0.118916 -0.361622 0.188522 -0.021507 -0.251459 0.011349 -0.051809 -0.058869 -0.134296 0.062781 0.177937 -0.327479 0.371389 -0.118497 -0.049434 -0.127353 -0.106392 -0.334880 0.461087 -0.189224 -0.067939 0.195940 0.419055 -0.107994 -0.179605 -0.043642 -0.022970 -0.237104 -0.111811 0.178415 -0.242387 -0.202908 -0.323393 0.206747 0.090346 -0.047063 0.816902 0.264220
26 0.372285 -0.138942 0.486019 0.031769 0.082000 0.000533 -0.132175 -0.229993 -0.097073 0.185880 -0.336840 -0.428072 0.337428 0.071056 -0.132067 -0.065428 0.508333 -0.184820 0.236757 -0.332484 -4.616990 -0.090650 0.022455 0.138770 -0.180319 -0.139659 0.352409 -0.185407 0.243942 0.422765 0.074892 0.215955 -1.546890 0.098761 -0.177649 -0.085729 0.514122 -0.323020 0.229557 -5.365194 -0.677149 0.105723 -0.043647 0.124531 -0.101832 -0.097768 -0.163490 -0.124243 0.032563 0.226728 0.055910 0.363426 -0.104308 0.257935 0.218626 -0.063447 -3.380951 0.085118 0.351990 0.641085 0.187673 0.315695 -0.428411 -0.275475 0.107968 0.020193 -0.245860 -0.098287 0.278757 -0.277241 0.271317 0.194559 0.069240 0.171672 -0.574894 -0.078457 -0.385912 0.242696 -0.313962 -0.463813 0.027335 0.067127 0.199396 -0.399635 -0.106642 0.273901 -0.067305 -0.135325 -0.010240 0.397931 -0.443401 0.311262 0.100105 0.122272 0.055712 0.437337 -0.408485 0.211484 -0.501602 0.476785 -0.121366 0.610791 0.467549 -0.341877 0.135328 -0.150690 -0.117459 0.157664 -0.069544 -0.047002 0.196083 0.225646 -0.069392 0.093100 0.078973 0.317636 -0.330421 -0.148437 -0.221197 -0.009235 0.088282 -0.108240 0.667071 -0.633929 0.153235 -0.087534 0.007693 -0.567682 -0.081811 2.005391 -0.256254 -0.273995 3.086457 0.337933 0.082946 -0.359117 0.359403 0.259130 -0.430824 0.238691 -0.435251 -0.267604 -0.134665 0.402833 -0.831387 -0.004895 -0.029300 0.138510 -2.479501 -0.224981 -0.379235 -0.309223 -0.089806 0.001859 -0.349696 0.034222 -0.352440 0.037149 -0.095166 0.034113 0.412241 -0.107095 0.404019 0.502178 -0.224478 -0.070188 0.011447 -0.255375 -0.111698 -0.248005 0.202173 -0.143248 0.141846 0.291773 -0.238456 0.136560 0.174715 -0.365690 -0.115976 0.103917 -0.361918 -0.009507 -0.422979 0.309878 0.031106 -0.231930 -0.030455 -0.018906 0.176162 0.227280 -0.234990 0.220300 0.163962 0.172765 -0.195814 -0.129151 0.388268 0.037035 -0.499830 -0.095758
6 0.165347 -0.123760 0.054687 -0.120836 -0.390207 0.119319 0.002710 0.428608 0.438862 0.552520 -0.080296 0.128497 0.378563 0.082294 -0.195420 0.160312 -0.061354 -0.143138 -0.275741 -0.334481 -4.832615 0.096998 -0.077672 0.391027 -0.674331 0.235694 -0.073834 -0.352528 -0.201005 0.135120 0.239058 -0.022151 -1.634240 -0.412158 0.392590 0.685161 0.152568 -0.322857 -0.025939 -5.466056 0.005990 -0.259757 -0.452571 -0.085552 -0.447296 -0.067539 -0.087939 0.145307 -0.161543 -0.069077 0.055523 0.039824 0.144937 -0.088966 0.129735 -0.316296 -2.878724 0.145523 0.237364 -0.379634 -0.711546 -0.007353 0.347714 0.140395 0.062124 0.153619 0.115137 -0.079139 -0.145729 -0.214686 -0.268411 0.058962 0.021439 0.219312 -0.169502 -0.010855 0.109456 -0.040475 -0.206421 0.117620 0.099631 -0.460436 -0.065503 -0.153711 -0.305488 0.178882 -0.485179 -0.088195 0.203702 -0.171752 0.175264 0.122344 -0.093560 -0.118551 0.247937 0.557693 0.061305 -0.018600 -0.113494 -0.004117 0.187676 -0.067749 0.481405 0.026536 -0.007722 -0.223129 -0.109871 0.009239 -0.293309 0.374872 0.165808 0.007782 -0.101115 0.113818 -0.421094 -0.138804 0.182478 0.228825 0.020366 0.129428 0.129063 0.088986 0.728280 -0.580644 0.050124 0.001670 -0.122284 0.212645 -0.099019 1.942024 0.052171 0.245150 3.205375 0.205283 -0.057258 0.061177 -0.289076 0.176466 -0.009005 0.089100 0.552076 0.123385 0.154315 -0.142316 0.145126 -0.072678 0.476976 -0.154110 -2.647750 0.477180 0.086822 -0.309710 -0.349330 0.204916 0.180663 0.346951 0.408666 0.102134 0.028460 0.038277 0.058368 -0.141082 -0.364029 -0.092635 0.172399 -0.360040 -0.077587 0.426763 -0.136942 -0.187191 0.013867 0.226739 0.147979 -0.024244 -0.212585 0.005781 0.014759 0.126326 -0.112775 -0.095074 -0.094491 -0.246287 -0.681737 0.645790 0.047558 -0.401088 0.060416 0.232242 0.097629 -0.041692 -0.378701 0.339208 -0.165501 0.044915 0.383386 -0.101124 -0.230434 -0.194874 -0.452681 -0.413549
36 -0.054621 0.014402 -0.120476 -0.107001 0.047687 0.160583 0.466125 -0.278788 -0.358783 0.457179 -0.535151 -0.422234 0.059501 -0.217666 -0.155401 0.057306 0.034198 -0.447812 -0.406261 -0.245665 -4.823741 -0.540344 -0.020895 -0.297470 -0.020289 0.117902 0.326501 -0.082296 0.014025 -0.184393 -0.368458 0.063460 -1.637310 -0.163700 -0.080896 -0.253717 -0.274791 0.023223 0.219092 -5.551263 0.160254 -0.168383 0.306276 0.141340 0.295784 -0.257771 -0.163697 0.187324 -0.208799 0.264122 0.075144 0.169755 0.091439 -0.235008 0.733565 0.607025 -2.672371 0.081516 0.340607 0.068644 -0.387648 0.007912 0.688510 -0.218834 0.025078 -0.006529 -0.373708 -0.103412 -0.358200 -0.084879 -0.220339 -0.119499 -0.001450 -0.049736 -0.345498 -0.444621 0.230589 0.174033 -0.117682 -0.057245 0.083683 -0.156301 -0.579923 0.125664 -0.357722 -0.204350 0.325201 -0.101705 -0.340325 0.153038 -0.015288 0.228804 -0.032234 0.180652 -0.167831 0.152897 -0.213750 -0.487164 0.376135 0.147129 -0.258527 -0.165280 0.060629 0.022756 0.095013 0.024015 -0.088639 0.231772 -0.277017 -0.057625 0.111186 -0.138472 0.182347 -0.043559 -0.000719 0.226148 0.201423 0.254192 -0.042388 0.084670 0.108337 0.108607 0.607393 -0.580309 -0.145609 0.101927 -0.130582 0.017573 0.299556 2.038059 -0.068857 0.263851 3.254355 0.188454 0.225821 -0.346593 -0.315979 -0.390760 0.339419 -0.070232 0.189847 -0.030111 -0.220529 0.196962 -0.236057 -0.230863 0.083034 -0.298522 -2.669470 -0.133427 -0.043161 0.111549 -0.064652 0.158523 0.196017 0.223661 -0.316223 -0.380780 -0.009608 -0.457089 0.386926 -0.038383 -0.110296 0.245060 -0.264042 0.190143 0.006997 0.693407 -0.094202 0.207498 -0.379069 -0.411850 -0.049051 0.040963 -0.178918 0.041891 -0.087367 0.079527 0.177633 -0.143723 0.141105 0.134591 0.249390 -0.108324 0.043199 -0.076483 0.116790 -0.154707 -0.217896 -0.339517 0.364286 -0.434574 0.193008 0.025233 -0.071141 0.127480 -0.129297 0.022544 -0.519618 0.127292
8 0.009243 0.181045 -0.407054 0.006188 -0.673083 0.173742 -0.131394 0.015907 -0.271404 0.004065 -0.326203 -0.170688 0.088809 0.070691 0.097578 -0.123478 0.008042 0.323773 -0.199705 0.129040 -4.776197 -0.229927 -0.111176 0.205486 0.294191 -0.198289 -0.049699 -0.046365 0.041936 -0.369035 0.037534 -0.100134 -1.630725 0.524653 0.242196 0.001058 -0.385231 0.094983 0.164384 -5.470262 0.155551 -0.187162 -0.082730 0.375110 -0.162752 0.161177 0.160142 0.300555 -0.045648 -0.243980 0.294102 -0.403270 0.280176 -0.235533 -0.249379 0.095199 -3.001970 0.072209 -0.366322 0.103588 0.190765 -0.117510 -0.397154 -0.338107 -0.107118 -0.066068 0.156634 -0.106654 -0.397471 -0.041971 -0.129565 -0.757504 0.314375 -0.230433 -0.017244 -0.200801 -0.269864 0.138747 0.397112 -0.132833 -0.216080 0.441565 0.172916 -0.079382 -0.253313 0.171291 -0.191406 0.265007 0.114213 0.323904 -0.130133 0.092892 -0.218021 0.010610 -0.092748 0.232508 -0.026839 0.176520 0.347083 0.181794 0.099953 -0.099236 0.108538 -0.011628 -0.234599 0.126728 -0.107419 0.295736 -0.200487 0.652566 -0.221789 0.164333 0.432803 -0.022553 -0.131277 0.096823 -0.122592 -0.092705 -0.123087 0.078584 0.191481 0.225600 0.643154 -0.633801 0.366533 0.014671 0.005094 0.196021 -0.307007 1.996248 0.064196 0.202119 3.237148 0.184916 -0.013933 -0.310667 -0.067525 0.373261 -0.246510 -0.045270 0.337082 -0.155844 0.407535 -0.015512 -0.342043 0.035086 0.337173 -0.252150 -2.679784 -0.286192 0.221275 -0.424926 -0.092201 -0.493072 0.028233 -0.438006 0.051272 0.705826 0.184890 -0.168869 0.524888 0.031223 -0.219360 -0.357808 -0.097809 -0.101507 0.261782 -0.104137 -0.123820 0.115850 -0.220248 0.532133 0.100966 0.384861 -0.333083 -0.097345 0.128107 -0.017405 0.227831 0.273682 -0.044182 -0.217763 0.487709 0.011189 0.720427 -0.063582 0.037370 0.137099 0.158264 0.065602 0.227309 0.105923 0.349686 -0.412021 -0.148678 -0.115529 0.350791 0.218950 -0.474488 -0.075805
50 0.142492 0.126670 0.248903 -0.038652 -0.194459 0.692232 0.402094 -0.012668 -0.069364 0.267812 0.275885 -0.047313 0.126269 -0.695701 0.173849 0.091893 -0.235049 -0.000075 0.148136 -0.183716 -4.772998 0.064028 0.111275 0.005185 0.131169 0.275575 -0.270653 0.033148 -0.661121 -0.489296 -0.157898 0.026629 -1.605392 0.171122 -0.233124 0.153283 0.677220 -0.056669 -0.095583 -5.425219 -0.078542 0.129900 0.384997 -0.011780 -0.145722 -0.162698 0.243594 -0.336131 -0.195761 0.178698 0.300639 -0.192113 0.385269 -0.160017 -0.121156 0.496670 -3.092814 0.059493 0.221828 0.159993 -0.239585 0.182837 -0.121807 0.066301 0.049778 -0.093696 0.186012 -0.088239 0.563932 0.609422 0.136499 -0.305781 0.077524 -0.228463 0.051608 -0.187413 -0.297417 0.108312 -0.141222 -0.630254 -0.236172 -0.019444 0.195390 0.385678 0.187288 0.049803 -0.485975 0.256575 -0.094425 -0.044996 0.064020 -0.083099 0.120582 0.080456 0.279716 0.051820 0.273753 -0.320672 0.001627 -0.216201 0.086421 -0.408915 0.330107 0.097819 -0.025305 -0.120364 -0.102239 -0.205670 0.108409 0.273142 0.130263 -0.251025 -0.228470 0.034125 -0.022464 0.001240 0.087401 0.192422 0.024020 -0.191694 -0.134260 -0.090567 0.436926 -0.780637 -0.089129 -0.411349 0.234615 -0.264182 -0.209672 1.995971 0.249546 -0.196131 3.114668 -0.072139 0.100279 0.201445 0.210077 -0.246565 0.104342 0.587093 0.124680 0.001797 -0.380189 -0.154802 -0.578945 0.275855 0.245713 -0.025666 -2.549884 0.045891 0.383907 0.151577 0.464604 -0.030675 -0.244738 -0.088911 -0.327499 0.269994 0.303891 -0.193419 0.082184 -0.003203 0.039737 0.110881 0.187496 -0.048880 0.263812 0.132792 -0.062369 -0.181509 0.067717 0.047860 -0.179565 0.211937 0.222312 -0.296482 -0.265076 -0.049089 -0.140347 0.110067 -0.179535 0.077936 0.244959 -0.023819 -0.151935 0.105034 -0.025477 0.384882 -0.131002 -0.002344 -0.005957 -0.057941 -0.349821 0.110066 0.207278 0.143728 -0.301806 -0.165335 -0.637107 0.311074
56 -0.026343 0.254464 -0.196421 -0.170798 -0.506243 0.091249 -0.428965 -0.091117 0.254219 -0.250057 0.618517 -0.005674 -0.143971 0.136110 -0.001873 -0.473139 -0.029374 -0.012447 -0.021712 0.205158 -4.756724 0.329143 0.016259 0.029050 0.249648 -0.127160 0.256326 -0.152356 0.230870 0.005939 0.043125 -0.035766 -1.555928 -0.294291 0.298920 0.020254 0.240321 0.287039 0.143996 -5.480097 0.066670 -0.069278 -0.076866 0.306911 0.062727 0.291193 0.000725 -0.267401 0.034721 -0.108686 -0.122202 0.234553 -0.084542 -0.026728 -0.180599 0.621510 -2.997044 0.111889 0.195984 0.102173 -0.136269 0.180645 0.280817 -0.344905 -0.140166 -0.082330 0.521571 -0.093339 -0.076907 0.479533 0.147912 0.245761 0.059655 -0.130852 0.121926 0.348491 0.343565 0.773960 -0.512587 0.288084 0.038951 0.132341 0.191012 -0.045693 -0.277133 0.100882 -0.021626 -0.303088 0.222463 0.102939 0.215100 0.161688 -0.058138 -0.081378 0.120253 0.086955 0.127128 -0.228430 -0.137201 -0.142100 0.085088 0.045007 0.237042 0.526001 0.123970 -0.285104 -0.106991 -0.341153 -0.204213 -0.509576 -0.354276 -0.113885 0.139059 0.579472 -0.000851 0.114476 -0.465871 -0.045868 -0.094234 -0.228616 0.185100 -0.056773 0.577525 -0.812515 -0.779652 -0.090698 0.444592 -0.357111 -0.228543 1.960404 -0.259599 -0.033182 3.196607 0.050626 0.510993 0.172303 -0.024541 0.092779 -0.126503 -0.216532 0.023570 -0.353779 0.423571 -0.088569 -0.137584 0.255070 0.169422 -0.057092 -2.544903 0.309128 -0.127551 0.016064 0.108884 0.150529 0.298067 0.256788 -0.334010 -0.078928 -0.398362 -0.324905 0.054483 -0.259880 -0.250439 0.121347 -0.430815 0.038691 0.038313 -0.161112 -0.090754 -0.126921 -0.232206 0.134858 0.043851 -0.333922 0.075082 0.588716 0.286419 -0.003786 -0.029992 -0.239342 -0.288400 -0.277659 0.218396 -0.444332 0.143440 -0.054413 -0.045523 0.601851 -0.121311 -0.115759 0.129063 -0.017307 0.301404 -0.216883 0.153494 -0.269252 -0.285146 0.027403 -0.516714 -0.148181
120 -0.011942 0.325188 0.143451 -0.065592 0.125602 -0.265881 -0.494535 -0.120066 0.410921 0.201788 -0.060616 0.146262 0.082035 -0.111241 0.136546 -0.037296 0.254580 -0.351008 -0.293378 0.098801 -4.693864 -0.954911 0.092953 -0.161483 -0.208749 -0.077889 -0.533449 0.144113 0.257323 0.195264 0.384537 -0.465212 -1.582880 -0.003902 -0.143513 0.169225 0.082581 -0.343508 0.309554 -5.465130 -0.040235 0.134922 0.189573 0.051199 0.278857 -0.138610 0.106836 -0.020747 -0.013066 -0.228581 -0.095603 0.055893 0.201290 0.025847 -0.200282 0.202944 -2.983064 0.085698 0.016948 -0.271518 -0.104886 -0.229863 -0.101700 -0.049116 -0.354099 -0.157552 -0.320393 -0.072864 0.051143 -0.142959 -0.295483 0.174150 0.009005 -0.145468 -0.021066 -0.216357 -0.347953 -0.195865 -0.224023 0.503740 -0.053645 -0.024332 0.130991 -0.004995 0.061295 0.001408 -0.483921 0.133634 0.219855 -0.020948 0.405965 0.080982 -0.167502 0.044562 0.193645 0.169806 0.288714 0.276675 0.102070 0.326316 0.195284 -0.077835 -0.217914 0.251688 -0.175328 -0.142680 -0.083135 -0.099588 0.531461 -0.279995 -0.298146 -0.144590 0.160331 -0.565958 0.092537 -0.032088 -0.337202 -0.091741 -0.003367 0.224384 -0.066114 0.156253 0.400584 -0.639464 -0.245357 0.381794 0.008293 -0.423474 -0.015582 1.989074 0.128247 -0.595013 3.190066 -0.166482 -0.055830 -0.181224 -0.059818 -0.452842 0.284425 -0.126581 0.136674 0.256707 0.164129 0.152274 -0.163257 -0.454525 0.060457 0.059158 -2.537291 -0.089991 0.180848 -0.149768 0.249672 0.156427 0.049178 -0.108072 -0.053068 -0.168067 0.140877 -0.387780 0.391752 -0.563764 0.219276 -0.181066 0.179251 -0.294256 -0.112366 -0.290941 -0.065558 0.256356 -0.167201 -0.131659 0.026609 0.296180 0.318305 0.134622 -0.250335 0.231192 0.246175 -0.170932 -0.000922 -0.210214 -0.316681 0.152193 -0.034887 0.039701 -0.021100 0.178539 -0.369282 0.159198 -0.058307 0.070250 -0.234778 -0.038031 -0.008220 -0.066586 0.212175 0.272445 -0.616540 0.357878
476 -0.214974 -0.039074 0.134429 -0.155260 -0.026076 -0.279812 0.030827 -0.480069 0.094580 -0.067976 0.252673 -0.073417 -0.548845 -0.201573 0.365228 0.287046 0.171461 0.095285 0.178692 -0.207280 -0.226502 -0.069322 0.208506 0.135110 -0.126877 -0.170942 0.120439 -0.156479 -0.046344 0.446702 0.179057 -0.218345 -0.236010 0.212626 0.191914 0.001329 -0.133012 0.265754 -0.413642 1.036050 -0.333323 -0.014055 -0.432242 0.434328 -0.336000 0.010422 -0.240511 0.241791 -0.028418 -0.164324 0.032494 -0.026195 0.252813 -0.092744 -0.214792 0.047394 0.378117 -0.067880 0.169844 0.112733 -0.038392 -0.129310 -0.116820 0.018944 0.344084 -0.199919 0.019013 -0.013022 0.002797 -0.016301 0.454259 -0.134527 0.066506 0.165547 0.007431 -0.241182 -0.096813 -0.286185 0.182639 0.140813 0.274241 -0.222442 -0.115582 -0.186651 0.067959 0.252350 0.375265 -0.088432 -0.115048 -0.219441 0.331525 -0.198288 -0.273749 0.150685 -0.363694 0.699962 -0.176407 -0.293766 0.082759 -0.096642 -0.211612 -0.205452 -0.304330 -0.257668 0.378234 -0.069579 -0.028562 -0.243148 0.109089 -0.073937 0.079606 0.119504 -0.164602 -0.188624 -0.095580 0.068126 0.050182 -0.093090 0.336898 -0.107578 -0.347435 -0.171171 0.059933 -0.423212 0.043598 -0.146055 -0.029091 0.076506 -0.015730 0.176334 -0.168061 0.174156 -0.032139 0.049084 0.251135 0.563364 0.048472 -0.480480 0.097337 -0.215941 -0.036854 -0.255548 0.078116 -0.273032 -0.030425 -0.091073 -0.266997 0.020099 0.001055 -0.186909 0.118141 0.022216 0.486858 -0.108315 -0.283287 -0.016776 0.143456 0.028483 0.032979 -0.223144 0.008475 -0.195363 -0.309554 0.227376 -0.193166 -0.339920 0.204075 0.063319 0.012138 0.106686 0.240414 0.045454 -0.001877 0.057704 0.189731 0.009178 -0.008567 -0.129455 -0.367257 -0.146989 0.277548 -0.163972 -0.177967 -0.072445 0.403919 0.018014 0.002208 0.155533 0.285033 -0.248144 0.029012 -0.021812 -0.168113 -0.151524 0.045290 -0.101798 0.292987 -0.148469 0.735280 0.056555
30 0.216482 0.114094 -0.087854 0.216770 0.396758 -0.288455 -0.155273 0.048790 0.282460 -0.458659 0.026077 -0.186666 0.023526 -0.188264 -0.001671 -0.036803 -0.151406 -0.624412 0.055731 0.187518 -4.883279 -0.454317 0.038775 -0.241407 -0.065724 0.072609 -0.351172 -0.125756 -0.194501 0.384497 0.399389 0.025760 -1.628594 -0.291714 -0.122549 -0.110654 -0.133446 0.005479 -0.002249 -5.641105 -0.344009 0.123558 -0.210808 -0.195248 0.140282 0.023293 -0.150661 -0.126629 -0.129634 0.216167 -0.064361 -0.020985 0.092474 0.142853 -0.557941 -0.140704 -2.493995 0.046367 -0.419110 0.351676 0.221508 0.327861 0.619695 -0.418043 0.404965 0.055470 0.072178 -0.084561 -0.428994 -0.039272 0.379133 0.055498 0.043329 -0.155539 0.398274 0.790284 0.205133 -0.203257 0.073644 -0.028944 -0.521939 0.000943 0.060952 -0.531228 0.134364 0.005557 -0.567696 -0.202215 -0.235868 0.026062 -0.365801 -0.130762 -0.089913 0.270636 -0.082332 -0.229737 -0.081844 -0.719393 -0.007340 -0.540915 0.050321 -0.217581 0.013369 -0.116911 -0.146919 0.259995 -0.086102 0.233992 -0.028267 0.103984 0.490105 -0.084609 -0.017222 -0.064188 -0.159913 -0.044921 -0.128771 0.382272 -0.173699 0.388422 0.002586 -0.303257 0.384797 -0.647536 0.267903 -0.100069 0.169242 0.375756 -0.068005 2.020689 -0.024982 0.127604 3.236436 0.225659 0.029093 0.005441 0.059061 -0.202208 0.256363 0.065731 0.118558 -0.065694 -0.107251 -0.114372 0.002331 0.096047 -0.003906 0.044443 -2.708476 -0.309808 0.437334 -0.210178 0.019252 0.182350 0.071562 0.134062 -0.011441 0.015371 -0.302729 -0.150208 -0.147559 -0.076176 -0.079010 0.013680 -0.145195 0.252902 0.239211 0.006925 -0.074339 0.202810 -0.713703 0.178756 -0.081632 0.111994 -0.416007 -0.284070 0.209601 -0.350039 0.216573 0.086443 -0.200929 0.181754 -0.094547 -0.026075 -0.104816 -0.086969 -0.009236 0.459606 -0.166204 0.011244 0.106941 0.105352 -0.211505 0.170545 -0.369154 0.133969 0.491327 0.023362 -0.617401 -0.284981
42 0.119771 -0.004815 -0.251063 0.114604 0.422064 -0.211213 0.413760 -0.024849 -0.195518 0.239413 0.196592 0.262532 0.191041 -0.122864 0.026444 -0.022390 -0.108506 -0.173618 0.164291 -0.040663 -4.633830 -0.241309 -0.058172 -0.131898 0.209506 0.040441 -0.096646 0.111995 -0.248484 0.295056 -0.268191 0.190157 -1.535037 -0.026967 0.138148 -0.209108 -0.065267 0.030275 -0.064237 -5.366550 0.088317 0.256225 -0.268492 -0.029102 -0.155636 0.224655 -0.307571 -0.322906 0.136683 0.284954 0.272035 0.076250 -0.013972 -0.097540 -0.223419 0.108279 -3.311864 0.052714 -0.414800 0.115915 0.195758 0.011524 -0.179048 -0.122803 0.169439 -0.094252 0.031375 -0.091871 0.074717 -0.288379 -0.041719 0.121503 0.324479 0.195719 -0.348587 0.135811 0.189749 0.472855 0.387221 0.184953 -0.118312 0.135549 0.354984 0.098215 0.028148 -0.062875 0.250122 0.402776 0.064414 -0.321051 0.135607 -0.192805 0.056487 -0.002594 -0.119119 0.171207 0.073656 -0.248320 -0.291312 0.216478 0.187412 0.248178 0.099885 0.613221 -0.177366 -0.124114 -0.087626 -0.152092 -0.152193 -0.054657 -0.090139 0.042588 -0.174554 -0.304087 -0.084142 0.027428 -0.166556 0.096615 0.187261 0.213679 -0.289680 0.244852 0.635207 -0.744979 -0.008511 -0.016978 0.026894 0.228695 0.180775 1.957114 -0.046756 0.029514 3.054199 0.198989 0.190352 -0.317183 -0.288478 0.040703 -0.215299 0.273941 0.285567 0.179608 -0.011415 -0.383450 -0.043323 -0.352205 -0.196308 -0.056444 -2.492892 0.084973 0.222478 -0.002428 0.142360 -0.059922 0.033174 0.150313 -0.124313 0.216154 -0.260817 0.049053 -0.270468 -0.134956 -0.019436 -0.060954 -0.136331 0.065677 -0.310355 0.176127 -0.114897 -0.014145 0.124696 -0.318045 -0.012568 -0.079081 0.110095 0.134158 -0.206457 0.078043 -0.062618 0.118504 -0.276335 -0.412176 0.166138 0.337702 0.068169 -0.143658 0.071993 -0.411358 -0.017861 0.516728 -0.092885 -0.008910 0.378573 -0.277496 0.018275 -0.120353 -0.256166 -0.029396 -0.476406 0.364194
428 -0.016061 -0.089999 0.502270 -0.163539 -0.080630 0.070856 0.211340 0.163507 -0.024296 -0.028646 -0.672910 -0.056359 -0.190336 -0.266384 0.092801 -0.229101 -0.001297 0.204294 -0.056207 -0.287762 0.083799 -0.153047 -0.077699 -0.084768 0.012834 0.124242 0.008779 -0.261469 0.297801 0.098601 0.105969 -0.239670 0.184652 0.061794 0.051449 0.713630 0.084955 0.271024 -0.095914 0.786089 -0.307824 0.060306 0.262413 0.092660 0.106810 0.014974 0.250170 0.131360 0.024216 -0.042382 -0.018324 -0.028069 -0.057090 -0.074654 -0.160044 0.292787 0.362300 0.068201 0.133287 0.268724 -0.022838 0.277273 0.254314 -0.146015 -0.254596 0.427910 0.501988 -0.028126 0.039839 -0.262819 0.164233 0.431413 0.039935 -0.084215 0.272230 -0.046867 0.242114 0.262510 0.287797 0.087395 0.263539 0.295965 0.005195 -0.038622 -0.107672 0.264365 -0.222864 0.289464 -0.269390 -0.121704 0.011418 0.118489 0.032736 -0.332438 0.370226 -0.263224 0.127410 -0.182976 0.132417 0.308479 -0.319326 -0.167140 0.053301 -0.237464 -0.095935 -0.123678 -0.039266 0.206674 0.006502 0.370930 0.295115 0.005104 -0.012474 -0.318337 0.216803 -0.010732 -0.194484 -0.023300 -0.115276 -0.212366 -0.169999 0.088271 0.081356 -0.393823 0.164471 -0.259479 -0.395599 0.119275 -0.004922 -0.427580 -0.194920 -0.005246 0.616269 -0.237132 -0.739654 0.319204 0.127322 0.039454 -0.163659 -0.283426 -0.391180 0.053329 0.121708 -0.234649 0.209545 -0.106530 -0.292315 -0.353807 0.019156 -0.277478 0.076882 0.271952 0.292928 -0.210804 0.185538 0.353963 0.371729 -0.108420 -0.387805 0.123271 0.048430 -0.091119 0.067240 -0.384993 0.289089 0.006644 -0.291479 -0.354648 -0.046506 0.127771 -0.225012 -0.360698 0.195668 -0.360999 0.134005 0.350502 -0.111090 -0.108481 -0.163903 0.063118 -0.129720 0.166248 0.189944 -0.333125 -0.045170 -0.297901 0.074760 0.221454 0.424871 0.319055 -0.023838 -0.124971 0.017217 -0.046267 -0.024868 0.355320 -0.203454 -0.083853 0.782220 0.087489
35 -0.168889 0.205637 -0.032667 -0.420435 0.200127 -0.131336 -0.146379 0.012110 -0.184610 -0.199688 0.233753 -0.209531 -0.045151 0.025221 -0.225654 -0.075333 -0.218236 -0.025202 -0.174858 0.149106 -4.676445 -0.056366 0.087237 0.738853 0.123967 -0.261456 -0.202174 -0.090595 -0.169369 0.132395 0.128601 -0.280879 -1.608955 -0.366505 0.178299 0.255052 -0.157463 0.249958 0.251815 -5.382132 0.185008 -0.299807 0.156650 -0.428905 0.284593 -0.333093 -0.044596 0.257430 0.048156 -0.486987 0.221694 0.094963 0.259573 -0.092454 0.126629 0.227504 -3.031958 0.049509 0.242750 0.282623 0.316359 0.176454 0.175235 0.328024 -0.232230 -0.251816 0.114595 -0.096591 0.291881 -0.036297 0.212842 -0.007378 0.287908 0.083895 -0.037250 -0.222956 0.030345 -0.284211 0.056403 -0.277029 -0.232444 -0.160920 0.210736 0.190916 -0.025534 -0.108467 -0.257266 -0.321636 -0.038287 -0.284572 0.066287 0.179176 -0.292801 -0.279667 -0.249670 0.005925 -0.222298 0.278813 0.047281 0.032564 0.017073 0.015560 0.309005 0.337380 0.055612 0.255555 -0.087005 0.164525 0.117035 -0.035253 -0.002697 0.512734 -0.094005 0.532564 0.157038 -0.135375 -0.292095 -0.249631 0.183547 0.179534 -0.678694 0.133363 0.615425 -0.629410 0.108002 -0.219003 0.208762 -0.051736 -0.122106 1.973856 -0.084758 0.166818 3.136031 -0.067272 0.118178 -0.604404 -0.164037 -0.100972 0.349979 0.217730 0.132304 -0.076337 -0.214632 -0.128145 -0.193982 -0.136248 0.210359 0.274001 -2.616667 -0.078522 -0.156315 0.917392 0.034756 -0.250805 -0.259852 0.136697 0.546330 -0.333766 -0.388085 0.203402 0.331547 0.398536 0.023337 -0.218781 -0.172151 0.304870 -0.189046 0.014248 -0.082900 -0.407805 -0.042568 0.102344 0.116638 0.078411 0.027084 -0.225503 0.382013 0.094306 -0.244216 -0.126249 -0.124069 0.185683 -0.304315 0.148155 -0.205928 0.094826 -0.133765 -0.446720 -0.061105 0.181890 0.316603 -0.316869 -0.024357 -0.250385 -0.250643 0.254097 0.038854 0.039168 -0.457561 -0.041169
52 -0.184841 0.029010 0.026109 -0.044101 -0.186178 0.021678 -0.167152 0.117826 -0.238447 -0.308213 0.173323 -0.012143 0.136099 -0.098486 -0.126266 0.156226 -0.048594 -0.119240 -0.258079 -0.343994 -4.699653 0.199256 0.008010 0.296855 -0.248426 0.054785 -0.121963 0.029562 0.127909 0.083407 -0.422349 0.013019 -1.609158 0.337279 0.019414 0.206129 -0.431433 0.281707 -0.018302 -5.403996 0.003220 -0.224449 -0.090667 -0.238858 0.478532 0.031100 -0.100596 -0.051216 0.051680 0.057253 0.167681 0.090154 0.052984 0.276255 -0.224811 0.302568 -2.910605 0.096639 -0.262236 -0.027750 -0.125458 -0.107457 0.128852 -0.005256 -0.148436 -0.101778 -0.064480 -0.099450 0.275305 0.078901 -0.067189 0.898797 0.218719 -0.120369 -0.104704 -0.240518 0.071022 0.179513 0.235946 -0.260891 0.088198 0.027059 0.053089 0.202339 0.295692 -0.190766 -0.037944 0.201242 -0.098648 -0.307912 0.179914 0.042391 0.319542 0.292404 0.397360 0.038847 0.352596 0.096656 0.154398 -0.208961 -0.121171 0.128873 -0.302781 -0.008721 -0.104489 -0.133786 -0.092208 -0.045269 -0.229958 -0.203815 0.388812 0.177845 0.023505 0.310093 -0.177687 0.170178 0.385984 0.055029 -0.164579 -0.130712 0.329560 0.304384 0.508107 -0.818181 0.326753 -0.080140 -0.038970 -0.324149 0.003230 1.983702 0.069683 -0.128476 3.145794 0.146235 0.040669 0.118976 0.747860 -0.159868 0.045787 -0.148160 0.136273 -0.097845 -0.088270 -0.049173 0.047823 -0.094872 0.210866 0.176840 -2.568994 0.082593 0.035549 -0.214589 0.025530 -0.155681 0.154429 -0.123689 -0.176658 0.157652 -0.005981 -0.131027 -0.175634 -0.407051 0.149359 0.030618 0.009051 0.110351 0.152183 -0.020435 -0.084994 0.320991 0.078720 0.040503 0.081836 0.115622 0.194070 -0.400516 0.499153 0.049779 0.092080 0.078584 0.240491 -0.210688 -0.177107 0.161283 0.214207 -0.116798 0.049827 -0.198504 0.106042 -0.039516 0.452888 0.052821 -0.092971 0.130638 -0.353976 -0.294896 -0.021386 -0.358652 -0.551649 -0.170392
390 0.507193 -0.031595 0.062078 0.097526 -0.264714 0.009783 0.102508 0.389973 -0.274144 -0.282432 0.073031 -0.195527 -0.247065 0.417623 -0.066713 0.067582 0.085531 0.129470 -0.119946 0.152057 -0.144618 -0.010975 0.070179 -0.026656 -0.088520 0.380512 0.234410 -0.013239 0.110846 -0.014678 -0.105257 0.166813 0.610345 0.128909 -0.129422 0.279604 0.075235 0.050751 -0.056406 0.764495 -0.145620 0.242296 0.024409 0.119447 -0.006258 -0.113641 -0.165864 0.056313 0.228526 -0.147121 -0.101588 -0.083900 0.209049 0.001331 -0.045704 -0.408626 0.358217 -0.005945 0.278502 -0.156316 0.143368 -0.049447 0.110683 0.018990 0.038214 0.136351 -0.029280 -0.034360 0.238996 0.117073 0.166525 -0.029666 0.020585 -0.066784 0.057419 -0.106627 -0.043551 -0.050710 -0.191248 -0.177355 -0.173807 0.116205 -0.015252 0.037838 -0.095646 0.057751 0.126150 0.010705 0.272385 -0.323743 0.001038 0.212267 0.555925 -0.241924 -0.043077 -0.071350 0.026893 -0.744350 0.054865 0.009022 0.116513 -0.255521 0.042656 0.136201 0.112079 0.004064 -0.019267 -0.004768 -0.145056 -0.075198 0.125147 0.055007 -0.103132 -0.143171 -0.095625 -0.262241 -0.021880 -0.298842 0.098101 -0.116452 -0.086356 -0.112982 -0.014090 -0.303226 -0.120553 0.099041 0.121357 -0.217796 0.408868 0.543649 0.261694 0.085847 -0.266325 -0.017652 0.182476 -0.007868 -0.039268 0.230418 0.250552 -0.069611 0.072282 -0.093034 0.259169 0.022552 0.263695 -0.092637 -0.013053 0.026802 -0.244161 -0.249501 -0.015583 0.105507 0.075921 -0.015362 -0.063561 -0.254505 -0.352172 -0.113215 -0.125461 -0.040576 -0.043230 0.235292 -0.172870 -0.190016 -0.214285 -0.136834 -0.196750 -0.278810 -0.015432 0.551854 0.057347 -0.096111 0.098470 0.315485 0.114470 0.106175 -0.049126 0.133475 0.344697 -0.005277 -0.005738 0.053546 0.021029 0.396756 -0.102816 -0.034934 -0.098035 -0.085827 0.373382 0.256007 -0.099140 -0.270797 -0.260484 -0.061405 0.171401 -0.142813 0.325013 0.328825 0.746988 -0.090371
47 -0.086100 0.169203 -0.098171 -0.124062 0.058802 -0.360139 0.089727 -0.352948 0.306620 0.108457 -0.157418 0.286954 -0.060453 -0.200405 0.094249 0.135912 -0.175721 0.065911 -0.279572 0.085781 -4.776247 0.132728 -0.008604 -0.026038 0.020636 -0.190242 0.005282 0.193834 0.552220 -0.137735 -0.180932 0.033566 -1.658809 0.249490 -0.037638 0.038572 -0.025206 -0.197446 0.211448 -5.481844 -0.135677 0.409547 -0.096522 0.149680 -0.070513 -0.189633 -0.117366 0.070499 0.110646 0.078631 -0.310887 -0.193809 -0.219729 0.173046 0.273761 0.099887 -2.683954 0.109996 0.088510 -0.009596 0.028857 -0.105046 0.457001 0.396711 -0.367026 -0.097605 0.396377 -0.081261 -0.024812 -0.209190 0.272932 -0.068213 0.237558 0.325717 -0.492754 0.388254 0.138902 0.018190 -0.323876 -0.058150 0.253489 -0.012793 -0.007495 0.472188 0.059162 -0.093660 0.095964 -0.010785 -0.744225 0.037037 0.037520 0.050552 0.184311 0.466252 -0.014127 -0.358394 -0.143881 0.177168 -0.249854 0.052405 0.642492 0.072940 0.392435 -0.410924 -0.204549 0.158966 -0.108787 -0.167171 -0.287543 0.229599 -0.087656 0.030356 0.151029 0.020790 0.019323 -0.213060 0.008782 0.096543 0.045727 0.269716 -0.237158 0.114254 0.538179 -0.692614 -0.027336 -0.069569 0.301778 0.225056 0.126199 1.978467 -0.042804 0.045447 3.174420 0.188038 0.021887 0.159815 0.088980 0.294032 -0.373880 -0.049498 0.212801 -0.034081 0.193195 -0.101754 0.210263 0.252713 0.007073 0.372962 -2.599763 -0.331803 -0.182492 -0.217522 0.176582 -0.065918 -0.170275 -0.170306 -0.100208 0.010129 0.173700 -0.097955 -0.225320 -0.183757 -0.113163 -0.091567 -0.011765 0.265002 0.334725 -0.018106 -0.094274 0.025813 0.012472 0.189573 0.491881 0.173697 0.246225 0.021212 0.038407 0.123210 -0.272533 0.063184 0.181065 -0.098970 0.014970 0.251428 -0.109207 -0.037907 0.027726 0.278120 -0.150300 0.048334 0.427554 -0.007436 -0.201387 -0.039038 0.392073 0.459896 0.072059 0.160567 -0.538041 0.310915
60 0.001933 0.133907 -0.242833 0.015746 0.185184 -0.112856 0.124366 0.037722 -0.217134 -0.386054 -0.100002 -0.187838 -0.122301 0.018419 0.042760 0.030477 0.168534 -0.104024 0.087231 -0.303426 -4.687108 -0.142525 0.013367 -0.085357 0.266079 0.395233 0.252503 0.144405 0.064315 0.273073 0.453305 0.210139 -1.649709 -0.145525 -0.313985 0.281950 -0.149613 0.367200 -0.001445 -5.512600 0.169948 0.165880 0.141134 0.000318 0.418331 -0.183108 -0.025574 0.284800 0.078292 -0.093138 -0.239064 0.097368 -0.274599 0.019080 0.210418 0.259782 -2.737141 0.085203 -0.062833 -0.288084 0.220000 0.017439 0.182766 0.042408 -0.201348 0.035979 -0.227095 -0.092118 0.234102 0.110053 0.078378 -0.251224 0.086575 0.197365 -0.230483 -0.052256 0.270745 -0.473656 0.089415 -0.253074 0.292310 -0.089264 0.464861 -0.198830 -0.171909 0.225674 0.248494 0.314432 0.081447 -0.247872 0.081722 -0.025130 -0.220263 0.005067 -0.084744 0.105177 0.818093 0.181321 0.149039 0.024482 -0.077130 0.329672 0.156187 0.185090 -0.248224 -0.091288 -0.100262 -0.067467 0.116113 -0.000150 -0.107051 0.014249 0.061914 0.061570 0.059588 -0.094375 -0.023878 -0.047038 0.003276 0.252103 -0.077821 -0.180346 0.428760 -0.600767 -0.029685 0.148386 0.131909 0.337417 -0.034981 1.972080 0.042478 0.080692 3.208072 -0.162047 -0.171766 0.231288 0.165509 -0.021593 0.235320 -0.117682 -0.084206 -0.315346 -0.098881 -0.077683 -0.376377 0.310260 -0.135322 0.224368 -2.532467 0.173424 -0.153801 -0.267264 -0.400387 0.379113 0.225639 0.016583 0.083108 0.076286 -0.281881 0.248702 0.117878 0.288845 0.077904 0.108575 -0.075389 -0.108584 0.159188 0.149019 -0.077397 -0.299356 -0.019354 -0.127926 0.073421 0.189899 0.098692 -0.179409 -0.194532 0.101673 -0.015345 0.618952 0.074177 0.013790 0.321886 0.041949 0.430366 -0.149016 -0.171275 0.311232 -0.259854 0.074703 -0.413614 0.198135 0.025957 0.287860 0.513118 -0.202110 0.004140 -0.123889 -0.611949 0.036074
414 0.360378 -0.044335 0.045809 -0.047191 -0.020904 0.159647 0.057462 0.192708 0.274640 0.306298 -0.079226 -0.079384 -0.258454 0.211440 -0.117958 0.007638 0.235688 0.377711 -0.188394 0.220323 0.596308 0.148115 0.068769 0.092395 0.040706 -0.166639 0.090462 0.233800 -0.091973 0.006145 0.134598 -0.246720 -0.540784 -0.242159 0.035482 -0.032364 0.067707 0.181498 -0.219863 0.276219 -0.144431 0.080480 -0.178769 -0.130923 -0.080828 0.211978 0.019337 0.151508 -0.044750 0.212268 0.103601 0.211959 0.061605 -0.276014 -0.311223 0.004257 0.373746 -0.047784 -0.061685 0.128811 0.148869 -0.290723 0.054524 0.166917 0.022859 -0.089566 -0.034192 0.001115 -0.102324 0.093912 0.396307 0.046906 -0.209130 0.000967 0.264242 -0.021179 -0.234608 -0.001546 0.188927 0.097715 0.158581 0.166118 0.125230 -0.114447 -0.405833 0.004587 -0.142771 0.247552 -0.298155 0.329651 -0.138449 -0.277070 0.248583 -0.100062 -0.244257 0.230181 0.101497 0.250113 -0.060883 -0.079462 -0.028918 -0.010285 -0.026425 -0.121127 0.035019 -0.247190 -0.030721 0.333625 -0.069445 -0.544519 -0.154644 0.004460 -0.070332 0.077944 0.216287 -0.124083 0.196230 -0.157658 0.055651 -0.117085 0.052984 0.204515 -0.122564 -0.469230 0.015201 -0.100577 -0.104279 0.092124 0.186346 -0.340705 0.349530 -0.143957 -0.207628 0.092529 -0.145303 -0.215251 0.139094 -0.000442 0.025924 0.232084 -0.088494 -0.017777 -0.210984 0.005901 0.055935 -0.198757 0.119919 -0.029097 -0.303001 0.136660 0.069750 -0.065392 -0.136169 -0.143326 0.237334 -0.105534 0.087941 0.200937 -0.203612 -0.133929 -0.175393 -0.090052 -0.257889 0.296110 -0.035997 -0.056356 0.269826 0.017288 -0.016187 0.113496 -0.482037 -0.530406 0.326971 0.154528 0.157318 -0.028949 0.044754 -0.070633 -0.031149 0.345905 0.244198 0.196431 0.109125 0.104182 -0.511281 0.036705 0.064819 -0.033534 -0.226436 -0.267455 0.131757 0.013356 -0.352740 -0.279613 0.416927 -0.061753 0.037905 -0.061725 0.624639 -0.161125
54 0.375323 -0.186216 -0.407299 -0.369151 0.398178 0.101278 0.053260 0.029151 -0.258372 0.006202 0.219854 -0.025709 0.279778 0.012297 -0.329216 -0.008366 0.135116 -0.033467 0.175967 0.180300 -4.839810 0.349948 0.016917 0.115112 0.346786 0.275274 -0.603624 -0.175955 0.691829 -0.369841 0.253443 -0.102841 -1.553568 -0.010972 0.182094 -0.381192 -0.407545 -0.418389 -0.134208 -5.516377 0.145707 -0.150028 0.092066 0.142816 0.019118 0.240381 -0.424736 -0.101936 0.035625 0.063920 -0.045147 -0.010362 -0.174545 0.226316 0.257207 0.087564 -2.622088 0.133982 -0.108797 0.185940 0.150598 0.010654 -0.084065 0.084138 -0.138874 0.179274 -0.085174 -0.093443 -0.490376 0.105635 0.191738 -0.009607 0.128997 -0.282174 -0.298584 0.062581 -0.608795 -0.102463 0.269265 -0.153503 0.241590 0.311442 -0.087335 -0.365999 0.242147 -0.131850 -0.040424 -0.166821 -0.208135 -0.292525 -0.384387 0.221761 -0.150776 0.250752 0.248253 0.321817 -0.226349 -0.048138 -0.021823 -0.272978 0.092522 -0.352235 0.261491 0.284265 -0.149848 -0.068630 -0.087909 0.234251 -0.020441 -0.061592 0.008539 -0.146967 -0.051658 0.102842 -0.251997 -0.134084 0.055078 -0.375703 -0.117068 -0.132188 0.085619 0.146574 0.575787 -0.677328 -0.126630 -0.008097 -0.166983 -0.334168 0.108211 1.964973 -0.027990 -0.192402 3.204148 -0.061730 0.169367 0.337519 0.065054 -0.019866 -0.105749 -0.188131 0.007326 0.094507 0.244982 -0.722712 0.046805 -0.046673 -0.106239 -0.451976 -2.588948 0.030678 0.314368 0.218265 -0.117227 0.068018 0.205075 -0.072952 0.149493 -0.273608 0.173189 0.342886 0.233112 0.118679 0.008633 -0.046732 0.044068 0.083348 -0.286369 -0.174042 -0.083865 0.064781 0.225781 -0.367820 -0.418613 0.112166 -0.062316 -0.352644 -0.027870 -0.008164 -0.575242 -0.421153 -0.066359 0.117501 -0.065939 -0.181683 -0.112038 -0.251078 0.163311 0.000083 -0.161733 -0.326766 -0.119405 0.265108 -0.188619 0.458361 0.648300 0.044764 0.131184 0.341835 -0.511383 0.081489
108 0.042820 -0.076437 0.114588 -0.136750 0.062349 0.280006 0.208425 -0.108013 -0.397690 -0.115854 0.049525 -0.023862 0.471143 -0.057391 0.243061 -0.162652 0.283416 0.233091 0.170404 0.074131 -4.529154 -0.082480 -0.012404 -0.157489 0.069293 -0.097536 -0.061602 -0.000920 -0.391746 -0.079648 -0.011211 -0.286218 -1.519955 -0.057156 0.283579 0.225645 0.300887 0.086791 0.079863 -5.335913 -0.412251 0.089108 0.074563 -0.089738 0.056134 -0.135076 0.184560 0.212459 0.135687 -0.310141 0.067114 0.205485 -0.573717 -0.012993 0.286847 -0.314865 -3.163549 0.153395 -0.585667 -0.393503 -0.203899 0.342869 0.019720 0.231568 0.339632 -0.161580 -0.232111 -0.098435 0.294088 -0.541704 -0.534851 -0.136886 0.047038 -0.110933 0.061562 0.085310 -0.283541 -0.084814 0.099729 -0.031534 0.066666 -0.064627 0.293466 0.114786 0.154529 0.102143 0.121143 -0.315519 -0.128127 0.158204 0.310894 -0.050237 0.043226 -0.376441 0.146599 -0.247285 -0.200073 -0.353544 0.290596 0.202235 0.215548 0.006698 -0.112553 -0.065413 0.166552 -0.010044 -0.090400 0.115948 -0.081306 -0.172707 0.131707 -0.039301 -0.065980 -0.077536 -0.295944 -0.328176 -0.020373 -0.008966 -0.042571 -0.057090 -0.216888 0.312224 0.552864 -0.710664 -0.029497 0.064760 0.593353 0.073949 0.306731 1.957628 -0.398487 0.110689 3.043618 0.028112 -0.054158 -0.096538 0.089843 -0.009284 -0.078986 -0.337341 -0.241008 -0.270279 0.077040 -0.107353 -0.377505 -0.357194 -0.125438 0.127744 -2.481397 0.089265 0.360226 0.062957 -0.443064 0.112992 0.321016 -0.171993 -0.089836 0.130866 0.381234 -0.072830 -0.277696 -0.092496 -0.285240 0.224778 0.011686 0.461095 0.244554 -0.366002 -0.086574 0.094394 0.050828 0.038651 0.052308 0.247626 0.067338 0.505366 0.197844 -0.413304 -0.297956 -0.203472 0.137241 0.442959 -0.253707 -0.141550 0.148838 -0.124730 -0.095247 -0.021475 -0.364843 -0.136158 0.016916 0.328138 0.150687 -0.254311 -0.106750 -0.044524 -0.217912 0.062541 -0.502614 0.013855
4 0.130720 0.001321 0.031657 0.007837 0.502084 0.071658 0.458349 -0.165219 -0.167824 0.259594 -0.446804 0.334988 -0.110285 0.205488 -0.158870 0.071474 -0.128605 -0.196100 -0.149504 -0.048478 -4.813966 0.182530 -0.021635 -0.045054 -0.006343 -0.190243 0.224139 0.055530 -0.010848 0.146167 -0.061287 0.060769 -1.609200 0.099582 0.091498 0.204053 0.081720 0.382393 -0.167073 -5.570651 0.305622 -0.199312 -0.078021 -0.089336 -0.050732 -0.072725 0.339341 0.110913 -0.064056 -0.011561 -0.333135 -0.114869 -0.178480 -0.072586 -0.125231 -0.166309 -2.360415 0.017962 -0.248329 -0.511680 0.326413 0.138952 -0.228069 -0.035743 0.005244 0.046579 0.035894 -0.097164 0.139382 0.162822 0.222078 0.165971 -0.840649 -0.697200 -0.271341 0.064444 0.107479 -0.202076 0.071259 0.216248 -0.613063 0.002165 0.132662 0.025069 -0.121700 -0.437085 0.156460 0.157681 -0.358693 -0.118893 -0.426576 -0.161762 -0.163186 0.225868 -0.013193 -0.126732 0.004847 -0.333375 0.075204 0.040254 0.109303 -0.080000 -0.253139 -0.125514 0.093919 0.154741 -0.092533 -0.150691 0.135798 -0.053248 0.019197 -0.163637 0.478600 0.147175 -0.201436 -0.100041 -0.251962 -0.168440 0.043104 -0.237294 -0.093921 -0.195398 0.515470 -0.588307 0.013768 -0.006257 0.709640 -0.143346 -0.141660 2.026616 -0.101704 -0.407603 3.256623 0.112549 0.212231 -0.167330 0.238716 0.120483 -0.118433 0.191433 0.123753 -0.203725 0.313952 -0.015724 -0.128607 -0.230532 0.245568 -0.105631 -2.595814 -0.107825 -0.163475 -0.043319 0.076595 -0.295765 -0.021480 0.377353 0.174358 0.028882 0.376139 0.024980 0.368636 0.093434 0.024345 -0.027571 0.014668 -0.473215 -0.198808 0.172219 -0.100340 -0.188066 -0.108902 -0.079679 0.114114 -0.117796 0.036113 0.000289 0.357470 0.016342 0.230730 -0.317005 0.055299 -0.387079 -0.155164 -0.067547 -0.024874 -0.006991 0.085491 0.071602 0.196281 -0.209320 -0.383591 -0.043297 -0.003725 0.359575 0.053957 -0.006635 -0.278562 -0.001006 -0.555666 0.017196
460 0.268682 0.132686 0.287871 0.138511 0.023839 0.185644 0.096231 0.022937 -0.115630 0.014501 0.021045 0.124010 -0.076967 0.277637 0.152942 0.001750 -0.356952 0.150643 -0.123932 0.213323 0.586623 0.169174 0.072691 -0.448590 -0.073712 -0.319511 -0.357766 -0.023381 -0.044717 0.179307 -0.143481 0.021684 -0.156214 0.120776 -0.017101 0.161822 -0.075151 0.026240 0.085124 0.262159 0.039592 0.161083 0.184233 0.217886 0.201908 0.360611 0.173818 -0.114760 0.139638 0.191353 0.210248 0.014754 0.096947 -0.363333 0.121150 -0.007707 0.359357 -0.007855 0.144088 -0.008848 0.269295 -0.042597 0.007611 -0.204921 0.085943 -0.174504 -0.060112 -0.020763 0.033545 0.357272 0.129507 -0.016358 -0.079488 0.525749 0.046811 0.081695 0.266824 -0.389284 0.044277 0.124949 0.374933 0.145340 -0.078982 0.078373 0.152322 0.009843 0.015888 -0.047037 -0.005261 -0.025017 -0.092563 -0.029983 0.066080 -0.298338 0.137586 0.098913 -0.125992 -0.006845 0.144950 0.080143 -0.093573 -0.257014 -0.018382 0.073637 -0.237198 -0.058568 -0.033175 -0.028877 -0.083273 -0.105931 -0.305271 0.048503 -0.060114 0.000620 0.066940 0.109134 -0.115455 -0.178168 -0.099968 -0.179611 0.159468 -0.272612 -0.058664 -0.359014 0.140357 0.040120 -0.059011 0.099872 0.140337 0.776624 0.060520 0.158923 -0.014917 0.135949 -0.213335 0.062335 -0.065896 0.065945 0.120143 -0.164842 0.156266 0.070407 -0.045850 -0.099301 0.074075 0.174610 0.127078 0.071180 0.445971 -0.192777 0.033180 -0.170979 -0.115124 0.265121 -0.198025 -0.013840 0.091801 0.123180 0.193399 -0.306812 -0.059937 -0.122749 0.102043 0.095233 -0.004991 0.237809 -0.072342 0.026061 -0.022691 -0.452843 0.049299 -0.106758 -0.124712 0.146671 0.116742 -0.053977 0.332145 0.054139 0.171097 -0.269818 -0.004632 0.126965 -0.304765 0.068423 0.045326 0.014428 -0.212781 -0.038931 0.002900 -0.004384 -0.132530 0.093327 0.035397 0.220856 -0.032638 0.054642 -0.022370 0.179550 0.661588 -0.015835
368 0.027956 -0.050745 0.115350 -0.166255 0.036030 -0.160419 0.102873 0.061877 -0.311384 0.145966 0.249008 -0.035471 0.006630 -0.195672 -0.225899 0.203250 -0.266133 0.034293 -0.041948 0.214172 0.624430 -0.101989 0.075396 0.085607 -0.015596 0.264584 0.294595 0.145211 0.023559 0.028497 0.183993 0.023555 0.776740 -0.117513 -0.280851 0.125334 -0.054946 -0.083966 -0.099572 0.005073 -0.319656 0.132974 -0.439827 -0.294817 0.017679 0.184274 -0.220526 0.048519 0.123130 0.111514 0.133653 0.080340 -0.146311 -0.364829 -0.019168 0.170803 0.377588 -0.062976 -0.016487 -0.173169 0.136127 -0.202164 0.013886 0.148311 0.262518 -0.144656 0.035163 -0.013566 0.187265 0.107837 0.067587 0.007250 -0.116875 -0.299610 0.224683 0.021653 0.126079 -0.106600 0.032426 0.120616 -0.007783 0.036700 -0.341260 0.140969 0.181056 0.152696 -0.083723 -0.032112 0.191173 0.069677 0.026342 0.004237 0.006820 -0.109128 -0.405327 -0.386349 -0.274962 0.321309 0.203160 0.208716 -0.150022 0.177174 -0.013856 0.001978 0.034835 -0.170381 -0.021612 -0.315426 -0.180534 0.513345 -0.084480 -0.174182 0.040631 -0.106507 -0.246038 -0.220197 -0.242889 0.034970 -0.316178 -0.010860 0.019824 -0.078765 -0.028914 -0.519754 -0.086281 0.013104 -0.271194 -0.273107 -0.202272 -0.081637 -0.214826 -0.272973 0.276620 -0.251276 0.075407 -0.085671 -0.083004 -0.071330 -0.152331 0.063576 -0.202945 -0.108001 -0.171392 0.048011 0.062993 0.530751 -0.067583 -0.158034 0.282317 0.072974 -0.012186 -0.162143 -0.040592 -0.224710 0.281014 0.056053 0.140154 -0.043538 -0.363933 -0.476847 -0.064260 -0.238670 -0.243175 0.103418 0.039756 0.050818 -0.152640 0.022920 -0.002788 0.162959 0.105196 0.219411 -0.040936 -0.025483 0.076943 -0.261450 0.020483 0.097001 -0.155756 -0.052931 0.259665 0.099069 0.199266 0.087815 -0.063503 -0.103515 -0.101963 -0.141601 -0.086611 -0.204139 -0.205805 0.188403 -0.174456 0.210742 -0.222638 -0.147548 0.344941 0.189466 0.649940 0.203387
18 0.059235 -0.076796 -0.287682 0.023274 -0.160281 -0.252277 -0.015717 -0.144604 -0.026341 0.042659 -0.012141 0.060936 0.138860 -0.197668 0.109722 -0.261201 0.119079 -0.210294 -0.081176 0.190820 -4.460751 -0.144472 -0.103436 -0.074076 0.081270 0.321432 0.222345 -0.134749 -0.137416 0.296821 0.310204 -0.097646 -1.518604 -0.557013 -0.197706 0.369019 0.302407 0.095466 0.016029 -5.185029 0.021786 -0.045763 -0.106325 -0.069545 -0.290457 0.189427 0.245366 0.028667 -0.055798 0.103070 -0.046484 0.246921 0.082341 0.033759 0.261193 -0.016327 -3.516689 0.088203 -0.002472 0.036444 -0.018820 -0.005657 -0.188843 0.005671 0.432094 0.233689 0.315958 -0.094909 0.264853 0.257361 0.302250 0.261060 -0.133274 -0.270792 -0.408740 0.186777 -0.011332 -0.051330 0.223345 0.023744 0.086964 0.268250 -0.041791 -0.096361 0.040634 -0.291865 0.402147 0.356988 0.253368 0.113154 0.094786 -0.086421 -0.121970 -0.046034 -0.142197 -0.127559 -0.136541 0.779573 0.084646 -0.066136 0.197505 0.261140 0.159817 -0.268608 0.081753 -0.071048 -0.098203 -0.155541 0.470359 0.074093 -0.186375 -0.104056 0.213494 0.234591 0.389978 0.219464 -0.007311 0.155067 0.135164 -0.110267 0.174642 -0.343940 0.625244 -0.839581 0.212880 -0.154432 -0.249094 -0.221302 0.445563 1.823563 -0.069444 0.717918 2.931261 0.028768 -0.114750 0.083228 -0.201304 0.233887 0.471402 -0.132081 0.539006 0.070345 -0.219441 -0.090360 0.112613 -0.327545 -0.174796 0.090741 -2.482680 0.428972 0.367131 0.148734 -0.017564 -0.131098 0.074245 0.030309 -0.650378 -0.126676 0.326510 0.446562 -0.119955 -0.222654 0.185475 -0.260986 0.130147 0.018256 0.305306 -0.295801 -0.127744 0.144363 -0.012951 -0.052197 -0.480255 0.306357 -0.254983 -0.131578 0.329446 -0.171547 0.166539 0.086059 0.091924 -0.373313 0.005024 -0.094550 0.180982 -0.201190 -0.033322 -0.083462 0.222062 -0.321801 0.433123 -0.235838 -0.298935 -0.009452 -0.153646 0.366702 -0.100975 0.548799 -0.464728 0.104963
445 -0.306518 0.131393 0.179203 0.021677 -0.135093 -0.022965 -0.077002 0.126440 0.091954 -0.090745 -0.114215 0.207139 -0.066140 -0.147019 -0.029943 -0.086901 0.135460 0.107659 0.064521 -0.384856 0.516739 0.042262 0.231287 -0.015240 -0.264492 0.239493 0.107048 0.098341 0.034498 -0.150115 0.061593 -0.180761 0.353553 0.270694 -0.189860 0.308521 -0.113375 0.055688 -0.370693 0.208197 -0.151988 -0.007644 0.157532 0.329861 0.032464 0.108963 -0.018924 -0.031115 0.013975 -0.063210 -0.101867 0.240963 0.323105 -0.093130 -0.117410 -0.041106 0.369845 0.064934 -0.140797 0.079885 0.193830 -0.043904 0.017857 -0.104758 0.080038 0.232198 0.018356 -0.015381 0.067206 -0.078184 -0.169846 -0.054740 0.046356 0.280082 0.270969 0.195681 0.038074 -0.033715 0.192010 0.056931 -0.020273 0.139392 0.058917 0.018358 0.036050 0.109803 -0.105493 -0.251641 -0.015834 0.184981 0.199907 -0.136604 -0.313883 0.465612 -0.064857 -0.033700 0.011314 0.154886 -0.155649 0.086304 0.053805 0.047001 0.113828 -0.241703 -0.016708 0.020976 -0.029127 0.218822 0.137080 -0.065830 -0.256419 -0.177116 -0.287592 0.046103 -0.355761 -0.345903 0.092375 -0.179011 0.067560 -0.221400 0.261361 -0.249293 -0.111238 -0.503944 0.064565 0.229100 0.171662 0.011930 -0.048422 0.473277 0.222012 0.235271 -0.206695 -0.041442 0.326728 -0.165767 -0.113052 -0.036015 -0.284967 0.248591 0.124692 -0.039007 0.048423 -0.129601 0.157422 -0.147027 -0.271031 0.006347 0.153894 0.050379 -0.174936 0.165512 0.343966 0.251533 0.454401 0.072332 -0.205194 -0.217493 0.221118 -0.198988 0.088896 0.489953 0.076440 0.378105 -0.191643 0.101510 -0.263801 0.025892 0.010989 0.188163 -0.202957 0.217245 -0.040629 0.168735 -0.104339 -0.147153 0.407123 0.204210 -0.121449 0.291540 -0.018187 0.097135 -0.022552 -0.130419 -0.140016 0.007638 0.006259 -0.439187 -0.242688 0.178411 -0.137078 0.073273 0.058323 0.172735 -0.067061 0.131867 -0.241029 -0.003471 0.608977 0.034417
66 -0.137383 -0.049935 -0.061392 0.294564 0.353857 0.157482 0.231341 0.232793 0.109046 -0.191099 0.143588 -0.353784 0.063585 -0.056212 0.201271 0.151854 -0.178124 0.506980 0.747505 0.136649 -4.612691 0.319869 0.106666 -0.055274 0.127312 0.061484 -0.179328 -0.007722 0.087386 0.052052 -0.019124 0.351754 -1.482959 -0.238873 0.134206 0.030470 -0.556806 0.021921 0.353256 -5.244743 0.028205 -0.353290 -0.290134 0.030452 -0.180106 -0.278990 0.446506 -0.082866 -0.134189 0.161399 0.168188 -0.046255 -0.084062 0.203268 0.350179 0.015863 -3.276421 0.093517 0.085446 0.183200 -0.251016 -0.194914 0.139096 0.075954 -0.156836 0.161481 0.019599 -0.085451 -0.116348 0.091895 0.059029 0.483697 0.111593 0.259751 -0.180009 -0.286026 -0.258665 0.010672 0.225378 0.166460 -0.314856 0.105497 -0.187090 0.136140 -0.147108 0.220919 -0.238039 0.502990 0.507750 0.035512 -0.032413 -0.163038 -0.260158 0.068341 0.138803 -0.115127 -0.248624 0.098210 0.191762 0.374450 -0.151334 -0.137879 0.354365 -0.277940 0.238584 0.333970 -0.093450 0.023656 -0.035001 -0.166670 0.210721 -0.032387 -0.095092 -0.169248 0.124980 -0.488803 -0.092382 -0.206733 0.018566 0.133405 0.026156 -0.513914 0.482578 -0.661504 -0.044142 0.325851 0.299754 -0.257094 -0.226587 1.931302 -0.144364 0.027907 3.044806 0.007481 0.236096 -0.155255 0.039206 -0.067020 -0.143891 0.180027 0.022611 0.049137 0.223277 0.121358 -0.010408 0.038889 -0.272880 0.090327 -2.455372 -0.083072 -0.043650 -0.282483 -0.346411 0.060933 0.023376 0.028412 0.134338 0.059141 0.054290 0.007449 -0.240424 -0.315561 0.037908 0.096761 0.041941 -0.168920 0.094776 -0.075566 -0.076505 -0.013771 -0.332899 0.037802 -0.273443 0.215693 0.512189 0.143471 -0.195278 0.145147 -0.027118 0.180865 0.120136 -0.046324 -0.014693 0.143043 0.064652 -0.032096 0.016963 0.245977 -0.261582 -0.055442 0.284225 -0.827560 0.090257 0.079133 -0.059832 -0.091021 -0.152404 0.064066 -0.565611 -0.119196
400 -0.163795 0.176080 0.049201 -0.082952 0.252494 -0.282804 0.000863 0.228695 -0.230583 -0.148465 0.209387 0.087192 0.044677 -0.034444 -0.142027 -0.116774 -0.231904 0.052692 0.063105 -0.228015 0.519610 -0.153341 0.017745 -0.236291 0.069375 -0.070843 0.224317 -0.246483 -0.236969 -0.278667 0.034426 0.166779 0.079626 0.374525 0.059829 0.108712 -0.084442 0.134869 -0.048925 -0.381088 -0.079052 0.231329 0.274114 -0.106341 0.102592 0.246120 -0.130480 -0.052637 0.126974 0.039888 0.278817 0.079025 -0.152787 0.171197 0.051135 0.206471 0.354906 0.095793 -0.266486 -0.173340 0.094135 -0.359621 0.003856 0.086467 0.286289 0.116041 -0.108295 -0.021821 -0.414226 -0.028336 0.187701 -0.077778 -0.330556 -0.022318 -0.017998 -0.127189 0.115438 -0.016439 -0.279278 -0.233050 0.086149 0.030106 -0.161903 0.064852 -0.424759 0.187520 -0.357028 -0.014185 0.254072 -0.114002 -0.038955 0.010817 -0.007525 0.253180 0.079162 0.041422 0.084217 0.222434 -0.053688 -0.119336 -0.079400 -0.242280 0.050760 -0.026288 0.196784 -0.032835 -0.043819 0.064895 0.114515 -0.225354 -0.218415 0.018830 0.136314 0.080606 0.370357 -0.031130 0.152111 0.073196 -0.007746 -0.097833 -0.276937 -0.112857 -0.113672 -0.401421 0.271848 0.147885 -0.022132 0.014575 -0.226432 -0.600897 -0.056180 0.025720 -0.703010 -0.045544 0.101841 -0.009685 -0.228527 0.416441 0.142745 0.208518 -0.178377 0.208872 0.123215 0.157562 -0.155212 -0.056891 0.056318 0.048937 -0.138997 -0.081321 0.170309 0.144155 -0.129736 0.042522 -0.109093 -0.218195 0.034270 0.166515 -0.103287 -0.186586 -0.204658 -0.156433 -0.122442 0.045406 -0.141985 -0.084932 -0.238120 0.012025 -0.037067 0.176634 -0.092335 0.052884 0.260312 -0.101065 -0.013706 0.141911 -0.008722 -0.275999 -0.134751 0.014157 0.051603 -0.085016 -0.362832 -0.041282 0.102130 0.057673 0.053529 -0.036692 0.109290 0.088341 0.092045 0.214900 -0.250113 0.029084 0.283991 0.329399 0.077075 -0.261032 0.683611 0.076336
440 -0.075415 -0.018112 0.376534 0.011316 0.207180 -0.040029 -0.165924 -0.327455 0.127605 0.076946 0.100331 -0.089534 -0.081378 0.043147 0.074780 -0.045141 0.058808 -0.090874 0.009086 0.000895 0.595414 0.208768 0.087995 0.277651 -0.092356 0.488777 -0.009482 -0.048346 0.015936 -0.190484 0.034380 0.056569 0.218482 -0.127193 -0.124285 -0.042623 0.007042 0.010772 0.024666 0.361004 0.136944 0.186948 0.124574 0.064437 0.332311 0.211542 -0.031800 0.199381 0.194956 0.261640 -0.018036 0.034043 0.087744 0.116018 -0.289739 -0.017140 0.368567 0.013826 -0.102531 -0.051994 0.003700 -0.268161 -0.032813 -0.072930 0.016434 -0.186610 0.025922 -0.019959 -0.065481 0.163540 -0.063905 -0.151514 0.063046 -0.213149 0.204515 -0.134795 -0.185399 0.080398 -0.075462 -0.124755 0.167691 0.321830 0.037361 -0.052812 0.003173 0.120562 0.029810 -0.181603 0.013136 0.074307 -0.194356 -0.112039 0.068045 -0.053903 -0.316572 0.066232 -0.056180 -0.355801 -0.057745 0.127992 -0.072830 -0.021513 -0.094367 -0.351020 -0.049413 0.044230 -0.017507 -0.117215 0.081213 0.264481 -0.002214 0.093012 0.149375 0.176957 0.167612 -0.152283 0.026574 0.355547 0.253258 -0.088580 0.050255 -0.331855 -0.139076 -0.467102 0.109685 -0.033143 0.051436 -0.186142 0.034776 0.249137 0.057854 0.045315 0.529257 0.005484 -0.076752 0.081557 0.064907 0.014301 0.029955 -0.170092 -0.047286 0.281429 -0.245339 -0.144782 0.138921 -0.362822 0.010571 0.197653 0.378423 0.034871 -0.091668 -0.179612 -0.027191 0.080090 0.193739 -0.128789 0.314385 0.132154 -0.075610 0.131503 0.107776 -0.208156 -0.114697 -0.226441 -0.313750 0.117859 -0.063052 0.068962 -0.022043 -0.120040 0.145027 0.116873 0.026197 0.236838 0.015052 0.263929 -0.138132 0.089537 0.291314 0.129806 -0.043548 0.167591 -0.123415 0.232294 -0.297895 0.180014 -0.205212 -0.185915 -0.016422 -0.129599 0.030718 0.078461 0.406192 0.012998 0.082832 0.042594 -0.548027 0.015888 0.600120 0.037362
449 0.308490 0.186298 0.137895 -0.074432 0.035578 -0.037911 0.128892 -0.240013 -0.301605 -0.194979 0.189181 0.208399 -0.170248 0.150847 0.374666 -0.172350 -0.338202 -0.152680 0.018240 -0.205461 0.399994 0.192575 0.143372 0.213716 -0.127423 0.085865 0.171211 -0.084682 -0.105331 -0.028368 0.121237 -0.117342 -0.074006 0.048842 -0.082187 0.115761 0.230990 0.021119 0.136633 0.592015 0.196715 -0.053736 -0.040443 0.135307 0.148947 0.096723 -0.043108 0.140362 -0.077135 -0.245359 0.109993 -0.069017 -0.020749 -0.081090 -0.095781 -0.272881 0.361613 0.000482 -0.328698 0.146553 0.088998 0.143350 -0.202359 0.125292 -0.203975 0.109893 0.001818 -0.012547 -0.217861 -0.084295 -0.457137 0.135078 -0.306972 -0.167933 -0.009487 0.171538 -0.245257 0.016063 -0.154344 -0.098187 0.237312 0.058717 -0.061487 -0.051028 0.045335 0.032460 0.046296 0.145160 -0.007888 0.149875 -0.516185 0.150407 0.223932 -0.123532 0.272113 -0.130197 0.153503 0.360909 -0.022757 -0.122815 0.119698 -0.236597 -0.048719 0.133521 0.115434 0.088787 -0.032563 -0.276243 -0.030136 0.359251 0.069743 -0.126230 -0.331671 -0.038815 -0.098129 -0.033906 0.105911 0.009960 -0.115918 0.119769 0.019472 -0.152590 -0.053708 -0.334977 -0.276990 0.125003 -0.316473 0.025836 0.208408 0.439568 -0.275866 0.277883 0.247942 -0.255055 0.080376 0.057076 -0.072202 -0.373939 -0.430039 -0.011031 -0.016507 -0.063325 0.158284 0.207433 0.060807 -0.327059 -0.090311 -0.069609 0.074020 0.071350 -0.065286 0.057737 0.134214 0.227606 -0.174279 -0.035695 -0.022504 0.175308 -0.285130 0.041941 0.100325 -0.253927 -0.003444 0.177649 0.082532 -0.027839 0.249635 0.402684 -0.015294 -0.046483 -0.373228 -0.291102 0.145311 0.122676 -0.038355 -0.231027 0.138055 0.263352 -0.001734 0.061005 0.105897 0.064488 -0.154645 -0.127078 -0.168590 0.163489 0.098714 -0.114559 -0.118790 0.153105 0.034255 -0.280637 -0.009093 -0.165117 0.072598 -0.102917 0.221592 -0.106177 0.666417 0.091011
90 0.122305 -0.021996 -0.130108 -0.169630 -0.118779 -0.401999 -0.136520 0.439566 -0.071881 -0.168983 -0.092941 0.240721 -0.076237 -0.050690 0.019412 0.294168 -0.322641 -0.146560 -0.113062 0.059802 -4.730223 0.313731 0.018290 -0.257033 0.492142 -0.078912 0.145334 0.137697 0.226642 0.102703 0.055547 -0.062286 -1.656777 -0.001168 0.176179 0.022302 0.113823 0.033969 -0.103085 -5.522119 -0.146975 0.197943 -0.022417 0.031201 0.361560 0.060652 -0.011161 -0.105121 0.132206 0.125006 -0.180231 -0.335022 -0.360353 0.063318 0.011648 -0.020747 -2.413730 -0.024711 0.098427 0.016426 -0.278346 0.059405 -0.186941 0.328874 -0.279766 -0.111288 -0.007469 -0.082655 0.227693 0.056821 -0.084930 -0.152398 -0.136055 -0.476014 0.244932 0.600205 -0.114771 -0.056325 0.025952 0.040449 -0.211027 0.120539 -0.074834 0.063433 0.091598 -0.133291 0.106316 -0.294537 0.234434 -0.156252 0.390011 -0.236293 -0.335606 -0.461005 0.297301 0.887430 -0.010473 0.082548 -0.001435 0.394482 -0.193170 -0.090045 0.101676 -0.234377 -0.160294 0.110924 -0.079180 0.176170 0.247734 -0.188709 0.267568 0.193463 0.295287 0.204919 -0.111839 0.188361 -0.115881 0.203047 -0.255545 -0.084345 0.129261 -0.148275 0.377433 -0.539182 -0.164736 0.162897 -0.239451 0.267884 0.293603 2.016353 0.120659 0.097586 3.184312 0.321064 0.114268 0.133779 -0.242704 0.094939 -0.232190 0.192628 -0.221159 0.016550 -0.060140 0.305034 -0.266737 -0.172285 0.254004 -0.227881 -2.595809 -0.059934 0.190427 0.164074 0.216741 0.050818 0.005271 0.008038 0.203972 0.161089 0.135928 -0.168428 0.163150 0.057777 -0.006400 0.400274 -0.157578 0.177881 -0.070606 0.186845 -0.081914 0.119582 0.270443 -0.115599 0.138821 -0.128768 0.041132 0.044945 -0.342579 0.055149 0.039917 0.438701 0.305697 0.098386 -0.156441 0.257949 -0.005396 -0.109699 -0.026242 0.074852 -0.158342 0.243399 0.436491 -0.223933 -0.183692 0.108576 -0.350431 0.126454 -0.129011 -0.007457 -0.558229 0.087825
15 0.350925 -0.084042 0.203423 -0.088107 -0.303875 -0.011071 -0.174249 -0.074896 0.529734 -0.009410 -0.269370 0.233472 -0.151037 0.229548 0.294201 0.376976 0.003369 -0.189849 0.207926 0.081867 -4.442024 0.204127 0.023252 0.081823 -0.118092 0.028227 0.027891 0.216159 0.347046 -0.662916 0.055226 0.527314 -1.621690 0.307188 0.108336 -0.173491 -0.355359 0.348564 0.330222 -5.046686 -0.287723 -0.120139 -0.006695 -0.315833 0.005164 0.285244 -0.264976 -0.009943 0.006895 -0.110596 0.145048 -0.197392 -0.034645 -0.290338 0.323810 -0.144735 -3.577574 0.048860 0.046855 -0.340169 0.005812 0.047494 -0.074343 -0.019837 0.602437 -0.226475 0.268550 -0.092347 0.178044 0.289894 -0.334799 0.070000 -0.116917 0.472802 -0.129283 -0.221694 0.077284 0.416599 -0.167527 0.388839 -0.034174 0.023468 -0.078067 -0.004250 0.345380 -0.109019 0.054230 0.323787 0.310860 0.349783 -0.113877 0.267157 -0.146862 -0.324141 -0.102551 0.103950 0.229601 -0.234460 0.329313 -0.418070 0.135983 0.457992 -0.149247 0.337829 0.069966 0.290567 -0.104017 0.043295 -0.087044 -0.002674 -0.019925 -0.161564 0.019604 -0.161059 0.177316 -0.146683 0.023887 0.147141 -0.142184 0.191897 -0.579445 -0.017124 0.532236 -0.743249 0.283371 -0.144870 0.101501 0.014246 0.115739 1.794668 0.045720 -0.154909 2.966643 0.109580 0.401997 0.143120 0.093361 -0.244187 0.206752 0.073518 -0.260132 0.600014 0.385566 -0.055988 -0.112265 -0.431187 -0.002196 -0.125547 -2.278083 0.263359 -0.015562 -0.092022 0.064452 -0.297462 -0.128367 0.217528 -0.085627 -0.445242 -0.089496 -0.026104 0.304018 0.106213 0.078200 0.130071 0.206733 0.233507 -0.029740 -0.140816 -0.088410 -0.388349 -0.036587 -0.063216 -0.062697 0.498052 -0.215084 -0.036077 0.230532 0.032645 -0.357523 0.757401 0.086196 0.230827 -0.019954 -0.335404 -0.019280 -0.128166 0.067665 0.098288 0.229752 0.045720 0.106850 0.255293 -0.132182 0.390050 -0.044320 0.337944 0.124668 -0.355193 -0.532119 -0.074570
57 -0.252269 0.084527 -0.091176 -0.098654 0.255817 0.260906 0.015114 0.633443 -0.100291 -0.179815 0.088032 0.223697 -0.233245 -0.539460 -0.396929 0.246998 -0.363145 0.080848 -0.055608 -0.156748 -4.632160 -0.153219 0.129216 0.470224 0.013155 -0.272080 0.273567 -0.121203 -0.353500 0.440864 0.350055 0.245433 -1.557054 0.293197 -0.116068 -0.543565 -0.167359 -0.044768 0.285273 -5.337368 0.067821 -0.103880 0.062965 0.304832 0.033701 -0.139064 0.077236 0.113656 0.002781 -0.052673 -0.070001 -0.240023 0.022606 0.007050 0.018916 -0.014257 -2.801059 0.083662 0.104937 -0.272264 0.036706 0.178344 0.214511 -0.050289 -0.155603 -0.256375 0.006280 -0.086203 0.213746 0.166389 -0.038868 0.148444 0.094738 0.486075 -0.044860 0.076809 -0.257681 0.030333 -0.171537 0.152157 -0.300709 0.130081 0.273481 -0.058437 0.084726 0.136684 0.230503 -0.055342 0.061694 0.355702 0.030955 -0.158497 0.178724 0.044599 0.243864 -0.224464 -0.535166 -0.051395 -0.107328 0.043858 0.316036 0.230635 -0.112379 -0.101407 -0.055643 -0.106996 -0.099230 -0.252519 0.265896 -0.144135 0.255644 -0.090542 -0.006045 0.001035 0.072717 0.270579 0.461381 0.184683 0.070213 -0.019593 -0.013073 0.158335 0.562717 -0.691126 0.007327 -0.058239 0.016862 -0.194468 0.295853 1.971475 0.023420 -0.239242 3.065240 -0.490259 0.040337 0.167615 -0.151673 -0.102749 0.064635 -0.423247 0.345723 0.044077 0.078723 0.062277 -0.111364 -0.108748 -0.029312 -0.559496 -2.513544 0.017303 0.045265 -0.199265 0.131252 -0.045061 0.004278 -0.047919 0.188813 0.462458 -0.067305 0.343234 -0.020389 0.287516 -0.108019 0.159307 -0.039228 -0.065091 0.027355 -0.190694 -0.073378 -0.094731 -0.009700 -0.337224 0.144663 -0.239184 -0.049502 0.328528 0.244070 0.056945 0.055379 0.363106 -0.355087 0.200737 0.244654 0.157701 0.027260 0.055820 -0.026920 -0.070325 -0.087226 -0.204193 -0.063027 0.120141 -0.098902 0.276464 -0.031402 0.259435 -0.077489 0.688480 -0.512141 -0.207130
12 0.109446 0.001729 -0.140038 -0.162227 -0.102706 -0.062024 -0.281579 -0.057605 0.020225 -0.023717 -0.105055 -0.182472 -0.247808 0.010154 0.306854 0.109251 0.264922 0.182918 0.179413 0.329518 -4.827350 -0.084126 0.217898 -0.192932 -0.243120 0.075668 0.223602 -0.444427 0.021087 0.021852 0.112350 -0.033375 -1.611423 0.323034 0.167131 -0.086346 -0.075550 -0.078520 -0.017524 -5.496549 0.061925 -0.167541 -0.032763 -0.284254 0.191099 -0.287802 -0.350627 0.295820 -0.052096 0.123563 0.042547 0.226399 -0.075739 0.004424 -0.353104 0.273805 -2.353790 0.080590 0.132424 0.027978 -0.204258 0.030838 -0.193100 0.132230 0.128357 -0.128260 -0.062851 -0.092110 0.301687 -0.099008 -0.079454 0.004693 -0.030741 0.012946 -0.037150 0.170409 0.279803 -0.135877 0.054633 0.129510 -0.367650 0.050302 -0.003489 0.203390 -0.035589 -0.096124 0.109291 0.181606 0.181545 0.167949 -0.207609 0.163140 0.126948 0.346285 0.121111 -0.032177 0.039284 -0.021613 -0.337105 -0.079827 0.072965 -0.109076 0.275234 0.200886 -0.373074 -0.004180 -0.090652 0.278894 0.109820 0.228271 0.002266 0.049128 0.059965 0.018187 -0.061928 -0.077580 -0.224364 0.094340 0.020614 -0.183315 0.053433 0.037753 0.441422 -0.594331 -0.053383 0.041494 0.082526 0.193591 0.246926 1.996379 -0.022891 -0.109296 3.204942 -0.220586 -0.136470 0.171390 -0.337470 0.126282 0.114052 -0.247040 0.118343 0.125815 -0.025792 0.259101 0.035658 0.036392 -0.024228 0.020904 -2.590206 -0.173240 -0.448716 -0.168106 -0.176415 -0.267857 0.020817 -0.177665 -0.126229 0.210875 0.053485 0.037088 -0.009171 0.112578 -0.170129 0.148330 0.409445 -0.068441 0.034898 0.056113 -0.053406 -0.078684 -0.238614 0.034268 -0.387807 -0.100531 0.205009 -0.180667 -0.103585 -0.142230 -0.335243 -0.301277 -0.140801 0.127899 -0.298275 -0.189858 0.104274 0.070146 -0.064448 -0.033315 -0.094706 0.087364 0.125758 0.037497 -0.146511 0.020692 -0.004152 -0.086017 -0.602228 -0.301080 -0.536453 0.040872
384 -0.254860 0.045906 0.054439 -0.257578 -0.063346 0.308607 -0.213997 -0.169559 0.082812 -0.160294 -0.134972 0.189200 -0.146109 0.038272 -0.490929 0.141043 0.107542 0.036760 0.154272 0.138758 0.167941 -0.447513 -0.005489 -0.179639 -0.100545 0.255845 0.136325 0.236819 0.151888 0.290942 0.112229 0.212141 0.332715 -0.039963 0.240076 0.120102 -0.179890 0.040030 -0.276541 0.777765 0.409380 0.157950 -0.243800 -0.214883 0.087045 0.107514 -0.240795 -0.078209 0.159919 0.059521 0.139162 -0.081445 0.150472 -0.002624 0.092261 -0.197938 0.363654 -0.084052 -0.189121 0.126025 -0.112750 -0.123135 -0.235882 0.067282 0.082607 -0.319496 0.134528 -0.027687 -0.123886 -0.074048 -0.012800 0.052506 0.205814 0.421335 0.208676 0.172094 -0.156017 -0.089896 -0.200585 -0.220280 0.170074 -0.153045 -0.031320 -0.150248 -0.017871 0.147218 0.066266 0.165650 0.053411 -0.044217 -0.056216 -0.139646 0.148522 -0.123424 0.125302 -0.083772 0.108276 -0.017688 0.079072 -0.186439 -0.042087 -0.070585 0.118732 0.209718 0.124858 0.074319 -0.039491 0.151481 -0.007857 0.011786 0.276029 -0.223901 -0.018034 -0.138445 0.081924 0.043947 -0.209885 0.076774 -0.189952 -0.256715 0.178387 -0.122826 -0.097594 -0.469452 0.015359 -0.129541 0.071748 -0.019489 -0.197274 -0.152469 0.131593 0.004431 0.463880 -0.240906 -0.076461 -0.062415 0.130717 0.277450 -0.097377 0.142205 0.121800 -0.397157 0.162839 0.237849 0.016136 0.071292 -0.017596 -0.147025 -0.116442 -0.044315 -0.116921 0.203358 0.163964 0.301022 -0.092078 0.016769 0.253408 -0.102088 0.421092 0.137850 0.017473 -0.156541 -0.006454 -0.023756 -0.079151 -0.198604 0.188604 0.225649 -0.012627 0.006847 0.143007 -0.151918 -0.186641 0.312552 0.037046 0.308188 -0.027596 0.049816 0.199634 -0.089660 0.149892 0.120483 0.066203 -0.229457 -0.091991 0.089470 -0.028764 -0.191196 0.125268 -0.124481 0.159484 0.104968 -0.049643 -0.183076 0.031149 0.262081 -0.176847 -0.129932 0.645626 0.269117
438 0.017000 0.138342 0.112854 0.257582 0.002727 -0.034783 0.015395 0.027093 0.201577 -0.382539 -0.146608 -0.058333 0.015037 0.045095 -0.104883 0.232128 -0.188857 -0.000452 0.194206 -0.024861 0.152719 -0.091253 -0.006871 -0.116481 -0.096589 -0.283420 -0.190590 0.118161 -0.064637 -0.374873 0.304956 0.084764 0.614556 -0.104018 0.018748 0.067686 0.053175 -0.161521 -0.085928 0.557836 0.194102 -0.138096 0.152191 -0.075448 -0.089122 -0.009420 0.157262 0.122645 0.036957 -0.034425 -0.068511 0.149343 0.019950 -0.327827 -0.094232 0.466285 0.345510 0.018504 0.136245 -0.065546 0.017892 -0.227859 0.010968 0.062936 0.230354 -0.012533 -0.241001 -0.018586 0.084630 -0.197272 -0.035486 -0.077301 -0.032961 -0.115530 0.038558 -0.126769 -0.046434 -0.012102 0.258529 -0.023715 -0.131580 -0.109333 0.047026 -0.341625 0.094410 0.311592 0.023070 -0.338179 -0.148589 -0.211884 -0.322368 0.140321 0.257026 0.108760 -0.282010 0.249485 0.097808 0.042358 -0.060062 0.180002 -0.026353 -0.053151 0.066492 -0.119155 -0.053400 -0.185421 -0.033665 0.076086 0.103251 0.011497 0.002023 0.241135 -0.035621 -0.165959 0.055858 -0.083853 -0.014329 0.267463 -0.058210 -0.111668 0.043592 -0.092390 -0.180975 -0.375716 -0.589575 0.031394 0.022401 0.178923 -0.088123 -0.073882 -0.299189 -0.207997 -0.273535 -0.044756 0.227558 0.168544 0.130154 0.173871 0.031568 -0.034042 0.121301 0.098851 -0.127462 0.162135 0.259723 0.111467 0.143581 -0.049842 -0.620045 0.017954 0.250452 -0.200258 -0.064122 0.282641 -0.293124 -0.237252 -0.099884 -0.285296 0.072018 0.378498 -0.180446 -0.271921 -0.107521 -0.140789 -0.027039 -0.193163 0.117495 0.033199 -0.026482 0.008635 0.255917 -0.147308 0.240678 -0.183271 -0.040244 0.001323 0.528248 0.039116 -0.239393 0.181750 0.165606 0.103373 0.195569 -0.239973 -0.067180 0.025451 0.129762 -0.130899 0.161666 0.518719 0.151676 -0.123265 -0.037381 -0.129653 0.009744 0.061753 -0.109280 0.032331 0.551257 0.042799
