1111 100
360 -0.102189 0.537485 0.105321 0.198116 0.349243 0.269049 0.082543 0.224808 -0.870481 0.159860 0.074216 0.261576 0.065992 0.498067 -0.371990 0.113528 0.193600 -0.485634 0.321268 0.019444 -0.126966 0.152916 0.253957 -0.034873 -0.073126 0.606936 -0.011784 0.681617 0.018218 -0.238588 0.009533 -0.367619 0.012274 0.016107 -0.256105 0.753281 0.255080 -0.077962 0.023055 0.107412 0.095082 0.065117 0.076867 -0.044564 0.134088 0.150119 0.008421 0.118119 -0.027096 -0.002279 -0.116942 -0.050201 0.267464 0.234388 -0.254205 -0.068317 -0.003806 0.004475 -0.007263 -0.097309 0.426901 0.172366 0.941609 0.048134 -0.052878 -0.098805 -0.216736 0.043871 0.207281 0.109182 -0.227652 -0.055978 -0.036828 -0.110166 0.055618 -0.039916 -0.198395 -0.201041 -0.190775 0.193918 0.112067 -0.427198 -0.110424 0.057138 0.367079 -0.299020 -0.023912 0.187958 0.008816 0.087841 -0.684085 0.678362 -0.024961 0.106592 0.086935 0.344236 -0.073788 0.166902 0.206155 0.183783
0 -0.063540 -2.133225 0.170110 -0.325306 0.268116 -0.127714 -0.296941 -0.061853 10.041674 -0.087096 -0.070479 -0.043613 0.196792 -0.031910 0.107700 0.142939 0.092870 -0.211417 0.124688 0.062576 -0.280271 -0.176891 -0.221594 0.102948 0.265249 -0.030802 -0.018146 0.491054 0.144100 5.313118 -0.068727 -0.186533 0.074586 0.169457 -0.000165 4.936066 0.135430 -0.061652 0.103809 0.137499 0.062707 0.219012 -0.043404 0.142054 0.148314 -0.468367 0.026743 0.075692 0.019322 0.040894 0.143625 0.027448 -0.085802 -0.184575 0.359241 0.136168 0.199020 0.011438 -0.089222 0.037890 -0.188243 -0.246448 -1.278216 -0.086541 -0.113215 0.002227 0.056841 -0.055431 0.039733 0.193064 -0.038562 -0.059444 0.172077 -0.064151 -0.181620 0.192521 0.042658 0.079919 0.122964 -0.165349 0.008953 0.774009 -0.064774 -0.188213 -0.227695 0.181757 -15.738669 -0.186439 -0.170463 -0.023894 -1.771138 0.126385 17.091742 -0.078733 0.050862 0.049298 -0.065584 -0.028303 -0.001757 0.038410
359 -0.122659 -2.090750 0.092688 -0.220050 0.288088 -0.099008 -0.087835 0.019590 9.902403 -0.130431 -0.119530 -0.237939 0.164252 0.054563 -0.283985 0.315728 -0.120163 0.112408 0.039357 -0.027247 0.100361 -0.081299 -0.087178 0.057140 0.178599 0.099481 -0.146746 0.632931 -0.044150 5.074012 -0.108246 0.075159 0.119685 -0.008820 0.080903 4.857016 0.125127 0.051641 0.097266 -0.003512 0.118593 -0.035483 0.100490 -0.076633 0.048872 -0.502720 -0.006429 0.127037 0.061587 0.032501 0.772931 0.094460 0.014558 0.062788 0.355601 -0.045525 -0.042017 0.019071 0.077244 -0.069033 -0.098211 -0.379424 -1.295243 -0.005964 0.140070 0.091553 0.237929 0.253526 -0.061253 -0.004868 0.093988 -0.055423 -0.091129 -0.101931 -0.268575 0.034796 -0.177835 0.187639 0.099746 -0.225754 0.012909 0.712306 0.083585 0.012275 -0.049551 0.072615 0.178001 -0.034567 22.785606 -0.201050 -1.604268 -0.005634 -0.113591 0.039471 0.080745 0.103417 -0.054980 -0.102840 -0.109794 -0.075389
375 -0.046782 1.363076 -0.067952 0.534442 0.373452 -0.210987 0.048932 0.333316 -0.645978 -0.049957 0.127828 0.095686 0.151721 -0.006988 -0.025329 -0.090338 0.114818 0.131890 -0.151150 0.108067 -0.127658 0.220048 0.094134 0.028399 -0.172582 -0.067220 0.045769 -0.544948 -0.010346 -0.072898 -0.265019 0.140340 -0.040459 -0.039950 -0.103986 -0.500447 0.011371 -0.033277 0.013701 -0.182004 0.082481 0.225043 0.101404 -0.023546 0.055169 0.362999 0.070924 0.012186 -0.014833 -0.050742 0.011186 0.156119 -0.021605 -0.198098 -0.482488 -0.124082 0.015404 0.011190 0.020044 0.133041 -0.065046 0.341068 1.194324 0.110544 -0.095930 -0.020758 -0.033986 -0.063321 0.079408 0.107240 -0.048164 0.008332 -0.014404 0.121728 0.174926 0.042983 0.060309 -0.235599 -0.316728 -0.090888 0.047239 -0.500321 -0.021497 -0.079515 0.222848 0.321251 -0.068856 0.306389 0.062137 0.055957 -0.760497 -0.406060 0.031613 0.008558 0.121244 0.091013 21.410656 0.009200 0.069826 -0.019492
10 -0.101808 -1.793384 0.194302 -0.125794 0.330099 0.013970 -0.065733 0.036798 10.894803 0.032271 -0.033679 -0.239424 0.106182 0.039310 -0.024441 0.115794 -0.023260 0.110953 0.049066 0.123454 0.025050 0.185811 -0.174196 0.059597 0.233951 -0.018845 -0.128616 0.576830 0.118864 4.599295 0.139146 -0.041986 0.087064 -0.075714 -0.086412 5.643703 0.316572 -0.042662 -6.072067 -0.052944 0.003703 0.020067 -0.124891 0.045113 -0.041070 -0.294093 0.088647 0.082083 0.005612 -21.709091 0.039420 0.154859 -0.182282 0.088253 0.265242 0.072876 0.044081 0.076425 0.009331 -0.057470 -0.003346 -0.266266 -1.381824 0.007029 -0.080564 0.146866 0.191587 0.156194 0.009763 -0.054697 0.046520 0.010749 0.017257 -0.268091 -0.008423 0.290289 -0.221317 0.128083 0.226952 -0.029941 -0.058517 0.602902 0.070575 0.013879 0.176280 0.016687 0.168231 0.075378 -0.285458 -0.052632 -1.306370 0.164206 -0.219710 -0.176682 0.055291 0.020661 -0.035472 0.081134 -0.069231 -0.163251
5 -0.017843 -1.630312 0.036517 -0.200406 0.301344 -0.119328 0.192955 -0.002885 11.549850 -0.011839 -0.093022 -0.014899 0.050488 -0.004830 -0.064360 0.061210 0.151640 0.001834 -0.078759 0.038596 0.069771 -0.046648 0.015971 -0.035047 0.079191 -0.156965 -0.005360 0.552541 0.058795 4.734287 -0.016536 0.058510 -22.556116 -0.043361 0.067825 5.946559 0.203271 -0.012170 0.093704 0.030792 -0.040475 0.074885 0.146194 0.018752 0.245463 -0.276175 0.087965 -0.157303 -0.182207 0.179404 -0.120593 0.003785 -0.036197 0.059289 0.452774 0.392801 -0.011694 -0.094737 0.103050 0.055538 -0.188946 -0.245033 -1.349489 0.100101 -0.070389 -0.059038 0.110992 0.007383 -0.222953 -0.010773 0.222642 0.061095 -0.085875 0.118533 0.160092 0.062893 -0.180045 -0.015950 -0.283376 0.032320 0.023525 0.595885 -0.071826 -0.228906 -0.262633 0.193841 0.096271 -0.153479 -0.200737 -0.112006 -1.481097 0.144355 -0.273524 -0.054350 0.082129 0.008190 -0.053457 -0.107946 -0.077428 0.146356
24 0.165217 -0.135376 0.036820 -0.341964 0.293613 -0.751892 0.054365 0.245589 12.080280 0.265313 -0.127221 0.025074 -0.087577 0.359517 0.810806 0.096365 -0.090898 -0.070513 -0.707771 -0.098119 0.162044 -0.054605 -0.270309 -0.612634 -0.319386 -0.247628 1.506411 0.145292 -0.964690 4.873253 -0.205298 0.065357 0.078525 0.855047 0.065497 6.364851 0.028018 0.146235 0.021995 0.282128 0.741923 -0.419600 -0.321610 -0.129521 -0.167916 -0.365070 -0.261026 -0.558137 0.102666 0.074085 -0.122659 0.386141 0.017759 0.003094 -0.058726 -0.145493 -0.105344 -0.298878 -0.146084 0.151260 0.732868 -0.054524 -0.748873 -0.454351 -0.067026 -0.015472 0.043956 -0.045946 0.106201 -0.116454 0.058267 -0.103175 0.119817 -0.190951 0.484979 -0.052686 -0.588431 0.187335 -0.161328 -0.861942 -0.471428 0.179572 -0.010219 -0.007194 0.137298 -0.250728 -0.086223 0.108363 -0.079610 0.105628 -0.438136 0.508284 -0.189129 0.066863 0.041616 -0.177503 -0.040158 -0.168737 0.656419 -0.280241
40 -0.395662 -0.177478 0.075502 -0.178732 0.301040 -0.164915 0.214895 -0.244009 11.985465 -0.222638 0.382335 -0.074950 -0.119987 -0.100198 0.516968 0.003411 0.095068 -0.216434 -0.024618 -0.644049 -0.128012 0.026703 0.146527 -0.305857 -0.057769 -0.071566 -0.031494 0.138703 -0.185102 4.045298 -0.131749 -0.012475 0.076462 -0.911043 0.053573 6.279658 -0.061792 -0.021229 0.025420 -0.019736 -0.181294 -0.104511 0.085154 -0.253840 0.320138 -0.048100 -0.018105 1.082994 0.032179 0.073791 0.035978 0.501863 -0.015076 0.280601 0.406846 0.193309 -1.017341 -0.025959 -0.139385 0.128578 0.226597 0.080773 -0.699818 -0.036786 -0.055378 0.034017 0.051834 -0.131269 0.292855 -0.161849 -0.017716 0.045873 0.123411 -0.223005 0.224214 0.147708 0.185225 -0.176498 -0.090370 -0.089143 0.681468 0.181348 -0.008925 -0.184266 -0.596903 0.124791 0.043710 0.296958 -0.085885 0.436332 -0.356500 0.189779 -0.064335 -0.103275 0.031658 -0.143675 -0.023605 -0.047860 0.106111 0.066469
376 -0.026456 1.345309 -0.072555 0.245901 0.348047 -0.205089 0.343686 0.181027 -0.598216 0.068416 0.225654 0.016185 -0.149889 0.004804 -0.098505 -0.016655 0.273077 0.141073 -0.072856 0.071306 -0.169962 0.060562 0.097887 -0.034085 -0.096327 0.061995 0.107210 -0.195215 -0.077076 -0.130679 0.028756 0.073241 -0.038322 -0.159981 -0.036135 -0.122126 -0.115732 -0.029869 0.021931 0.023874 -0.211941 0.093708 0.006051 -0.121389 -0.132922 0.409107 -0.143860 -0.015879 0.046409 -0.043734 0.111132 -0.129450 0.139036 -0.302728 -0.429619 -0.134347 0.029988 0.042414 0.140176 -0.138277 0.093232 0.449666 0.915893 -0.088027 -0.071381 0.049252 -0.124429 -0.082305 0.056963 0.158877 -0.037190 0.005307 -0.021346 -0.007981 0.021259 0.248083 -0.039366 -0.147620 -0.267731 0.081693 -0.078463 -0.251360 -0.128857 -0.148066 0.160455 0.178157 -0.018946 0.119291 0.052452 0.018790 -0.879483 -0.251500 0.043731 0.142023 -15.081794 0.031032 -0.082842 0.160556 0.067114 -0.082617
20 0.190168 -0.171593 0.009971 -0.461726 0.308030 0.509624 -0.025340 0.115656 12.125909 0.725379 -0.146617 -0.134429 -0.326381 -0.258393 0.041026 0.025431 0.234548 -0.041777 0.103100 0.075668 -0.046533 -0.043969 -0.000269 0.173006 -0.071316 -0.190385 0.292478 0.276695 0.103017 4.114499 -0.025137 0.068111 0.087275 -0.136116 0.205637 6.378426 0.181477 0.047752 0.061181 -0.690710 -0.129104 0.091883 0.279294 0.097750 -0.021260 -0.227300 -0.084599 -0.010899 0.159455 0.069083 0.240318 0.101283 -0.264812 -0.019574 0.003625 -0.304617 -0.005963 -0.154382 -0.205023 -0.111420 0.005930 0.024845 -0.699479 0.217250 -0.140961 0.056994 0.483596 -0.028124 0.357516 0.530978 -0.205500 0.335349 -0.158731 -0.060763 -0.102196 -0.134902 0.119983 -0.448045 -0.533077 -0.328583 -0.486475 0.164525 -0.207277 0.134959 -0.172436 -0.320663 -0.001362 0.439050 -0.083037 0.118564 -0.389103 -0.050723 -0.120172 -0.209176 0.050458 -0.181920 -0.035266 0.279758 -0.738594 -0.202251
14 -0.234413 -0.168609 0.044344 -0.100525 0.280072 0.000971 -0.114995 0.072270 10.759212 0.105538 0.186473 0.000385 -0.113438 0.059245 -0.245438 -0.011898 0.103602 0.099104 0.217650 0.139352 0.026687 -0.122410 0.197685 -0.512660 0.278485 -0.049449 -0.069068 0.228868 -0.022360 3.982886 -0.186423 -0.141486 0.089679 -0.003346 0.186486 5.436607 0.052814 0.254304 0.017990 -0.174153 -0.140465 0.100462 0.007152 0.081420 -0.036041 -0.134855 0.103900 -0.150231 0.232316 0.090256 -0.188935 0.083681 -0.097982 0.061387 0.438485 -0.820466 0.120168 -0.191960 0.084398 0.007440 -0.543086 -0.032321 -0.657936 0.112892 -0.111316 0.600095 0.257977 -0.591760 -0.215299 -0.298806 0.603680 -0.474531 0.067013 0.132562 0.193283 -0.347965 0.007357 -0.001544 -0.252198 0.040009 0.437277 0.431714 -0.102551 -0.011278 0.450186 0.082283 0.013970 -0.201241 -0.089844 0.114026 -0.437997 0.186489 -0.112172 -0.321165 0.035682 -0.076606 -0.021906 -0.122571 0.270284 0.086455
387 0.215976 0.358019 0.054720 0.032107 0.336998 -0.118567 0.368805 0.228456 -0.406334 0.079406 -0.145948 0.007852 0.089731 0.118097 0.066718 0.017405 0.150887 0.117262 0.134467 -0.167107 0.017294 -0.090422 -0.202217 -0.056460 -0.054379 0.206934 -0.277277 -0.345138 -0.011825 -0.224662 0.165983 0.031778 0.029725 -0.006088 0.254625 -0.047056 -0.156994 -0.271366 0.012364 0.174343 0.273148 -0.093714 0.042847 0.041251 0.274096 0.171454 -0.157833 0.075666 -0.178147 0.029909 0.103478 0.132929 -0.187384 -0.287992 -0.310200 -0.197204 0.066637 -0.018577 0.201039 0.087820 0.096309 0.308245 0.524009 0.183870 -0.242456 -0.095204 0.236212 -0.016834 -0.143370 0.004175 -0.122114 -0.093121 -0.112269 0.012507 0.057181 0.011419 0.283483 0.012439 -0.065157 -0.118161 0.005645 -0.050452 0.061310 -0.189007 -0.001545 0.143038 -0.070326 0.099682 -0.025476 -0.086599 -0.293820 -0.349076 -0.094591 -0.035931 0.092692 -0.013676 -0.084241 0.064923 0.081298 -0.117864
22 -0.053221 -0.202778 0.009938 -0.027517 0.316627 0.030151 0.034536 -0.039404 10.442997 -0.054734 -0.145525 -0.185517 0.194781 0.267365 -0.068310 -0.053834 -0.118972 0.164865 0.002079 -0.105995 0.006296 0.056142 0.034988 -0.341455 0.001801 0.110290 -0.217267 0.330183 -0.078390 3.889607 -0.072764 -0.255537 0.074738 -0.088853 -0.070409 5.216548 -0.388552 -0.326227 0.027579 0.098438 -0.407102 -0.154874 -0.162086 0.085786 -0.259236 0.133339 0.010247 -0.188991 0.059402 0.066448 0.082885 -0.205122 0.441440 -0.070639 0.110037 0.021900 -0.175950 -0.243617 -0.755736 -0.396525 0.082466 0.022578 -0.666197 0.130961 -0.006343 0.212136 -0.024020 0.026040 -0.189235 0.450300 -0.385678 0.358460 -0.125881 -0.105540 0.450101 -0.149631 0.175239 0.080141 -0.049665 -0.081744 -0.206009 0.394756 0.067374 -0.323077 0.267953 -0.108959 0.193006 -0.084378 -0.078679 0.016982 -0.279612 0.002456 0.065892 -0.193261 0.033562 0.040784 -0.020793 -0.602382 -0.219553 0.013823
16 -0.077474 -0.173925 0.175518 -0.245871 0.270354 0.053627 0.027912 -0.132998 10.901155 0.154180 -0.212007 -0.121411 -0.172355 0.051270 0.115462 0.229281 0.003282 0.080914 0.029639 0.029342 -0.323041 0.456568 -0.027784 0.160318 -0.021124 -0.081536 0.036067 0.031681 0.029731 3.641771 -0.034256 -0.100059 0.086597 -0.314769 -0.246425 5.584319 -0.378622 -0.213798 0.060627 0.152713 0.423930 0.294586 -0.293264 0.099538 -0.147770 -0.290766 0.216726 -0.275796 0.044554 0.069313 -0.170684 -0.172239 0.265500 -0.152103 0.187993 0.039860 -0.179220 0.469813 0.107282 0.207273 0.107828 -0.407420 -0.683565 -0.129840 0.095670 0.093687 -0.012420 0.155695 0.080338 -0.432783 0.024349 -0.032862 0.101744 -0.071367 -0.055260 0.060047 0.409031 -0.073511 -0.350192 0.279370 -0.167227 0.165016 0.153294 0.378187 0.313530 0.177664 0.099246 -0.177716 -0.077186 0.060431 -0.356798 -0.140292 -0.023561 -0.412735 0.035010 -0.055252 -0.026177 0.035708 0.080485 -0.036130
19 -0.255079 -0.145313 -0.033177 -0.075867 0.291546 -0.132804 -0.024655 0.007115 11.847619 -0.192802 -0.136518 0.078182 -0.140450 0.280648 -0.070136 -0.249265 -0.078169 -0.116330 -0.199496 -0.020163 0.005863 0.044181 0.217863 -0.128147 0.016196 -0.202898 0.070756 0.246279 0.171514 3.953182 -0.292327 0.203293 0.082837 -0.037936 0.652949 6.221519 -0.134235 0.138423 0.001056 -0.044647 -0.088034 0.200518 0.309762 0.159282 -0.009339 -0.379402 0.270235 -0.243768 -0.557776 0.075031 -0.380590 -0.139407 0.164031 -0.154158 0.098842 0.094978 -0.139115 -0.313612 -0.056716 0.231640 -0.168034 -0.115884 -0.676787 0.098964 0.106882 -0.001773 0.039642 0.790296 0.007240 0.246588 -0.326434 -0.641614 -0.525930 0.090746 -0.138505 -0.079707 0.301624 0.401705 0.123066 -0.106776 0.267130 -0.067840 0.308083 0.125141 0.154529 -0.181112 0.097341 0.007101 -0.084258 0.122121 -0.357540 0.114699 -0.018203 0.222580 0.024659 -0.238430 -0.030345 0.301677 -0.254980 0.074143
80 -0.066648 -0.198382 -0.024471 0.151487 0.317588 0.048629 0.113298 0.103717 11.823068 0.148213 -0.046035 -0.355313 0.222462 -0.128902 0.107416 -0.331124 0.157725 0.034798 0.308143 0.304346 0.030874 -0.254125 -0.084107 0.489419 -0.092886 -0.124728 0.256184 0.180887 -0.178281 3.835304 -0.312734 -0.103224 0.080399 0.215134 -0.122505 6.221807 -0.245013 -0.386461 0.047937 0.177302 -0.279938 -0.161120 0.026169 -0.135605 0.008556 -0.054432 -0.148241 -0.011577 -0.709997 0.075061 0.213033 -0.154751 -0.290412 0.222747 0.136411 0.217481 0.058987 0.084573 0.254920 -0.060230 0.054961 0.178032 -0.650177 0.248302 0.262225 -0.018632 0.219302 -0.075673 -0.088912 -0.228678 0.043723 -0.019029 -0.091310 -0.132533 -0.052003 0.142065 -0.112522 0.009278 0.270039 0.126682 0.145019 0.100319 0.205504 -0.134901 0.142707 -0.212154 0.135652 0.063061 -0.070740 0.424711 -0.271720 0.163114 0.010004 -0.524115 0.024995 -0.040366 -0.024629 0.148208 -0.024258 0.367412
67 -0.124116 -0.185559 -0.271269 -0.014064 0.285085 0.229353 0.016673 -0.138774 10.920586 -0.111181 0.711336 0.215818 -0.052866 -0.079088 -0.412358 0.020918 -0.107543 -0.253247 0.226086 0.008775 0.018142 -0.127095 -0.211357 0.018088 0.085744 -0.198980 0.184313 0.227172 -0.252030 3.562380 0.054040 0.188868 0.075903 0.073529 -0.168014 5.633579 -0.251164 -0.074435 0.056045 -0.189799 0.107816 -0.028450 -0.023715 0.449198 0.011198 -0.101415 0.276288 -0.001425 -0.250878 0.071836 -0.158783 -0.043604 0.083199 0.152605 0.256663 0.004402 -0.114245 0.352840 -0.097639 0.139467 0.055423 -0.056541 -0.638907 0.107294 0.067576 -0.187426 -0.019396 0.007930 -0.362940 0.205396 0.045077 0.238233 -0.219267 -0.439797 -0.172324 -0.237638 -0.021993 0.079711 0.095274 -0.013684 -0.084530 0.363412 0.076505 0.203939 -0.070179 0.156897 0.115665 0.140423 -0.081698 -0.153949 -0.323443 -0.304605 -0.000796 0.157853 0.039965 0.017963 -0.030945 0.117686 0.249900 -0.511478
398 -0.031735 0.333998 0.314877 0.386392 0.266966 -0.031358 -0.208708 0.222776 -0.451991 0.177970 -0.141947 0.131497 0.007244 -0.063762 0.110658 0.051945 -0.157266 -0.133829 -0.089492 -0.120799 0.068824 0.171403 -0.094550 -0.101588 0.138318 0.067459 -0.189959 -0.119956 0.029791 -0.228111 -0.129231 -0.107619 0.029241 -0.032715 -0.244256 0.095111 0.027430 -0.065705 0.014471 0.091525 0.108829 -0.235015 -0.051600 0.119122 -0.141280 0.112245 -0.218091 0.035624 -0.414302 0.027889 0.206087 -0.017044 0.219627 0.053511 -0.181824 -0.043717 0.032556 0.020474 -0.218986 0.001855 -0.059046 0.156621 0.575462 -0.027837 -0.051456 0.016058 0.248005 -0.017767 0.084641 0.006803 -0.052009 0.163805 -0.184005 0.220494 0.053700 -0.213946 -0.273973 -0.065044 -0.207843 0.053138 0.133948 -0.269837 -0.038385 0.243293 -0.017414 0.292300 0.010671 0.183679 -0.023228 0.202050 -0.213597 -0.250322 -0.026259 0.149174 0.074991 0.055837 -0.080129 0.256300 0.181546 0.150259
36 0.232210 -0.198622 -0.107630 -0.502648 0.276682 -0.077376 -0.041241 0.183652 11.550706 0.312550 -0.094664 -0.055259 -0.372302 0.152774 0.040716 -0.196487 -0.095417 -0.216692 -0.098792 -0.056883 -0.173540 0.034170 -0.137835 0.124356 0.109929 -0.071964 0.006500 0.065473 0.197103 3.300017 -0.243363 -0.050878 0.079820 -0.118578 -0.348205 5.969027 -0.036972 0.011525 0.018926 0.168728 -0.243231 0.097398 0.020740 0.174603 0.332044 0.094130 0.045138 0.121465 0.143137 0.080032 0.028231 0.408618 0.266985 0.149571 0.208140 0.143644 0.111811 0.072484 -0.095490 0.107148 -0.444276 0.049679 -0.647121 -0.088532 -0.376457 0.129348 -0.077149 -0.030742 -0.028169 0.078345 -0.005866 0.049050 0.043287 0.164294 0.208208 0.179582 0.230192 -0.227401 0.528810 -0.162205 -0.207881 0.239499 0.212661 -0.162545 0.258323 0.095897 0.134916 -0.433519 -0.084935 -0.174806 -0.301385 0.039127 0.009478 0.260261 0.027276 0.031287 -0.043080 0.473876 0.293962 0.009158
26 0.022957 -0.144153 -0.192749 0.152574 0.284922 0.016076 0.024896 0.028545 11.357274 -0.237455 0.251946 -0.030893 -0.239550 0.174871 0.109819 0.057599 0.218672 0.242597 -0.205233 0.155237 0.415361 0.084705 0.212287 -0.176315 -0.119214 0.120837 -0.026300 0.022787 0.158808 4.290608 0.305181 -0.315762 0.076331 0.047854 -0.079237 5.872719 -0.066194 -0.239734 0.046534 0.100383 -0.138613 0.000628 0.015301 -0.196200 0.158235 -0.262780 -0.114667 -0.213398 -0.071781 0.060156 0.188496 0.385547 -0.075614 0.113455 0.477996 -0.013689 0.179269 0.104408 0.065593 -0.033739 -0.019829 -0.481310 -0.686019 -0.015293 -0.107990 -0.499557 0.143882 -0.241842 -0.150223 0.163704 -0.244754 0.024569 0.042634 0.249182 -0.043774 -0.052567 0.176129 -0.007200 0.126918 0.148471 -0.053630 -0.084443 -0.180044 -0.037627 0.021268 -0.080605 0.049425 -0.012226 -0.071490 0.189648 -0.284326 -0.121493 -0.051707 0.223080 0.024184 -0.282597 -0.033998 0.006850 -0.033391 0.024955
6 0.043767 -0.207530 0.060885 0.237473 0.286911 0.125796 0.418998 0.240247 10.571216 0.027322 0.037611 -0.186570 -0.157685 -0.082821 -0.040525 -0.171157 -0.433453 0.055467 -0.122405 -0.281314 0.202724 0.032709 -0.212793 0.011034 -0.007759 -0.043911 -0.319311 0.311188 0.118858 3.722093 -0.119947 0.005127 0.079109 0.189085 -0.139536 5.302464 0.214044 0.517760 0.054462 -0.123843 0.141358 0.163079 -0.060069 0.014961 0.093003 -0.301755 -0.531600 -0.033057 0.083239 0.068092 -0.395991 0.193932 0.010245 -0.047535 0.185190 -0.002832 0.146566 0.156528 -0.014303 0.071299 0.271557 -0.097789 -0.633226 0.235471 0.173451 -0.050186 -0.007190 -0.011031 -0.228632 -0.125692 0.131725 0.143583 -0.077508 -0.290101 0.209824 0.342646 0.223045 -0.005282 -0.030549 0.161671 -0.183758 0.430634 -0.298093 0.087062 -0.206235 -0.009856 0.211578 -0.178857 -0.076605 -0.152502 -0.303973 0.027353 0.087078 -0.137963 0.023602 0.123498 -0.023521 0.081779 -0.277391 0.132120
8 0.312525 -0.178270 0.119839 -0.102690 0.278334 0.151841 -0.289167 -0.019508 11.463208 -0.372874 -0.366124 0.377369 0.120585 -0.075774 0.318174 -0.002201 -0.149590 0.323259 0.324789 0.106785 -0.164785 0.137931 0.066408 -0.045247 0.159826 -0.277655 0.349654 0.180555 0.147938 3.618636 -0.000735 -0.147274 0.084393 -0.033148 -0.102598 5.914525 -0.065973 0.146853 0.035249 0.122296 -0.002806 0.001413 0.013068 0.250453 0.011339 0.036647 0.031456 0.250146 -0.107231 0.067548 -0.134137 -0.301226 0.033735 -0.089851 0.141001 -0.021654 0.346589 0.156826 0.227852 0.226409 -0.271360 -0.150632 -0.625766 -0.152561 0.229971 -0.078593 0.206278 -0.094947 0.001317 0.046527 -0.127665 0.065768 0.109270 -0.100306 0.252255 0.261598 0.071861 0.086979 0.070092 -0.018561 0.076183 0.211596 -0.304396 -0.323741 -0.060084 -0.283977 0.208846 0.203710 -0.077508 0.161705 -0.287097 0.015725 0.077162 0.421731 0.026253 -0.067910 -0.034822 -0.201895 -0.078950 -0.006622
50 0.251790 -0.144813 0.114000 -0.225570 0.314609 0.145972 -0.383399 -0.090759 11.720901 -0.267994 -0.101920 -0.037422 0.274993 -0.126939 -0.228127 -0.062729 0.242738 0.005012 -0.125684 -0.305149 -0.192975 -0.069251 -0.109189 -0.082744 -0.314058 0.000110 -0.124497 0.165057 -0.228804 3.675271 -0.119673 -0.139184 0.058441 -0.018936 -0.072893 6.114452 -0.205827 0.128729 0.019785 0.042300 -0.352123 0.400243 -0.081302 -0.164931 -0.352651 0.081748 0.014227 -0.024333 0.438599 0.069246 -0.266817 0.044512 -0.039394 -0.051849 0.063315 -0.004906 0.065682 -0.060580 0.198815 0.054862 0.158527 -0.102565 -0.672747 0.264730 0.009557 -0.341858 0.028936 0.033584 0.301619 -0.100052 0.182996 0.138366 -0.351381 -0.033330 0.160260 0.110663 -0.160248 0.192715 0.150300 0.063170 0.031828 -0.139451 -0.147453 0.295623 0.171410 -0.176750 0.061735 -0.054204 -0.075955 -0.217670 -0.233787 -0.154994 -0.051962 -0.081726 0.035246 -0.121374 -0.035971 0.448550 0.221715 0.239214
56 0.481064 -0.194512 -0.056150 -0.346939 0.285040 0.009883 -0.258912 -0.056474 11.720498 -0.063452 0.230352 -0.142757 0.145943 -0.246757 -0.057230 -0.333570 0.042781 -0.007464 -0.154134 -0.412069 -0.176490 0.003108 0.022218 -0.093059 -0.140602 0.263155 -0.042788 -0.117737 -0.209662 3.638617 0.197313 -0.305249 0.077595 0.131975 0.119369 6.098603 0.212633 -0.218651 0.066859 -0.267365 0.123079 -0.522910 -0.433415 0.099637 -0.235949 -0.101626 0.210245 -0.006164 0.120684 0.064215 0.250521 -0.271033 -0.160245 -0.149307 0.091623 0.651823 0.007193 0.093938 -0.094190 0.189295 -0.324459 -0.164627 -0.667436 0.276287 -0.217160 0.120343 -0.158086 0.070111 -0.336440 0.125335 -0.077220 -0.279870 -0.097185 0.144542 0.002435 0.408941 -0.083420 -0.041510 -0.012395 0.301791 0.155702 0.087601 -0.515337 0.242578 0.208137 -0.093537 -0.062940 0.148982 -0.068608 -0.036834 -0.262957 0.084118 -0.167322 0.021849 0.016021 0.195092 -0.032134 0.257812 -0.014336 -0.186844
120 0.073189 -0.193724 -0.303304 -0.015661 0.305533 0.111012 -0.062388 -0.093863 11.661501 -0.317692 -0.322717 0.174655 -0.017135 0.112784 0.046165 -0.000159 -0.348912 0.139387 -0.022109 -0.065636 0.328102 -0.009642 -0.063934 0.373303 0.024275 -0.187044 -0.107434 0.286442 -0.153039 3.615304 0.467012 0.011597 0.064211 -0.069624 0.364330 6.104674 -0.007337 0.319777 0.011130 0.193052 0.015573 0.219425 -0.096839 0.026554 -0.097790 0.007007 0.199382 -0.027807 -0.042324 0.069071 0.178442 -0.188317 -0.014868 0.033800 0.061781 -0.015469 0.041627 0.079957 -0.221628 -0.355505 0.151749 0.103709 -0.657882 0.185608 -0.217109 0.050878 -0.079412 -0.126106 0.071557 0.316411 0.175476 -0.330854 0.441301 -0.121389 0.275344 -0.059324 0.110814 -0.200341 -0.035631 0.086029 -0.024134 -0.065065 0.245392 -0.037759 0.017822 -0.019446 0.067285 0.031777 -0.074160 0.276333 -0.189263 0.083581 -0.030566 0.155610 0.033460 -0.070286 -0.035251 0.364447 0.162528 -0.046153
476 -0.060094 0.303527 0.072831 0.050379 0.257346 0.003796 0.058518 0.243110 -0.488750 -0.185362 0.080718 -0.277311 -0.008115 0.216615 -0.125100 0.087408 0.041940 0.267503 -0.033077 -0.057733 -0.099026 -0.239412 -0.024230 -0.077158 0.260991 -0.041154 0.029524 -0.214572 -0.039488 -0.211040 0.229950 0.142040 0.033148 -0.086387 -0.077743 0.146158 0.089332 -0.004532 -0.033703 0.060036 -0.077880 -0.111257 -0.212138 -0.032860 -0.079269 0.206021 -0.123590 -0.084696 -0.141122 0.039249 -0.226721 -0.012816 -0.021862 -0.096118 -0.263622 -0.059517 0.243932 -0.217450 0.136942 0.174545 0.169288 0.424672 0.556515 -0.078577 -0.013982 -0.041032 -0.106963 -0.002942 0.075824 0.031722 -0.171650 0.023903 0.104277 0.069296 -0.031376 0.012501 0.049438 -0.193606 -0.075748 0.020953 0.112292 -0.000308 0.188955 -0.049683 -0.063633 0.160377 0.095596 0.158191 -0.022140 0.102962 -0.224398 -0.332874 0.036075 -0.078344 0.080741 0.142435 -0.070198 0.101222 -0.017008 -0.128291
30 0.189827 -0.220489 0.324841 -0.243200 0.323398 0.149880 0.163517 -0.092418 11.805895 -0.290434 0.254398 0.004366 -0.067843 -0.236290 -0.161139 -0.146609 -0.186139 0.117831 -0.121229 0.158723 -0.219521 -0.217261 -0.402572 0.020513 0.433842 0.035179 -0.051234 -0.261676 0.243121 3.176052 -0.183349 -0.057733 0.075801 -0.048384 -0.056954 6.159104 0.229493 0.026236 0.033619 0.177329 0.019726 0.406366 0.061455 0.009860 0.217832 -0.085543 -0.022682 0.178138 -0.215424 0.063865 0.119105 0.004542 -0.065762 -0.565383 0.070582 -0.138038 -0.220957 -0.432003 -0.289768 0.178185 0.188948 -0.033094 -0.628017 -0.332501 0.242324 -0.341637 -0.286941 0.020412 -0.271817 -0.108307 0.093616 -0.149433 0.100297 0.128447 -0.070417 -0.169140 -0.103766 -0.377659 -0.017399 0.054702 -0.227653 -0.093028 -0.116661 0.089546 0.221913 -0.129356 0.003791 0.074910 -0.075441 0.320727 -0.186414 0.396778 -0.098553 0.037284 0.034580 0.280300 -0.025649 -0.071603 -0.007365 0.045604
428 0.154030 0.311387 -0.179931 0.158088 0.262690 -0.351652 0.011433 -0.032821 -0.485855 -0.001294 -0.024168 -0.104992 -0.116248 -0.262943 -0.106045 0.017970 0.044495 0.249662 -0.110856 0.100397 -0.053247 0.171072 0.219523 -0.018233 0.174011 0.263171 0.087360 -0.046297 -0.136880 -0.232634 0.102068 0.054378 0.023005 0.014344 0.066067 0.182364 0.001805 -0.038586 0.020699 0.264523 -0.216946 0.074182 0.100085 0.055606 0.161727 0.306734 -0.155284 -0.024373 0.057436 0.010552 -0.084549 -0.028967 0.026583 -0.290496 -0.261502 -0.179185 -0.089147 0.109162 0.051713 0.012236 -0.034349 0.291387 0.574149 -0.024138 -0.087151 0.029190 -0.257800 -0.173002 0.089987 0.059870 -0.071834 0.032374 -0.192149 -0.221018 -0.186283 -0.143007 -0.103378 -0.011932 -0.090500 -0.023138 0.052670 -0.000658 -0.030053 0.006502 -0.100312 0.112855 0.051724 -0.036943 -0.023714 0.049723 -0.217535 -0.000859 0.019976 0.140481 0.089987 0.102833 -0.065065 0.144706 -0.061437 0.200408
42 -0.067416 -0.208914 0.116485 0.026465 0.299283 -0.026112 -0.142681 -0.146800 10.846979 0.031214 0.000969 0.154744 0.100225 -0.142690 0.071270 -0.247209 0.117860 0.051191 0.018385 0.088150 -0.045270 -0.038510 -0.247897 0.057585 0.045172 0.136449 0.042840 0.281638 0.020949 4.167526 0.036043 0.121208 0.089868 -0.036933 -0.070862 5.570228 0.033718 0.160603 0.029032 0.208310 0.130635 -0.007947 0.052829 0.024946 0.072825 -0.094113 0.143697 -0.030142 0.051645 0.080019 -0.187590 0.033575 -0.103874 0.214287 0.203102 0.240979 -0.098597 -0.023194 0.018387 0.012560 -0.011682 -0.096717 -0.636437 -0.078082 0.112615 -0.052856 -0.060233 0.013316 0.134686 -0.065775 0.102812 -0.085007 -0.018428 -0.017269 -0.079145 0.036805 0.326973 0.019585 -0.047435 -0.021329 0.021511 0.169706 -0.002201 0.038704 -0.070883 0.026964 0.068030 0.057746 -0.083329 -0.028707 -0.347139 -0.159521 -0.051823 0.024535 0.023421 -0.235341 -0.034548 -0.126128 -0.187893 -0.186883
35 0.021360 -0.171063 0.154258 0.036325 0.292705 0.079533 0.136206 -0.057441 11.587182 -0.331210 -0.076604 0.046865 -0.183701 -0.222800 0.083385 -0.246273 0.161851 0.031525 -0.165567 0.045501 0.377505 -0.350543 -0.051311 -0.147023 -0.119319 0.215663 0.358045 0.149658 0.064371 3.732202 0.075543 0.056969 0.066474 -0.050670 -0.263613 6.085350 0.048128 -0.082673 0.019204 -0.188798 0.321442 0.254836 0.318054 -0.301095 -0.021193 -0.039749 0.012942 0.381553 -0.359266 0.067564 -0.086903 -0.264558 0.078168 0.149477 -0.100491 -0.014726 0.259471 0.042560 -0.274737 -0.132887 -0.140242 -0.259961 -0.645720 0.328848 -0.094091 0.080682 -0.202929 0.121391 0.085817 0.239031 0.032810 -0.013091 0.048682 0.133870 -0.298116 0.004909 -0.189439 -0.284714 0.132464 -0.182345 0.172471 0.114769 -0.092114 0.153725 0.071455 0.038578 0.057434 -0.658746 -0.084713 -0.414570 -0.269988 -0.096326 -0.057012 -0.170189 0.018354 -0.361139 -0.031336 -0.327145 -0.016158 -0.008668
52 0.175958 -0.182879 -0.087943 -0.255406 0.296736 -0.145120 -0.135678 0.059964 11.623469 -0.086915 -0.048171 0.033883 0.120789 0.162588 -0.225039 0.044153 -0.115004 0.118075 -0.202482 -0.056650 0.146629 -0.188041 -0.079757 0.166919 -0.164952 0.123075 0.000759 0.008776 0.076056 3.511749 -0.077543 0.055624 0.074178 -0.072434 0.026705 6.082875 -0.195754 -0.046685 0.017222 -0.203056 -0.005023 0.015287 -0.180113 0.014281 0.045631 0.161162 -0.151337 -0.020083 -0.011633 0.069419 -0.022344 -0.026203 0.027535 0.034719 0.163383 -0.009151 -0.193996 -0.032705 0.115491 0.046128 0.003673 -0.243107 -0.652041 -0.037475 0.076454 -0.170061 0.079687 -0.024183 0.126731 -0.149996 0.010126 0.050483 -0.027599 -0.089904 0.116163 0.244170 0.076527 -0.010967 -0.079345 0.056924 0.160952 -0.009546 0.076663 0.145240 0.119823 0.012853 0.030983 -0.001588 -0.075771 -0.318351 -0.231107 0.123714 -0.072098 -0.060474 0.034277 0.071609 -0.026654 0.125617 -0.076819 -0.057024
390 0.033043 0.271836 -0.126100 0.326571 0.257899 -0.044174 -0.004013 0.024898 -0.435394 -0.025815 -0.012360 -0.173239 0.014411 0.038098 -0.104583 -0.267208 0.355871 0.145511 -0.039542 -0.010195 -0.160683 -0.045557 0.042710 0.098860 -0.043478 -0.058929 -0.028739 -0.166012 -0.008006 -0.224441 0.026246 0.084709 0.031199 -0.100558 0.076876 0.107111 -0.038256 0.137815 -0.028529 -0.179883 0.055876 -0.039005 -0.051890 -0.018940 0.210241 0.108770 0.078409 -0.013263 0.070504 0.026917 0.055170 0.048341 0.083972 -0.207343 -0.208151 0.096831 0.011599 0.001886 0.089662 -0.003962 -0.020207 0.126649 0.590450 -0.297427 -0.055690 -0.036735 -0.120590 0.106820 0.009616 0.010708 -0.103210 0.021219 -0.015743 0.014556 -0.005510 -0.252323 -0.105995 0.176018 0.037655 -0.053709 -0.087091 -0.022114 -0.175418 -0.160173 -0.100919 0.045455 0.049355 -0.063118 -0.019594 -0.037096 -0.185304 0.081319 0.000558 -0.072446 0.080559 0.121547 -0.064810 -0.035529 0.150554 0.106044
47 0.001772 -0.157899 0.067417 -0.099790 0.297235 0.170191 -0.120178 -0.014961 11.643951 0.240030 -0.187559 -0.032603 0.109423 -0.068481 -0.087627 -0.193574 -0.119962 -0.002890 -0.338141 -0.123280 0.025830 -0.308615 -0.077701 -0.127281 -0.104627 0.228856 -0.137628 0.339527 0.111946 3.428015 -0.260353 0.135032 0.077509 0.154772 0.213828 6.041941 -0.347616 -0.351966 0.037274 -0.050746 0.005330 -0.072641 0.097733 0.113281 0.045199 -0.075644 0.121196 -0.086043 -0.058514 0.070182 -0.065553 0.012778 -0.114887 0.165776 0.066313 -0.268011 0.071310 0.050892 0.279778 0.259134 0.188347 -0.091737 -0.642613 -0.028890 0.091633 -0.114164 0.038685 0.129559 -0.014520 0.201060 0.065917 -0.035972 0.302901 -0.131965 -0.256504 0.197168 0.046149 0.023337 0.037371 0.300979 0.092440 -0.090832 -0.193305 -0.108725 -0.225611 0.182220 -0.034100 0.066951 -0.080442 0.091006 -0.217224 0.091850 -0.142496 0.033578 0.028010 0.093681 -0.038551 -0.252106 0.186367 -0.179473
60 -0.123140 -0.161461 0.047723 0.077017 0.303855 -0.041885 -0.118805 0.117785 11.649285 -0.037926 0.087554 0.173369 -0.209945 -0.021693 0.024114 -0.170871 -0.137667 0.109348 0.004700 0.237852 -0.102765 -0.191062 -0.117154 0.000100 0.120130 0.037744 -0.002498 0.213003 0.389401 3.346501 0.193115 0.144615 0.081850 0.122588 0.222615 6.102499 0.027725 -0.367046 0.023244 -0.002037 0.180176 -0.050591 -0.054052 0.164035 -0.003703 -0.296407 0.080863 0.012776 0.456028 0.076351 0.017587 -0.227601 0.041388 0.270578 -0.111886 0.018251 -0.246160 0.034172 0.372368 -0.345863 0.190923 -0.250958 -0.640413 0.013713 0.030418 -0.066548 -0.106656 0.153390 0.149486 0.075407 -0.001405 0.241118 -0.378923 0.193727 0.103448 -0.119283 -0.114065 -0.386307 0.057057 -0.055830 0.068582 -0.177944 -0.029047 -0.387613 0.150324 0.198741 0.048696 -0.079013 -0.076171 0.072628 -0.239376 0.055112 -0.060543 0.075435 0.023417 -0.151417 -0.032365 0.152718 0.058111 0.114023
414 -0.114129 0.249023 -0.127659 0.104204 0.286671 -0.053147 -0.065890 0.022421 -0.411495 -0.014038 -0.115797 0.097350 -0.040985 0.027335 -0.071271 -0.019466 0.146013 -0.138112 0.026777 0.159614 -0.127128 0.039687 0.075945 -0.090298 0.059085 0.204957 0.113610 -0.101385 0.192856 -0.217836 0.019569 -0.087125 0.026876 -0.008197 -0.016194 0.006970 0.297701 -0.064198 -0.017844 0.114650 -0.040013 -0.034942 -0.054877 -0.361755 0.072304 0.255389 -0.038385 -0.016925 0.095241 0.028478 0.004187 -0.057928 0.019965 0.055081 -0.034815 0.052648 0.024122 0.041990 -0.058111 0.072851 0.207687 0.206108 0.561570 0.078301 0.206528 0.083263 0.117998 0.069867 -0.066063 0.032284 -0.031144 -0.169145 -0.143893 -0.081750 0.099827 -0.035497 -0.128803 -0.090368 -0.095095 0.057797 0.074545 -0.119763 0.117762 0.203587 -0.162558 0.063634 0.068027 -0.046562 -0.039677 0.185912 -0.159285 -0.291738 0.017153 0.157282 0.064780 0.333877 -0.060366 -0.004062 -0.022319 -0.037170
54 -0.464478 -0.230028 -0.326214 -0.471454 0.286142 0.106406 -0.336507 0.037333 11.114948 0.017168 -0.164446 -0.245765 0.226825 -0.455616 0.040665 0.769520 0.030250 -0.051508 -0.016095 0.163751 0.496980 0.176995 0.075843 0.093623 0.235533 -0.070162 -0.191223 0.309611 -0.177738 3.135134 -0.228972 -0.093530 0.078618 -0.028983 -0.021538 5.676718 0.284363 0.210178 0.028591 -0.111692 0.172460 0.140617 0.094612 -0.240662 -0.093409 0.002817 0.195220 -0.014403 -0.136024 0.077747 -0.016168 0.218589 0.060502 -0.270949 -0.280119 0.150744 0.068060 -0.289598 0.286594 -0.041441 -0.111557 -0.169975 -0.613103 0.083102 -0.199298 -0.442466 -0.207894 0.136311 -0.241947 -0.089027 -0.300574 -0.025080 0.188517 0.094129 -0.180687 0.077982 -0.043906 -0.164078 0.124030 -0.051179 0.131539 0.207588 0.060145 -0.004654 -0.054844 -0.021785 0.131443 -0.077837 -0.095966 0.033094 -0.313573 0.033784 -0.001377 -0.111509 0.024936 0.431272 -0.035954 -0.078617 -0.005717 -0.044307
108 0.025072 -0.158948 -0.109250 0.035999 0.297510 0.040708 -0.038072 0.076033 11.180562 0.080356 0.161877 0.114483 -0.121668 0.068518 0.051244 0.095001 0.263437 0.387855 -0.077182 0.193603 0.281286 0.046499 0.171595 -0.061919 -0.053824 0.026778 -0.052362 -0.046260 0.068206 3.859587 0.189866 -0.143299 0.075077 -0.127649 -0.105375 5.782417 0.023647 -0.156124 0.022520 0.189310 -0.097619 -0.146869 0.093092 -0.136543 0.181010 -0.153187 0.154731 -0.061757 -0.016144 0.079488 -0.053045 0.351540 -0.099762 0.025653 0.464817 0.116156 0.301353 0.043937 -0.039237 -0.113613 0.044125 -0.394732 -0.652075 0.087230 0.016730 -0.378088 0.069238 -0.076693 -0.058808 0.019876 -0.144323 0.166332 -0.072112 0.177000 -0.062217 -0.087112 0.097442 -0.163006 0.086457 0.075436 -0.055961 -0.128294 -0.026329 -0.217939 0.075687 -0.119682 -0.005354 -0.029323 -0.069241 0.252470 -0.250977 -0.014014 -0.112625 0.229795 0.022207 -0.191219 -0.032399 -0.068784 0.000545 -0.013693
4 0.039921 -0.163946 -0.083779 0.058186 0.294969 -0.174066 -0.007950 0.255408 11.703382 -0.239950 -0.087557 -0.023364 -0.250714 -0.477189 0.208595 0.338497 -0.015943 -0.263311 -0.071786 0.335466 -0.368946 0.322281 -0.124208 0.043578 -0.220516 0.101155 -0.398745 0.076976 -0.002754 2.919532 0.141465 0.281768 0.074539 0.237133 -0.008966 6.111800 -0.190752 -0.017539 0.004460 -0.385657 0.013004 -0.124435 -0.167790 0.040331 -0.062148 -0.178564 0.369489 -0.083827 -0.077865 0.072863 -0.255939 0.110290 0.091866 -0.008372 0.253779 -0.004157 0.138807 0.176384 -0.149161 0.308975 0.244287 0.282496 -0.656680 0.207924 -0.070401 0.214448 0.034426 -0.171570 0.301720 0.014089 -0.076708 0.078356 0.171610 0.178613 -0.300364 -0.166408 -0.183302 0.000899 0.361452 -0.030340 0.293381 0.041596 0.122973 -0.182834 -0.008061 -0.493824 -0.023402 -0.039049 -0.064779 -0.126435 -0.248990 0.087262 -0.129502 -0.203413 0.025719 0.154462 -0.033547 -0.100102 -0.084366 -0.095717
460 0.129912 0.268378 0.189485 0.232302 0.271163 -0.022886 0.105217 0.106441 -0.498466 -0.008829 0.409792 -0.142224 0.113099 0.102991 -0.075375 -0.108705 -0.139164 -0.264632 -0.078821 0.155028 -0.002332 0.262700 0.128885 0.078763 -0.166120 -0.170804 -0.010683 -0.044503 0.112237 -0.224868 -0.083052 -0.002845 0.030325 -0.066972 0.100916 0.229674 0.220714 0.054204 0.014062 0.237442 -0.213816 -0.089355 0.191630 0.022962 -0.067654 0.142183 0.114836 -0.029434 -0.118437 0.017974 -0.001558 -0.087294 0.118800 -0.154433 -0.127830 -0.040550 -0.012493 0.118783 -0.018283 -0.038508 -0.059596 -0.010734 0.560945 -0.041529 -0.064208 -0.013907 0.209254 0.061412 0.237165 0.031861 0.014171 0.034311 0.104932 0.064037 -0.116636 0.042818 -0.039312 0.014567 -0.199560 0.113093 -0.158155 -0.336354 -0.144253 0.002092 -0.064641 0.085012 0.047170 -0.054341 -0.018535 -0.001992 -0.119069 0.091637 0.010196 -0.123751 0.065519 0.099035 -0.061956 -0.194735 0.111476 -0.204889
368 -0.031057 0.275263 0.325582 0.247988 0.295967 -0.047506 0.101337 0.047336 -0.463021 0.046793 -0.200421 0.098736 0.095547 -0.031960 -0.212776 -0.040859 0.162632 -0.138131 0.040583 0.011313 0.239205 -0.113546 -0.031727 -0.010191 0.147056 -0.035253 -0.012649 -0.204824 -0.295002 -0.223992 0.109415 -0.185393 0.028820 -0.027344 -0.068066 0.114189 -0.060584 -0.123063 -0.014582 -0.064720 -0.092703 -0.179836 -0.048341 0.112913 0.170335 0.075649 0.120495 0.009454 0.134239 0.020704 -0.184087 -0.112644 0.096862 -0.124943 -0.123822 0.102467 -0.180034 0.099380 0.010246 0.109864 -0.045241 0.176444 0.554583 -0.196491 0.184368 -0.062812 0.000254 -0.060924 -0.075691 0.178201 -0.108405 -0.011449 0.300033 0.083556 -0.153628 -0.011557 -0.060484 -0.077840 -0.002411 -0.056532 -0.166699 -0.097820 0.064160 0.210578 0.001336 0.145269 0.084475 0.020424 -0.027012 -0.088676 -0.157167 -0.137950 0.038988 0.071503 0.071008 -0.088070 -0.055920 0.105193 -0.030918 0.443233
445 -0.117419 0.239714 0.040380 0.111567 0.306459 -0.047378 -0.058489 -0.014453 -0.509071 -0.048418 -0.051155 -0.331487 -0.086716 0.055403 0.102511 -0.030403 0.184351 -0.107001 -0.194895 -0.014850 -0.111079 -0.076523 -0.212048 0.255609 0.034968 -0.040583 -0.049248 -0.284419 -0.105210 -0.215284 0.061635 -0.206711 0.026568 -0.013028 0.194479 0.196798 0.157341 0.155159 0.020373 0.138956 0.023204 -0.055065 0.113344 0.264890 0.028237 0.272630 0.097080 0.187094 0.102576 0.021644 0.010897 -0.056552 -0.077014 -0.090013 -0.028233 -0.077017 0.100794 -0.004277 0.002068 -0.252786 0.047135 0.019786 0.575970 0.080088 0.055077 0.066652 -0.037526 0.112441 -0.102920 -0.107045 -0.040496 0.141461 0.069775 0.060190 0.043352 -0.218899 0.039125 0.263688 -0.150944 -0.131711 0.014148 -0.183557 -0.076032 0.055966 0.024115 -0.086932 -0.027453 -0.041466 -0.034251 0.037954 -0.123120 -0.115609 -0.066049 0.014184 0.074241 0.071791 -0.057510 -0.093679 0.042280 0.012128
18 0.201107 -0.138753 0.006450 -0.159846 0.300644 0.010362 0.214346 -0.214307 11.367305 -0.119241 0.131403 -0.058510 -0.329154 -0.017861 0.121608 0.180112 0.199349 0.091291 0.030812 0.140374 -0.219443 0.379218 0.110602 0.213543 0.400459 0.086822 -0.152968 -0.085477 -0.098869 4.134579 -0.197196 0.349021 0.072051 0.221916 0.323833 5.966015 0.129192 0.063683 0.013842 -0.229614 -0.293578 -0.025899 -0.038997 0.122389 -0.327689 -0.091414 -0.130340 0.178854 -0.057222 0.069891 0.016307 -0.048364 -0.049170 0.617009 -0.097828 0.114790 -0.037618 -0.056915 -0.356581 -0.156141 -0.100103 0.061919 -0.679445 -0.045869 0.183256 -0.223671 -0.133487 -0.006803 -0.007502 0.038175 -0.028658 -0.102013 -0.178838 0.078512 -0.096812 0.173029 0.459085 0.261595 -0.032871 -0.086646 -0.221376 0.226617 0.161488 0.506349 0.018003 0.201070 0.011815 0.230687 -0.084141 -0.115346 -0.270035 0.265491 -0.087932 0.026905 0.027523 -0.373999 -0.024570 -0.166507 0.297579 0.107158
400 -0.025131 0.266246 -0.083630 0.265571 0.221043 -0.017177 0.095199 0.062778 -0.177589 -0.220231 -0.090837 0.025688 -0.211242 -0.016408 -0.165897 0.162398 0.054487 -0.111496 0.012670 0.003840 0.087428 -0.094579 -0.292820 0.066808 -0.045589 0.064366 0.113016 -0.225410 0.027230 -0.229727 0.021005 -0.346121 0.028146 -0.044025 -0.033267 -0.361369 0.232569 -0.271641 0.015700 0.027153 -0.028465 0.226084 -0.016835 0.009656 -0.045013 0.202698 0.257398 -0.228225 0.210538 0.013036 -0.001547 0.101462 -0.034066 -0.274024 -0.165472 0.023942 -0.049159 -0.017006 0.005541 -0.036229 -0.086009 0.129043 0.623526 0.243166 0.127537 0.171035 0.085796 0.231964 -0.113680 -0.122115 -0.064700 0.086056 0.097542 -0.168854 0.162412 0.211012 -0.003874 -0.105794 -0.034514 0.041847 0.033558 -0.084562 -0.020227 -0.129247 -0.103360 -0.004665 0.030720 0.093539 -0.021978 0.079236 -0.138379 0.160389 -0.005361 -0.028533 0.068808 -0.351771 -0.059887 -0.038409 0.062908 -0.066654
66 -0.284690 -0.095986 -0.038957 -0.343681 0.281562 -0.107828 0.188638 0.164534 11.380785 0.107951 0.112661 0.159275 0.080980 -0.078018 -0.274877 -0.149748 -0.242167 0.227440 -0.058034 0.010215 -0.134099 0.004648 0.226012 0.535145 0.157696 0.152691 0.070562 -0.123112 0.187269 3.815008 -0.049287 -0.133595 0.078297 -0.001122 0.087923 5.948253 -0.207932 0.200349 0.017297 -0.031931 0.004455 0.179282 -0.192129 -0.207002 -0.022722 -0.090854 -0.193951 -0.179508 0.122094 0.065959 -0.026003 -0.248771 -0.023249 0.079051 0.091198 -0.024142 -0.007982 0.202434 -0.108854 -0.058041 0.197123 -0.214036 -0.670580 -0.110062 -0.356849 0.079220 0.027764 -0.114178 -0.157843 0.252233 -0.086884 0.490276 0.240480 0.327661 0.067745 0.173937 -0.331947 0.203708 0.004741 -0.159894 0.407893 -0.134908 -0.051556 0.093427 -0.117075 -0.140299 0.027191 0.014459 -0.071592 0.141927 -0.253400 0.007715 -0.076491 0.100482 0.037277 -0.387689 -0.034582 -0.325803 -0.014977 -0.088370
440 -0.035786 0.296016 0.165560 0.241775 0.290706 -0.003175 -0.109571 0.020593 -0.570191 -0.064292 -0.124162 -0.024457 -0.022493 -0.032107 -0.037408 0.060815 -0.184576 -0.303105 -0.043659 -0.085762 -0.121607 0.043936 -0.008358 0.010747 -0.037358 0.023143 0.096226 -0.132197 0.007124 -0.235694 -0.039740 0.094026 0.028642 -0.080562 0.013790 0.329421 0.190220 -0.004877 0.001207 0.022232 -0.060653 -0.161473 0.274392 0.044973 0.074496 0.274642 0.158332 -0.146482 -0.095628 0.017350 -0.103170 0.049414 -0.060293 0.026672 -0.000151 0.032167 0.050278 0.121563 0.031390 -0.185583 0.038073 0.013616 0.578329 -0.142706 -0.055361 -0.028053 -0.007435 -0.027511 -0.033075 0.117624 0.087262 -0.013273 0.048049 0.037146 0.178348 0.045798 -0.023932 0.031382 -0.160400 0.066211 -0.057526 -0.259722 -0.121918 0.119870 0.141759 0.155686 0.070483 -0.058983 -0.018444 0.015649 -0.176930 -0.093721 0.029496 0.012720 0.083490 0.220121 -0.069523 -0.256103 -0.070536 0.175789
90 0.438533 -0.235204 -0.086674 0.027240 0.307728 -0.000337 0.139156 -0.124351 11.575265 -0.071014 -0.003887 0.030332 0.062103 0.160537 0.019151 0.170342 -0.304435 -0.058062 -0.036414 -0.097732 -0.010656 -0.256161 0.203570 0.496123 0.063833 -0.073484 -0.199855 -0.045910 -0.053288 3.015815 -0.168893 -0.024840 0.083086 -0.042090 -0.050935 6.044468 -0.134624 0.123379 -0.008968 0.187556 0.379017 -0.232246 0.175697 0.000776 -0.387768 0.234089 0.188271 0.025114 0.193157 0.065300 0.088665 -0.055293 -0.040794 0.231229 0.318292 -0.199293 0.088484 -0.203535 -0.041448 -0.079068 0.159264 -0.085475 -0.633260 -0.058039 0.116779 -0.024376 0.155126 -0.033254 -0.026337 0.025051 -0.302713 -0.179967 0.013611 -0.236391 0.221907 -0.140045 -0.027839 -0.500001 0.150492 0.084854 0.095436 -0.008544 0.015689 0.002890 -0.168076 0.013259 0.007028 -0.381002 -0.092713 -0.008498 -0.136302 0.061654 -0.116632 -0.040912 0.022541 -0.025611 -0.021828 0.247939 -0.193417 0.177286
449 0.067180 0.262181 0.055626 0.083479 0.278454 -0.035306 -0.021075 0.103743 -0.499719 -0.086584 0.010149 -0.104391 0.138031 0.128246 0.126821 -0.071074 0.310852 -0.219929 0.129904 0.063229 -0.050208 0.126206 0.077194 -0.028618 0.043320 0.078109 -0.016049 -0.155629 -0.037755 -0.224340 -0.120663 0.110617 0.030170 0.039802 0.004923 0.194359 0.126705 -0.030179 0.037123 -0.021292 -0.032423 -0.019499 0.078311 0.013880 0.000739 0.370204 -0.269107 0.039185 0.097411 0.012941 0.045053 -0.156654 0.130101 -0.139104 -0.014178 0.055116 -0.093654 0.145947 -0.060504 -0.110217 0.059534 0.067568 0.617576 -0.110357 -0.213963 -0.147206 0.233290 0.162119 0.037735 0.113204 0.077791 0.003548 -0.140176 -0.144076 -0.018646 -0.133084 -0.190913 -0.057149 -0.147318 0.296547 0.050948 -0.106865 0.119458 0.023623 0.024791 -0.005973 -0.022625 -0.221598 -0.031138 0.057222 -0.136888 -0.040113 -0.057731 0.188547 0.070841 0.120651 -0.054219 -0.061741 0.023701 -0.134574
57 0.065576 -0.138863 -0.272145 -0.079640 0.289748 0.151705 0.011358 -0.078300 11.431451 -0.067405 0.212722 0.276245 -0.037402 -0.087983 0.106939 0.090924 0.066368 0.324443 -0.116648 -0.323678 -0.170577 -0.044739 0.054367 -0.098284 -0.274623 0.224290 -0.116919 0.110860 -0.043867 3.411490 -0.412220 0.251775 0.063644 0.068816 -0.275920 5.989035 0.153163 0.185776 0.005845 0.170522 -0.131044 -0.255538 0.097493 -0.043931 0.227107 0.351220 0.139095 -0.059497 -0.034867 0.069243 -0.094771 -0.470181 0.130982 0.172003 0.158146 -0.039496 0.055346 0.061934 0.153592 -0.105708 0.232048 -0.320453 -0.666317 -0.215789 0.055679 0.191646 0.128871 0.163276 -0.030092 -0.082810 0.022631 -0.120997 0.378158 0.346776 -0.419828 -0.253334 0.242695 -0.187165 0.121005 -0.190065 -0.052573 0.222109 0.040641 0.069005 0.107207 -0.140806 0.120032 0.621010 -0.074529 -0.203504 -0.238073 0.024273 0.003300 -0.067949 0.022922 0.054270 -0.028943 -0.039549 -0.222157 0.200735
384 -0.005497 0.230882 0.219393 0.122120 0.296655 -0.075434 0.234259 -0.030722 -0.536315 -0.217681 0.052520 -0.156108 0.058164 0.151445 0.128596 0.075897 0.146204 0.136729 0.142567 -0.101823 -0.105617 -0.112793 0.012674 -0.050861 0.120451 0.285055 0.076958 -0.124278 0.059618 -0.221657 0.128400 0.025388 0.027514 0.032721 -0.046865 0.240378 -0.039377 0.097572 0.014408 0.014029 0.125184 -0.173328 0.230177 0.162184 -0.088533 0.011155 0.183474 -0.015544 0.087735 0.015790 0.029888 0.014296 -0.088383 -0.211516 -0.177593 -0.134631 -0.026684 -0.107069 0.082859 -0.133047 0.023442 0.063026 0.576086 -0.113770 -0.055450 0.072553 -0.244636 -0.094443 0.100403 0.049277 0.034485 0.235912 -0.038889 -0.010447 0.042432 -0.061208 0.087381 0.240843 -0.045387 0.121899 0.082381 -0.094461 0.052282 0.079576 -0.034083 -0.017292 0.003317 -0.065355 -0.027003 0.060619 -0.124866 -0.221999 -0.041398 0.034313 0.067376 0.037394 -0.058507 0.175277 -0.002859 0.144839
15 0.209336 -0.146350 -0.378383 0.029767 0.276064 -0.227584 -0.227716 0.431433 11.223195 0.225455 0.034152 -0.167765 0.179566 0.334070 -0.026898 -0.137080 -0.379200 -0.171319 0.308856 -0.144914 0.068925 0.171522 0.032881 -0.182063 -0.055028 0.133261 0.015892 0.079797 0.063954 4.386043 0.274081 0.031425 0.069386 0.263692 -0.162691 5.829195 -0.351319 -0.067670 0.002606 -0.280635 -0.307587 -0.169945 0.275501 -0.402441 -0.022035 -0.282438 0.125077 0.282626 0.164049 0.072786 -0.135915 -0.198094 0.118087 -0.378906 0.122924 -0.213291 -0.109000 -0.077653 0.328188 -0.282120 -0.105560 -0.237974 -0.661666 -0.127015 -0.141221 -0.129985 -0.205857 0.263999 -0.391637 -0.393375 0.001506 0.133917 0.247381 0.047566 0.123052 0.017793 -0.088887 -0.029610 -0.159807 -0.154569 -0.174397 -0.000872 0.129112 0.354589 -0.314223 -0.021762 0.089555 -0.000273 -0.067945 0.052645 -0.234296 0.033785 -0.027376 0.005391 0.027116 -0.133896 -0.037238 -0.013883 -0.039523 -0.046542
438 0.100868 0.230439 -0.120872 0.097597 0.286055 -0.016081 0.060932 -0.016206 -0.416883 0.056157 0.071267 -0.121497 -0.128169 0.030756 0.130935 0.018128 -0.135471 0.162841 0.104439 0.022654 -0.046530 -0.238006 -0.003293 -0.042487 0.039609 -0.060151 -0.023196 -0.201246 -0.075511 -0.232499 0.104151 -0.073243 0.032719 0.071092 -0.116320 0.012512 0.130125 0.100758 -0.005116 -0.163019 -0.164531 0.202167 0.079554 0.119837 -0.092966 0.014826 0.263475 -0.061983 0.027037 0.031283 0.044872 0.099783 0.103322 0.062545 -0.172758 0.018629 -0.062186 0.108725 0.115876 -0.171959 -0.017297 0.189987 0.553338 -0.134566 0.122993 -0.058212 -0.075758 0.125265 0.149907 0.048015 -0.011920 -0.056443 0.071623 0.007528 -0.050444 0.211952 -0.183241 0.091838 -0.161639 0.040818 0.056559 -0.196732 0.123025 -0.155004 -0.089985 0.060652 -0.065040 -0.084350 -0.025297 0.012219 -0.143428 -0.122648 -0.103822 0.006816 0.066486 0.132897 -0.059089 -0.115271 0.022389 0.115288
12 0.164807 -0.169136 -0.076471 -0.076125 0.298210 -0.025828 0.020437 0.001142 11.211976 -0.010307 -0.015147 -0.031855 -0.082468 -0.051664 -0.200331 -0.021238 -0.136455 0.125698 0.011931 0.130411 0.039859 0.006720 0.011740 0.070524 -0.045816 0.074922 0.037769 0.041776 0.141526 2.906170 0.022407 -0.030393 0.072461 -0.187375 0.168926 5.809146 0.060825 -0.060148 -0.014633 -0.100591 -0.006573 -0.053058 0.135846 -0.215732 0.258055 -0.146379 0.004629 -0.033457 -0.096990 0.086543 0.083391 0.051446 0.099015 0.183652 0.005484 0.152087 0.073685 -0.016938 -0.096659 0.081270 0.182711 -0.114315 -0.645416 -0.034706 -0.080872 0.072231 0.018127 -0.104429 0.022086 -0.261168 -0.059621 0.059486 -0.039522 0.049257 0.094116 0.205022 -0.017545 -0.004618 0.074658 0.112131 -0.036405 -0.019327 0.005179 0.114485 0.083201 -0.060102 0.103487 -0.043530 -0.072978 -0.235364 -0.186090 -0.009014 -0.006661 -0.129266 0.025452 0.001736 -0.017467 0.039127 -0.004135 -0.113580
442 -0.122782 0.216731 -0.064579 -0.123246 0.142712 -0.202418 -0.118988 -0.161215 -0.216588 -0.070937 -0.111194 0.174895 -0.191207 0.135921 -0.090219 -0.111719 -0.177173 0.270997 0.056515 -0.179603 0.065764 -0.090000 -0.178604 0.046226 -0.155994 -0.420803 0.041733 0.044489 0.168274 -0.239807 -0.191915 0.056738 0.011303 -0.040141 -0.175944 -0.310160 -0.061455 -0.015071 0.007918 -0.278009 0.030243 -0.040909 0.537922 0.011046 0.228275 0.032590 0.020963 -0.032234 0.149834 0.032597 0.053689 -0.088742 0.039574 -0.019259 -0.033841 0.033929 0.054569 0.082937 -0.136264 0.036891 0.128666 0.109919 0.500410 0.112077 0.066305 -0.031270 -0.024229 0.011744 -0.115257 0.036873 -0.266059 -0.095548 0.171783 -0.214938 -0.030861 -0.131328 0.003188 -0.154834 0.042075 0.061784 0.059399 0.070464 0.044303 -0.071983 0.240082 -0.062306 0.036465 -0.038302 -0.019144 0.152733 0.012166 0.135557 -0.003989 -0.381212 0.067655 0.269934 -0.054484 0.013942 0.151144 -0.050899
427 0.125311 0.279196 -0.069152 0.197924 0.278963 -0.042601 0.018720 -0.026817 -0.478672 0.103715 -0.044652 0.073652 0.074833 0.134142 -0.038725 -0.122980 -0.194102 -0.265716 -0.029128 -0.047871 0.162667 0.156479 0.166751 -0.086561 0.205969 -0.079606 -0.097788 -0.240659 -0.020502 -0.223383 -0.190199 -0.145601 0.024294 -0.080019 -0.039952 0.166861 0.092818 -0.155185 0.011741 -0.219497 0.015971 -0.023599 -0.090276 0.133616 -0.016240 -0.006759 -0.053298 0.063686 0.099848 0.022799 -0.094081 0.008209 -0.012731 0.028414 -0.193049 0.132423 0.136079 0.154834 -0.020232 -0.160306 0.085022 0.017806 0.533970 0.053250 0.099413 -0.001011 0.151825 -0.167314 0.247448 -0.143477 -0.012459 -0.033595 0.142081 0.080509 -0.043071 -0.227223 -0.029337 0.176334 -0.043592 -0.116786 -0.052396 -0.280989 0.111996 -0.277254 -0.011721 0.075990 0.046349 0.066678 -0.025863 -0.048108 -0.115651 -0.059812 0.010907 0.014109 0.073988 0.022525 -0.068792 -0.010128 -0.119164 0.075977
65 -0.048496 -0.224214 0.171944 -0.014491 0.309754 -0.028661 -0.056434 -0.204143 11.474822 0.018368 -0.021255 0.013258 0.224608 -0.231642 -0.073352 0.045240 -0.050298 0.020686 0.238116 -0.113116 0.161496 -0.195971 0.060970 0.050247 -0.081179 0.141354 0.085833 0.040883 0.092648 2.851324 -0.024971 0.123102 0.067668 -0.117500 -0.090891 6.006598 -0.244576 -0.039034 0.047770 0.159027 -0.198047 0.145203 -0.012054 0.154186 0.201999 -0.052271 0.029651 -0.008580 0.173697 0.074729 0.171727 0.214332 0.365334 0.258332 -0.044084 0.076793 0.033718 -0.173025 -0.116558 0.021009 0.081993 0.146500 -0.606714 -0.049704 0.030872 -0.041749 0.038576 -0.107454 -0.098255 0.103811 0.181704 -0.216706 0.176987 0.010018 0.210950 0.079160 -0.059329 0.199598 0.062415 -0.066671 -0.177802 0.070634 0.144863 0.014086 0.130646 -0.003137 0.051938 -0.089539 -0.081675 -0.089126 -0.166147 0.145505 -0.062036 -0.103316 0.016386 0.212351 -0.022266 0.101835 -0.144700 -0.225381
79 -0.203196 -0.138698 0.016147 0.001593 0.297863 -0.237716 -0.065641 -0.536010 11.167234 -0.063984 0.207555 0.258172 0.054573 -0.066544 -0.013412 0.081124 -0.011499 0.179336 0.007974 -0.020881 0.180119 0.165283 -0.246199 0.216838 -0.180008 0.007966 0.087693 -0.024197 0.043946 3.117904 0.016903 -0.011259 0.071049 0.192032 -0.171218 5.789931 0.255286 -0.042248 0.024609 -0.143425 0.071712 -0.015677 -0.054718 -0.024114 0.131739 -0.223722 -0.065609 -0.070642 -0.135401 0.069228 -0.073310 -0.162121 0.027106 0.266241 -0.142925 -0.074850 -0.175721 -0.110020 0.027244 0.156312 -0.093691 0.289946 -0.652890 -0.367663 -0.197920 -0.078230 0.047791 -0.325367 -0.044293 0.073215 -0.201997 0.079006 -0.168084 0.075045 0.213116 -0.084032 0.228010 0.204835 0.005878 0.439818 -0.002943 0.158005 -0.136474 -0.032519 -0.052135 0.083295 0.021788 -0.155983 -0.070362 0.063179 -0.201290 0.243628 -0.078609 -0.231386 0.015063 -0.064214 -0.032094 0.236870 -0.265222 -0.137699
420 -0.024185 0.247085 -0.224467 0.115863 0.236620 0.085128 0.108766 -0.017222 -0.266789 0.014672 0.126010 -0.100644 0.014476 0.180442 0.096968 0.041135 0.069817 -0.141656 -0.033671 0.142843 0.117043 -0.071976 -0.152965 -0.096643 -0.194393 -0.208622 -0.120947 -0.176030 0.039728 -0.224447 0.010846 -0.452963 0.026398 0.140729 0.043911 -0.257470 0.146586 -0.018857 0.003458 -0.021854 0.023874 0.009804 0.094121 -0.060496 -0.085977 0.139476 -0.000719 0.159297 0.189895 0.023593 0.070708 -0.263539 0.158097 0.025609 -0.241046 -0.068394 -0.186458 0.057103 -0.017719 0.018469 -0.033990 0.102595 0.583117 -0.036150 0.369043 0.032710 0.029081 -0.070859 0.078558 -0.089886 0.075753 0.064161 0.084538 -0.047476 -0.238710 0.174374 -0.083178 0.150333 -0.080539 0.028529 0.092109 0.012836 0.093135 -0.119812 0.150572 0.003472 0.000551 -0.044527 -0.034012 0.009968 -0.148119 -0.064555 -0.043834 0.200177 0.074058 -0.142008 -0.050746 0.033917 -0.092875 -0.095016
110 0.412639 -0.197343 -0.190186 -0.098586 0.329087 0.515676 -0.034199 -0.321391 11.295660 -0.251146 -0.201867 0.339287 0.091792 0.151149 0.074248 -0.004000 -0.125054 -0.043484 -0.054111 0.115336 -0.063117 0.033026 0.026077 0.009208 0.273480 0.123268 -0.107493 0.163177 -0.031915 3.514237 0.055411 -0.077414 0.072871 0.178299 -0.220672 5.897532 -0.259844 -0.002699 0.032752 -0.186414 -0.086667 -0.052006 0.042702 -0.253308 0.208135 -0.030187 -0.120301 -0.277028 0.116443 0.062540 0.088575 0.037077 0.156226 -0.012417 -0.011010 0.161634 -0.027355 -0.030617 -0.047451 -0.006953 0.004820 0.216025 -0.656195 -0.264854 -0.051025 0.219750 -0.086899 0.141250 0.139148 -0.261973 -0.143224 -0.102811 -0.308576 -0.223698 -0.135000 0.178371 -0.033668 0.139890 -0.260924 -0.219227 0.195165 -0.217200 -0.166209 -0.131570 0.067030 0.393576 0.023818 -0.059423 -0.064788 0.299639 -0.183953 0.057404 -0.084477 -0.204190 0.017627 -0.113077 -0.027594 -0.170553 -0.037343 -0.209042
377 0.009361 0.252372 0.197563 0.070459 0.303438 0.065346 -0.187441 0.268658 -0.597398 0.000437 0.054426 0.112012 -0.109904 0.075352 0.053175 -0.088890 -0.018952 0.040299 -0.111912 -0.009256 0.030892 -0.017581 0.044964 0.159382 -0.165566 0.060056 -0.019682 -0.251231 -0.007843 -0.228793 0.097052 0.057473 0.030614 0.177611 0.165081 0.403503 0.076533 -0.128777 -0.007757 0.127516 0.043593 0.113905 0.094193 0.009189 -0.104863 0.248957 0.084470 0.184341 0.011315 0.032468 0.014440 0.150619 0.009449 0.004990 0.054256 0.009200 0.031536 0.147619 0.022039 -0.117397 -0.071835 0.161016 0.538966 -0.011562 -0.211161 -0.058379 -0.193628 0.171423 -0.028008 -0.157336 -0.116931 -0.122746 -0.148221 -0.122100 0.302874 -0.293124 -0.062995 0.179831 0.119634 0.038273 -0.101867 0.002189 -0.091933 -0.048504 -0.156139 0.300015 -0.057299 0.129670 -0.014424 -0.005539 -0.074790 -0.123249 -0.100683 -0.258129 0.064976 0.143911 -0.062964 -0.174428 -0.057978 0.095887
450 -0.045359 0.246243 -0.165808 0.121828 0.245546 -0.018475 -0.034392 -0.084407 -0.439869 0.077856 -0.069383 -0.012811 -0.322927 0.131858 -0.091884 -0.009528 0.021627 -0.030276 0.190336 0.046976 -0.004887 0.103908 0.002430 -0.062847 -0.015598 -0.083054 0.061571 -0.269346 0.015645 -0.224822 0.013472 -0.207266 0.019236 -0.088991 0.014807 0.108256 0.094669 0.070684 0.026086 0.071452 -0.077973 -0.038722 -0.109476 -0.193127 0.041052 0.136037 -0.141034 -0.007057 0.122185 0.005702 -0.223948 -0.091410 -0.112016 0.023114 -0.027500 0.105089 0.065697 -0.003114 -0.027237 -0.129853 -0.033760 0.129193 0.563643 -0.197308 0.190101 0.001914 -0.019489 0.287472 0.123570 0.039181 0.032269 -0.024203 -0.035463 -0.087429 -0.036602 -0.116646 -0.029479 -0.136189 0.101420 -0.010927 0.064161 -0.133652 -0.061841 -0.057571 -0.047370 -0.042344 0.010274 0.037615 -0.013743 0.087190 -0.090181 -0.024719 -0.022669 -0.044325 0.076146 0.316491 -0.059231 -0.022449 0.040381 -0.056024
2 0.013514 -0.183966 -0.042061 -0.092591 0.317794 -0.026638 -0.098043 0.012698 11.075920 0.204387 0.047582 0.012712 0.198847 0.053699 -0.072830 0.104512 0.011748 0.071553 -0.017269 -0.032375 -0.123763 0.145269 -0.220466 -0.101627 -0.063644 -0.013796 0.016865 -0.096854 -0.143169 3.029173 -0.111561 0.249643 0.060165 0.099594 -0.071636 5.782469 -0.220572 0.071860 0.003064 -0.100046 -0.021922 0.141788 0.079765 0.236493 0.148164 -0.033339 -0.004814 -0.080397 0.133280 0.052671 -0.031511 -0.055281 -0.009078 -0.029029 -0.073901 0.030311 -0.108379 0.088872 0.021306 0.056739 0.052333 -0.009317 -0.658788 0.167572 0.051637 0.088545 -0.103933 0.007106 -0.050178 0.117491 -0.127804 0.183292 0.117642 0.166737 -0.020835 0.186441 0.032844 0.083733 0.285530 0.121490 0.230612 -0.204271 -0.022719 0.144550 0.052987 -0.120356 0.025676 -0.171046 -0.071271 0.150632 -0.157326 0.160680 -0.070598 0.016374 0.019481 0.054568 -0.041466 -0.198063 -0.144482 -0.058783
94 0.190785 -0.181625 0.007654 0.291128 0.290194 0.291017 -0.004637 -0.090139 11.258908 0.176144 -0.146432 0.001297 0.134603 -0.591506 -0.108246 -0.016552 0.318946 -0.214599 0.132990 -0.351022 -0.199349 0.143924 0.017741 -0.110113 -0.278898 0.087145 0.094790 0.019122 0.268034 3.438551 0.166535 -0.001013 0.065013 -0.144167 0.005964 5.868945 0.218337 0.149655 0.002739 0.011861 -0.023775 -0.061239 -0.034731 0.120600 -0.329560 -0.241293 -0.110064 -0.243817 -0.151226 0.069482 0.298981 0.273816 0.341661 0.093362 -0.128461 -0.104271 -0.036919 0.014867 -0.115799 -0.124787 0.136947 0.088509 -0.613210 -0.246025 0.284745 -0.236190 -0.169544 -0.000556 -0.393199 -0.159973 0.217831 -0.132416 0.054205 0.238912 0.262922 -0.229645 -0.209571 -0.071534 0.400767 -0.093680 0.093867 -0.046696 0.453688 -0.269519 -0.081434 0.042339 0.087234 -0.145426 -0.079088 -0.115612 -0.169637 0.058131 -0.015242 -0.160874 0.022641 -0.214635 -0.030172 0.046671 -0.141272 -0.083587
478 -0.127335 0.206514 -0.239041 0.148324 0.279669 0.089959 -0.009809 -0.374963 -0.480731 0.082553 -0.224650 -0.389981 -0.129874 0.095900 0.098171 0.096957 -0.035242 0.054320 -0.102199 0.040615 -0.154274 -0.215436 0.082711 -0.025494 0.013804 -0.201421 -0.113018 -0.390295 0.071266 -0.231759 0.196167 0.114098 0.037401 0.042450 -0.104623 0.167026 0.027453 0.135561 0.008892 0.134266 -0.107139 -0.104294 0.075423 -0.091456 -0.169690 0.071843 -0.185844 0.133381 -0.008806 0.026069 0.116792 -0.157350 -0.066483 -0.157217 -0.116880 0.189704 -0.020027 0.054667 0.050502 0.156289 0.084074 0.009948 0.563190 -0.133822 0.014560 0.114975 0.070345 0.127222 -0.094831 0.072411 0.165115 0.081584 -0.064724 -0.038828 0.010119 -0.359724 0.120871 -0.061153 -0.036204 -0.022756 0.026576 0.010141 -0.194940 -0.103365 0.020767 -0.040898 0.042728 -0.057799 -0.031637 -0.025732 -0.075370 -0.007381 0.011506 -0.058387 0.065099 0.006588 -0.061461 0.050517 0.143856 -0.268849
44 0.273823 -0.166924 0.059871 -0.246358 0.300870 -0.042674 -0.127116 -0.043808 11.307123 0.211240 -0.126319 0.056067 0.086733 0.095950 -0.021698 -0.010902 0.182470 0.077059 -0.138374 0.291477 0.046464 -0.036177 -0.160906 -0.188852 0.118853 0.004891 0.035285 -0.193711 0.012881 3.127749 0.242452 0.596994 0.078456 -0.310316 -0.018001 5.856806 0.100152 -0.010435 0.014353 0.228442 -0.032089 0.031620 -0.168851 0.056458 -0.093721 -0.209425 0.088948 0.072346 -0.030543 0.077404 -0.215521 0.057714 -0.056779 0.251248 -0.101263 0.008263 0.028537 -0.026546 -0.164937 -0.117862 -0.047382 -0.137594 -0.640250 0.111115 0.394098 0.158294 -0.026670 0.050814 -0.125310 -0.094674 0.008979 0.129093 0.169996 -0.212022 0.066452 0.201986 -0.051912 -0.098055 -0.214648 0.312177 -0.006153 -0.092524 0.136325 -0.156669 0.027192 0.036869 0.126517 -0.006216 -0.055641 -0.274871 -0.195540 0.147587 0.009959 -0.139603 0.034402 -0.178401 -0.030476 0.034428 -0.095874 -0.016426
370 -0.033967 0.247310 0.245501 0.259407 0.179453 -0.001482 0.119529 -0.044598 -0.364951 -0.004819 -0.006107 0.219021 0.171720 -0.122406 0.078710 -0.059502 0.019130 -0.097782 0.055753 -0.036673 0.003202 0.018048 0.091466 0.109814 0.214701 0.056181 -0.045358 -0.101244 0.001517 -0.242446 -0.055624 0.263184 0.017069 -0.066551 -0.002263 0.025077 -0.007364 -0.093951 0.039498 -0.012004 -0.111836 -0.124399 -0.036600 -0.082733 0.000546 -0.058149 0.005063 -0.045183 0.095325 0.012282 0.136040 0.022500 0.131510 -0.163120 -0.229548 -0.029917 0.152274 0.097929 0.032088 0.004698 0.140296 0.090866 0.581494 -0.148056 -0.238012 -0.005863 0.126879 -0.031772 -0.067282 -0.177035 -0.067185 -0.021375 -0.170437 -0.286310 -0.142530 0.030568 0.091339 -0.187322 -0.132294 0.001117 0.181131 -0.234760 0.039554 0.258468 -0.038908 -0.140344 0.032283 -0.208348 -0.027572 -0.091781 -0.060816 0.218887 0.006119 0.230395 0.064335 0.039156 -0.053836 0.093807 0.122190 0.004637
49 -0.148759 -0.161711 0.181472 0.016074 0.284400 0.210311 0.262893 -0.130276 11.154090 -0.005201 -0.143055 -0.033326 -0.374743 -0.061297 0.166390 0.016140 -0.296819 -0.133052 -0.102851 -0.335392 0.023312 0.015011 -0.159234 0.004683 -0.023137 0.231554 0.173446 -0.037816 0.030991 3.718699 -0.272263 0.173131 0.074593 -0.149060 0.074244 5.819969 -0.129974 0.064116 0.055702 0.173114 -0.061374 0.115325 -0.304521 -0.177082 0.077629 -0.042072 -0.040322 -0.055913 0.134276 0.059422 0.222707 -0.298047 -0.159075 -0.078708 0.124563 0.129489 0.253887 0.001046 0.329055 -0.108278 -0.165430 -0.083301 -0.633448 0.275345 -0.039118 -0.040910 -0.188445 -0.326841 0.096136 0.122737 -0.179498 -0.113324 -0.241670 0.100934 -0.233975 -0.009689 -0.158748 0.155255 -0.060078 0.228081 -0.074505 0.104406 0.412638 -0.135256 -0.120985 0.009558 -0.021560 0.293259 -0.082091 -0.107795 -0.224919 0.130060 -0.116625 0.131787 0.034902 -0.061952 -0.027829 -0.278917 -0.078438 -0.099303
410 -0.079897 0.245587 -0.145980 0.125573 0.236026 0.031745 0.185294 -0.081755 -0.171409 -0.029742 -0.112061 -0.034531 0.005025 0.013520 -0.104501 0.037298 0.041365 -0.235724 -0.086341 0.006987 0.043925 -0.012281 -0.318498 -0.097121 0.066925 -0.192066 -0.064734 -0.222309 0.113285 -0.221858 -0.044804 -0.316123 0.013921 0.066145 -0.087817 -0.390714 0.001828 -0.035199 -0.011314 -0.079127 0.119127 -0.045932 -0.162996 -0.116213 0.066003 0.078827 0.062374 0.081631 0.052738 0.028664 0.005507 0.052307 0.059400 0.178193 -0.214793 -0.094996 0.100919 0.005892 -0.008883 -0.124515 -0.097024 -0.014954 0.599538 -0.080227 0.246966 -0.018528 0.167595 0.086828 0.100678 0.074389 0.086877 0.155800 0.068666 0.039734 -0.059699 0.146072 0.035058 0.050603 -0.010434 -0.066759 0.134553 -0.066539 0.099562 0.151810 0.174350 -0.140773 0.040318 0.097588 -0.029380 0.126818 -0.117830 0.100079 -0.003352 0.090384 0.052408 -0.015027 -0.059237 0.002704 -0.090164 0.000982
194 0.093398 -0.208666 0.260157 0.011113 0.300177 -0.368141 -0.060954 -0.613980 11.165824 -0.139792 -0.048939 -0.100834 -0.048661 -0.134521 -0.337364 -0.034651 0.114750 -0.306913 0.224721 0.491265 -0.245436 -0.035965 0.106047 -0.182535 -0.156522 -0.386482 -0.175821 -0.082513 0.100465 3.493181 -0.137180 0.134042 0.066218 0.147076 0.073638 5.856603 0.030224 -0.130863 0.017101 -0.022258 0.162473 -0.236804 -0.149992 -0.010846 -0.244391 -0.139852 -0.215378 0.109480 -0.085622 0.067964 -0.062438 0.303516 0.088467 0.132164 0.145295 -0.202458 -0.137713 -0.264939 0.137868 -0.654230 0.113503 0.009739 -0.634408 0.131567 -0.294081 -0.153878 -0.540070 -0.115724 0.085048 0.026120 -0.097084 -0.275013 0.080551 0.189247 0.014062 0.205975 0.195443 0.102205 -0.094081 0.087566 0.003993 0.166913 -0.024399 -0.057448 -0.168002 -0.131056 0.033627 0.200813 -0.072608 -0.020288 -0.200712 -0.101574 -0.090985 0.074985 0.023193 -0.037858 -0.030436 0.029510 -0.026040 -0.001116
392 0.077840 0.251823 -0.230549 0.126104 0.274392 -0.136075 0.147178 0.133861 -0.448683 0.080160 0.015681 0.089053 -0.035878 0.057974 -0.074144 -0.011536 0.073826 -0.029587 0.072748 0.038111 0.018785 0.089510 0.090192 0.055928 0.066178 0.187951 0.041203 -0.102102 -0.061855 -0.215540 0.084025 -0.100757 0.022156 -0.081158 -0.027461 0.095312 0.015028 0.028362 -0.016087 -0.100113 0.081009 0.218799 -0.027048 -0.115694 -0.022513 0.281256 -0.060186 -0.091759 0.078547 0.031917 0.063373 -0.111638 0.012463 -0.073459 -0.150218 0.074154 -0.134005 0.035926 0.008782 -0.077319 -0.039307 0.121380 0.554452 -0.100754 0.180968 -0.054782 0.015213 0.100875 0.077045 0.044028 -0.038525 -0.125020 0.015868 -0.060762 -0.054188 -0.123136 -0.087886 0.022424 0.069048 0.048756 0.021373 -0.011933 -0.163504 -0.136715 -0.079651 -0.009927 0.037113 0.097036 -0.021467 -0.045031 -0.128927 -0.121450 -0.010665 0.004666 0.069966 0.130380 -0.067305 -0.093018 0.114818 0.147271
98 0.049680 -0.171374 -0.175191 -0.105170 0.286781 0.066258 0.117349 -0.056862 10.968421 -0.083435 -0.078972 0.155420 -0.149065 -0.154316 -0.038189 0.086538 -0.015353 0.274842 -0.040296 0.090093 0.143119 -0.058407 -0.277940 0.051254 -0.119921 0.109040 -0.024816 0.126618 0.299375 2.987027 0.054834 -0.135057 0.070924 -0.068460 -0.068498 5.677157 -0.008542 0.121721 0.011156 0.120931 0.077607 0.087901 0.125796 0.259536 0.148062 0.028630 -0.050430 0.026140 0.128563 0.071135 -0.129432 -0.070595 0.102808 0.360042 -0.190637 0.030245 -0.147488 -0.149027 0.089531 0.124260 -0.163624 0.137190 -0.625285 -0.020064 -0.317373 -0.086620 0.238831 -0.177439 0.131104 -0.152791 0.010847 -0.052255 0.128894 0.014421 0.076447 0.026942 -0.060587 0.093077 0.039916 0.096501 -0.263677 0.057752 0.166759 0.174016 0.012027 -0.108562 0.133362 0.036054 -0.064511 -0.005766 -0.183225 0.106347 0.023235 -0.218963 0.022135 0.054939 -0.016368 -0.042705 0.070970 -0.155142
100 -0.141748 -0.180568 0.115179 0.185621 0.321124 0.051934 0.022038 0.234315 11.118513 -0.010139 -0.135021 0.442655 -0.179799 0.062735 -0.407617 0.278756 0.251508 -0.114899 -0.272512 -0.221446 -0.049986 -0.045179 -0.032207 0.082487 0.007223 -0.192326 -0.024933 -0.160753 -0.284763 3.459722 0.066255 0.001771 0.060697 0.129422 -0.160998 5.796160 -0.230016 0.032832 0.018896 0.130543 -0.113071 0.000063 -0.091373 -0.094188 -0.134117 -0.020357 -0.114200 0.176465 -0.015312 0.070220 0.106580 -0.052079 -0.102952 0.340160 0.102555 -0.176643 0.072855 -0.033616 0.048528 0.441050 -0.046800 -0.107787 -0.628814 -0.052656 -0.124095 0.250600 -0.033162 0.309574 -0.251112 0.266339 0.143743 -0.083323 -0.170987 0.003457 -0.434883 0.140298 0.031260 -0.050963 -0.165681 0.198492 -0.366788 -0.327194 0.089725 -0.274347 -0.293221 -0.382346 0.068880 -0.117938 -0.060408 0.159315 -0.098975 -0.062248 -0.028282 -0.171888 0.026591 0.257990 -0.019499 -0.232605 0.164491 0.116262
28 -0.170476 -0.143403 0.329292 0.160329 0.295440 0.109503 -0.018469 0.074016 11.039453 0.156293 0.105072 0.108413 -0.021569 0.019943 -0.096375 0.031051 0.355573 0.197289 0.027624 -0.086478 0.066987 -0.217796 0.256560 0.155156 -0.234771 -0.155377 -0.134005 -0.036542 -0.213966 3.746992 0.169741 -0.173009 0.066001 -0.039649 0.038718 5.771956 -0.148098 0.060264 0.022908 0.068178 0.013018 -0.041397 0.036634 -0.052890 0.127574 -0.184333 0.131254 -0.105504 -0.157601 0.074121 -0.192850 -0.309159 -0.076958 -0.073932 0.126834 0.067201 0.193074 -0.080097 -0.225065 -0.219073 -0.001741 -0.073786 -0.628805 0.232039 -0.041802 -0.001645 -0.305135 0.107741 0.446001 -0.332568 0.186149 0.033751 -0.053042 0.011693 -0.015871 0.032574 -0.061412 -0.336056 0.105763 -0.045642 -0.160387 0.080633 -0.007145 -0.276521 -0.132628 0.273271 0.038296 0.149782 -0.060552 0.096540 -0.196499 0.195421 -0.060570 0.616726 0.032942 0.008873 -0.033061 -0.030668 -0.029185 -0.167434
382 0.088395 0.240691 0.133895 -0.113643 -2.011722 0.112743 0.133844 0.002380 -0.522404 -0.183504 0.202927 -0.324296 -0.154564 -0.249592 -0.079734 0.160185 -0.442801 0.000138 0.264091 0.305519 0.066832 0.063775 0.091720 -0.041875 -0.201298 -0.217665 0.019335 0.101090 -0.196831 2.469967 0.034950 -0.187559 0.025895 0.074600 0.190706 0.122589 0.119198 -0.160586 -0.037536 0.427574 -0.017292 0.005268 0.225829 0.171186 0.144597 -0.205287 0.021135 0.049976 0.103398 0.032932 -0.063845 0.200760 0.452048 0.047719 -0.055857 0.031918 -0.076939 0.014838 -0.030990 -0.020682 0.170092 -0.099072 0.519397 -0.069132 -0.045480 0.073156 0.214405 -0.267554 0.077028 0.130325 -0.140400 0.098003 -0.168768 0.167500 0.167900 -0.082152 0.075460 -0.329565 -0.081223 0.130001 -0.083695 0.156356 0.025125 -0.131579 -0.066411 -0.253756 0.004182 -0.062711 -0.021766 0.079791 0.017799 -0.023765 -0.015003 -0.011386 0.045696 0.358945 -0.047150 0.130298 0.114089 -0.055147
454 -0.072928 0.184791 0.122343 0.055776 0.290937 0.016237 -0.088414 0.029670 -0.470766 -0.004880 -0.014771 0.003237 -0.105373 0.163380 -0.086972 -0.150632 0.155627 -0.002290 0.087839 0.100661 0.077713 0.102536 -0.044587 -0.043463 0.080208 0.243413 0.055569 -0.169419 0.165832 -0.220280 -0.195910 -0.247862 0.037298 0.140333 -0.055986 0.155180 0.035464 -0.047567 0.001593 -0.155726 0.102396 0.078568 0.022408 -0.218944 -0.020064 0.111326 0.081934 -0.103986 0.129874 0.024232 0.055165 -0.021330 0.148605 0.072609 0.014506 0.066020 -0.019829 -0.155432 -0.076419 -0.014851 -0.044625 0.139652 0.546495 -0.088880 0.245255 0.217822 0.001683 0.103303 0.090066 -0.083464 0.021029 0.023870 0.021374 -0.203751 0.053543 0.011782 -0.024224 -0.139236 0.034211 0.138852 0.045568 -0.101630 0.002783 -0.016663 -0.185516 -0.213341 -0.000822 0.170878 -0.033950 -0.049244 -0.103604 -0.163875 -0.035787 0.103102 0.066339 0.256519 -0.059382 -0.077552 0.094887 -0.028201
76 0.060515 -0.149713 0.008227 0.113137 0.298944 0.032618 -0.346799 0.196583 10.994225 -0.137435 0.275004 0.039789 0.048635 0.430217 0.401180 0.208459 -0.118878 -0.144318 0.022868 0.313572 -0.131510 0.062502 -0.007775 0.042396 -0.019207 -0.039396 -0.061155 0.138304 -0.009551 3.903902 0.118031 -0.169421 0.077562 -0.515486 -0.133517 5.718052 -0.226195 0.042262 0.046594 0.183210 -0.013637 -0.203660 0.113712 -0.397931 0.050553 -0.238540 0.044566 -0.314919 0.163381 0.066088 0.145238 -0.201138 -0.150332 0.287567 -0.227578 -0.164030 0.094311 -0.114134 -0.039398 0.200103 -0.088910 0.278360 -0.619603 0.254496 -0.170936 -0.310349 -0.376370 0.286836 -0.137287 0.039964 0.518768 0.249210 -0.009166 0.094966 -0.097909 0.102224 -0.184116 0.174969 -0.115903 -0.074124 -0.019726 0.232220 0.137145 0.063378 -0.134892 -0.025664 0.012397 0.036737 -0.076251 -0.152936 -0.195991 0.214696 -0.088992 -0.154070 0.014382 0.062598 -0.032952 0.047789 -0.243456 0.156643
430 -0.165382 0.281708 0.297300 0.164128 -10.206178 -0.045644 -0.095688 0.088312 -0.242791 0.298381 0.077533 -0.434769 0.398462 0.052057 -0.215639 0.103320 -0.020329 0.053356 0.127759 -0.122093 -0.135532 0.246270 -0.049553 -0.045321 -0.075743 0.382871 0.152617 0.104498 0.116486 4.932299 -0.069176 -0.160030 0.029063 -0.151593 -0.167812 -0.143780 0.130332 -0.072469 -0.031787 0.138195 -0.209590 0.045284 0.020715 0.204661 -0.149564 0.029992 -0.153157 0.240668 0.329601 0.034053 0.117465 0.324767 0.121259 0.047673 -0.184072 -0.293646 0.222184 -0.030252 -0.256048 -0.113800 0.174654 0.032760 0.553179 -0.354576 -0.016724 0.272663 -0.001734 -0.006941 -0.073196 0.230005 0.056904 -0.389398 -0.088000 0.082819 0.085071 -0.133741 -0.256557 0.182080 0.258423 -0.353398 -0.099289 0.588365 0.231588 -0.473322 0.449599 0.100523 -0.048841 -0.065638 -0.021917 -0.055580 0.026439 0.160254 -0.064720 0.035198 0.072067 -0.001198 -0.063799 0.279948 0.163512 -0.099111
406 0.081815 0.233046 0.245781 -0.073270 0.237345 -0.052456 -0.079186 -0.133832 -0.501073 -0.152373 -0.059842 0.199518 0.160683 0.183043 -0.032171 -0.104656 -0.090867 -0.343290 -0.061090 0.060409 0.170601 0.134025 0.203314 -0.039348 -0.139570 0.145886 0.012866 -0.139031 -0.035612 -0.240867 -0.013727 0.046099 0.026406 0.079679 0.110499 0.251911 0.115084 0.119976 0.002561 0.026112 0.073646 0.182938 -0.022262 -0.094048 0.061007 0.199634 -0.157786 0.187913 0.006003 0.024564 -0.021967 0.157093 -0.065655 -0.006722 -0.155260 0.161480 0.099655 0.163222 0.093604 0.003983 -0.055170 0.174099 0.572069 -0.001793 0.096717 0.015143 0.006116 -0.022351 -0.245257 -0.074839 0.130457 0.235688 -0.061880 0.074225 -0.262320 -0.145094 0.106872 -0.000456 -0.085943 -0.165329 -0.043875 -0.122498 0.077024 -0.098550 0.173618 -0.062387 0.050793 0.148218 -0.027403 0.288010 -0.102774 -0.035873 0.015994 -0.129929 0.055166 0.012249 -0.057253 0.155112 -0.043006 -0.081405
58 -0.091317 -0.157489 -0.115967 -0.229019 0.301244 -0.233194 0.011862 -0.322226 11.091036 0.092977 0.111614 0.067052 0.088064 0.092670 0.294179 -0.185703 0.156856 0.001678 0.045859 -0.276109 0.238636 0.038692 -0.102175 0.212306 -0.014838 0.245921 -0.044092 0.104909 0.110814 3.244599 0.065456 -0.357362 0.072329 0.043968 -0.015422 5.798975 -0.058249 0.028367 0.003877 -0.036405 -0.105191 0.247077 -0.048272 0.172530 0.024845 -0.011272 -0.060107 -0.092155 -0.167349 0.075648 -0.099909 0.013026 0.184314 0.125291 0.039751 0.096595 0.177235 0.174762 0.270929 -0.004203 -0.010651 0.142377 -0.618739 -0.117042 0.086661 0.152474 -0.125796 -0.202163 -0.176320 0.029428 0.205793 0.000926 -0.350588 0.010565 0.006975 0.030753 0.002022 -0.242186 -0.365247 0.073662 -0.163659 -0.142518 0.082385 -0.038304 -0.093034 -0.122281 0.049825 -0.187044 -0.073538 -0.402970 -0.158821 0.101219 -0.045753 -0.035165 0.021770 0.004504 -0.029509 -0.181124 -0.077186 -0.106646
366 -0.037534 0.209544 0.057654 0.105276 0.260599 -0.057914 0.246454 -0.071362 -0.409764 0.138261 -0.086621 0.104135 -0.108802 0.287306 -0.213308 0.092059 -0.100549 -0.288497 0.191088 -0.020290 0.061052 0.077152 0.019775 -0.013116 -0.143625 0.014524 0.041144 0.027103 -0.067771 -0.228659 -0.198237 -0.077722 0.027143 0.060923 0.093293 0.065742 0.220491 -0.123401 0.030105 0.157299 0.161772 0.065201 -0.119908 -0.013839 -0.104675 0.105995 0.116526 0.135986 -0.002258 0.018148 0.079681 0.012417 0.100276 0.045751 -0.042211 -0.021744 0.186307 0.073752 -0.023706 0.075625 -0.116953 0.075414 0.556984 0.029471 0.101359 -0.107676 -0.200029 -0.117614 -0.038046 0.051904 0.121995 0.119774 0.017453 -0.041093 -0.054823 -0.078326 -0.074513 -0.046966 0.059912 0.088223 0.037524 -0.196412 -0.134546 0.223359 0.072033 -0.054635 0.042607 0.272120 -0.026389 -0.027890 -0.069152 0.016241 -0.000693 0.001961 0.055115 -0.020965 -0.057103 0.010235 -0.017999 0.365683
378 -0.345330 0.206272 0.180307 0.005792 0.276619 0.099205 0.008144 -0.002316 -0.334938 -0.226790 0.169900 -0.018422 -0.155367 -0.253467 -0.052196 0.049262 -0.135634 0.157962 -0.007259 0.064551 -0.055205 -0.034877 0.140760 -0.020074 -0.204975 -0.124914 0.069983 -0.233520 -0.010038 -0.227304 0.223111 0.224441 0.034384 0.123292 -0.123099 -0.084987 0.007585 -0.174963 -0.011175 0.285278 -0.028924 -0.039460 0.044170 0.063182 -0.111765 0.060788 -0.501444 -0.056119 0.113693 0.024053 -0.039811 0.094693 -0.333915 -0.036920 -0.050711 0.025426 -0.145545 -0.088936 -0.031388 0.017749 -0.183219 0.162657 0.568388 0.027313 -0.020445 0.014173 0.164643 0.271858 0.111658 0.008338 0.176809 0.067888 0.175393 0.084991 -0.069568 -0.128554 0.082864 0.044249 0.091998 0.065687 -0.021088 0.012848 -0.099804 0.049397 -0.004557 -0.064765 0.032551 -0.116561 -0.031064 -0.075352 -0.085725 -0.026035 -0.012998 0.053371 0.068465 0.206278 -0.067563 0.048628 -0.010559 -0.157799
369 0.036886 0.212838 0.189530 -0.000168 0.209734 0.075055 0.180128 -0.087680 -0.340894 -0.045267 0.071076 0.322297 0.156067 -0.198437 0.006147 -0.070022 -0.106043 -0.064902 0.167886 0.101765 0.210641 0.136114 0.194122 -0.189818 0.074369 -0.197020 -0.019409 -0.020923 0.026304 -0.239381 0.119354 0.213406 0.025858 -0.027392 -0.104879 -0.026144 0.013999 -0.400136 0.005223 0.008999 0.018457 0.023933 -0.100549 -0.177496 0.047930 0.194070 -0.117537 -0.184714 0.142257 0.024115 0.032186 -0.020926 -0.075186 -0.130424 -0.088973 0.193987 -0.050626 -0.095397 0.106297 -0.076775 0.131716 0.156567 0.563707 0.013948 -0.123535 0.308452 0.009597 -0.052748 -0.005214 -0.004343 -0.049657 0.069449 -0.006888 -0.014693 -0.121221 -0.192088 0.059385 -0.021781 0.048604 -0.061809 -0.031519 -0.035020 0.023353 0.301240 -0.164950 0.083609 -0.017857 -0.147155 -0.027045 -0.045068 -0.038581 0.131499 -0.057974 0.215945 0.067389 -0.001206 -0.052067 0.136018 -0.058913 0.317482
77 -0.060437 -0.195053 0.255703 0.038876 0.294969 0.123843 0.156253 -0.182923 10.821184 0.113921 -0.014703 0.113196 -0.247030 0.009494 0.149265 0.074430 0.001525 -0.118765 0.100391 -0.053385 0.101827 0.164756 0.152579 0.085900 0.129242 -0.026370 -0.085483 0.164153 0.003603 2.970673 0.191051 0.164857 0.056398 -0.032252 -0.091103 5.565865 -0.037818 0.129292 0.008177 -0.100337 0.046630 0.032631 -0.406314 -0.167676 0.073151 0.085189 0.112873 0.234485 0.136488 0.081898 0.043598 -0.102963 -0.010072 -0.039120 -0.091189 -0.274478 -0.118244 -0.224942 0.260365 -0.023169 -0.075525 -0.190733 -0.612820 -0.037059 -0.137221 0.057075 -0.064433 -0.006716 -0.074574 0.069807 -0.151384 0.092402 -0.061798 -0.010315 -0.010142 0.061795 -0.233478 0.258184 0.398597 0.167580 -0.163000 -0.031013 -0.165707 0.109531 0.222913 0.000334 0.011568 0.037312 -0.073554 0.006481 -0.148453 -0.079167 -0.083435 -0.161695 0.022545 0.225004 -0.027156 -0.178046 -0.114281 -0.398668
447 0.073122 0.232359 -0.114164 0.020572 0.248761 0.012957 0.124400 0.091115 -0.427378 0.056931 -0.131102 -0.175611 -0.119275 -0.080710 0.007242 -0.076723 -0.100783 0.232975 -0.008408 0.094999 0.040479 -0.168556 0.164738 0.147259 0.051106 0.300141 -0.043714 -0.218803 -0.094743 -0.230504 0.058553 0.113376 0.021414 -0.031829 -0.128156 0.099201 -0.109366 -0.155586 -0.041903 -0.122413 0.224569 0.059467 0.020521 0.054349 0.001170 0.201016 0.033906 -0.051389 -0.121173 0.037517 0.056085 0.160504 -0.055032 -0.137148 -0.113903 -0.005384 0.021149 0.018785 -0.063392 -0.095041 -0.181927 0.023888 0.571799 -0.229690 0.109972 0.036271 -0.383464 0.063653 0.203100 -0.072028 0.045709 -0.017427 -0.239458 0.067674 0.214944 -0.263619 -0.048058 0.179297 0.043036 -0.017008 0.138744 0.067153 -0.084150 -0.062293 -0.199536 -0.110276 0.066909 0.194030 -0.024022 0.082769 -0.062086 0.070402 0.023973 0.065111 0.059947 0.062276 -0.058481 0.003169 0.001944 -0.136240
130 -0.397894 -0.258086 0.065268 0.092439 0.337187 0.071825 0.310184 0.311622 11.102064 -0.104512 -0.129964 0.199439 0.166043 -0.134593 0.119557 -0.031949 -0.036793 -0.534563 0.064267 0.324687 -0.256278 0.019412 0.162134 -0.230530 -0.235849 -0.081901 -0.052384 0.336512 0.265062 3.141939 -0.354428 0.333204 0.077045 -0.161985 -0.018066 5.731864 0.550805 -0.378068 0.030395 -0.104099 -0.177699 -0.226485 -0.238760 -0.285503 0.039241 0.518118 0.067354 -0.065077 -0.100711 0.063697 0.285060 -0.098292 0.135655 -0.054161 0.048756 -0.066657 0.393341 0.139682 -0.077776 0.137312 0.176912 0.076066 -0.590457 -0.006819 -0.145569 -0.085951 -0.121790 0.124080 -0.029363 0.126297 0.205623 -0.008155 0.001320 -0.141320 0.280380 0.004330 -0.012470 -0.037546 -0.391535 0.160802 -0.135683 -0.322293 -0.138868 0.586772 0.158826 0.009440 0.021301 -0.145219 -0.064022 -0.148597 -0.026733 0.038498 -0.069397 0.336612 0.018993 -0.198811 -0.023789 -0.037571 0.130768 0.051717
88 0.250801 -0.222595 -0.317152 -0.103486 0.288794 -0.117512 -0.041621 0.347513 10.851830 -0.092870 -0.164658 -0.062170 0.333159 0.430044 -0.137772 -0.235259 -0.048499 0.124047 0.520840 -0.065822 0.121592 -0.163615 -0.022890 0.183572 -0.142214 0.107018 -0.093609 0.154416 -0.216106 4.201691 0.062107 -0.171620 0.072913 -0.096103 -0.090682 5.624181 0.149863 -0.165922 0.027811 0.021008 -0.027295 -0.033280 -0.190374 -0.274075 -0.262602 -0.253809 -0.131762 0.235767 0.242086 0.068133 -0.179819 -0.046063 0.124056 -0.157311 0.161436 -0.010999 0.191306 -0.109140 -0.085784 0.036749 -0.177907 0.178077 -0.659856 -0.236594 -0.054905 0.013772 -0.122651 -0.051226 0.187117 -0.284958 -0.055262 0.157164 -0.148184 0.253412 -0.167802 -0.093945 -0.113123 -0.029152 -0.041563 -0.101816 -0.131493 -0.139628 0.202911 0.395446 -0.393558 -0.086468 0.061747 -0.214827 -0.078785 0.166024 -0.132325 0.057170 -0.053360 0.214441 0.013331 -0.238057 -0.010354 -0.279766 -0.039680 -0.276332
520 -0.015062 0.253672 -0.043721 -0.089443 0.169206 0.066689 0.078062 0.116176 -0.186501 -0.125292 0.088932 -0.127611 0.027903 -0.009610 0.050660 0.122418 0.019919 0.162167 0.066271 -0.221446 -0.042488 0.020471 -0.018770 0.065137 -0.046827 -0.081137 0.061195 -0.032980 0.009535 -0.231313 0.116970 0.150131 0.018937 0.192278 0.033277 -0.327352 -0.020873 -0.067526 0.000084 -0.012989 -0.132238 -0.035971 0.147970 0.043683 -0.121805 0.269270 -0.168098 -0.002656 0.042157 0.023761 -0.012908 0.062850 -0.047402 0.101117 -0.018803 -0.156638 -0.103882 -0.204019 -0.095309 0.141160 0.018343 0.070419 0.570069 -0.071638 -0.294890 0.051836 -0.296711 -0.007891 0.003206 -0.115902 0.091662 0.093852 -0.014714 -0.136064 -0.323099 0.180161 0.027238 0.039036 -0.037878 0.052408 -0.061341 -0.206945 0.153464 -0.280193 0.166664 0.018970 0.023888 -0.166392 -0.023170 0.098522 -0.039973 -0.091579 -0.002474 0.068765 0.076612 0.035893 -0.060724 0.025863 -0.163570 0.219966
480 0.164326 0.203409 0.217365 0.017577 0.282173 0.127070 -0.047489 0.017800 -0.464817 -0.008124 0.050281 -0.386961 0.113758 0.128968 0.070381 -0.253831 -0.111584 0.173849 0.091132 0.013037 0.041305 -0.258029 0.050360 -0.006932 -0.054378 -0.122142 -0.106633 -0.211063 -0.104732 -0.217060 0.096743 0.054744 0.039372 0.057536 -0.072683 0.160478 0.226770 0.172919 0.002363 -0.161358 0.024860 0.043989 -0.001651 -0.005386 0.052828 0.179920 0.198732 -0.146495 0.027265 0.021465 0.015748 -0.165452 0.200917 0.013749 -0.003902 -0.039471 -0.135530 0.077944 0.007380 0.049279 -0.030210 0.082838 0.567099 -0.007521 0.017597 -0.317281 0.174507 0.003457 0.178869 0.061019 -0.141557 -0.068903 -0.139940 0.094693 0.036909 -0.040201 -0.050652 0.035078 0.095787 0.057472 0.047474 -0.043976 0.186892 -0.067091 -0.166244 0.094722 -0.071218 -0.091084 -0.030527 0.073709 -0.073549 0.068230 -0.105884 -0.241438 0.049171 0.104183 -0.053917 -0.156598 0.141913 0.000781
116 -0.037103 -0.176314 0.008804 -0.067766 0.314161 0.149748 -0.111608 0.193990 11.006720 -0.055565 0.084639 0.182585 0.239078 0.246740 -0.143971 0.288730 -0.186725 -0.071909 -0.135144 -0.115352 -0.013797 -0.049049 -0.172355 0.268879 -0.134435 0.118529 0.060520 -0.241484 0.202009 3.165845 -0.010370 -0.041682 0.067195 0.014480 0.006641 5.706227 -0.028506 0.204412 -0.014102 -0.075713 -0.185225 0.090446 -0.293245 0.254756 0.186064 0.017049 0.096430 -0.003144 -0.158997 0.070955 0.230854 -0.086718 -0.193708 -0.003417 -0.092336 0.132979 -0.243459 -0.290261 0.071558 0.029337 0.019894 -0.023612 -0.634427 0.099643 0.172895 -0.119231 -0.113313 -0.164359 0.243248 -0.042442 0.113294 0.067513 -0.167660 -0.037640 0.210391 -0.201726 0.047625 -0.028628 -0.112768 0.041136 -0.054755 0.028234 -0.066260 0.046427 0.110420 -0.199307 0.039958 -0.360437 -0.067449 -0.104343 -0.094230 0.057066 -0.061853 0.121761 0.027540 -0.046353 -0.024780 -0.233679 0.092146 -0.104237
417 -0.107322 0.239497 -0.049104 0.338158 0.236715 0.013691 -0.056454 0.020327 -0.241889 0.022660 -0.198819 0.105777 -0.135869 -0.215250 -0.111836 0.238151 0.138284 0.170193 0.082757 -0.013359 -0.280532 -0.086623 0.161174 0.052808 0.045383 -0.110633 0.001597 -0.117360 -0.087007 -0.240736 0.020473 0.084515 0.025505 0.004674 -0.015945 -0.252471 -0.125339 -0.000161 0.014643 0.075915 -0.030936 -0.271893 0.105503 0.113098 0.038898 -0.186571 -0.442478 0.214513 0.157020 0.019380 0.016179 -0.267579 -0.323382 -0.279664 -0.054709 0.099552 -0.163365 -0.222734 0.093839 0.105449 0.000764 -0.005523 0.541640 0.009751 -0.294138 -0.175515 0.080666 0.167861 -0.026225 0.004559 0.022376 0.005317 0.223365 -0.217325 0.130644 -0.148504 0.075520 -0.049499 0.020182 0.127091 0.023184 -0.113458 0.180663 0.052437 0.121342 -0.150123 0.053625 -0.159543 -0.028362 -0.190339 -0.049329 0.026672 0.007485 -0.018834 0.053869 -0.101219 -0.046987 0.223928 0.203239 -0.101964
397 0.144778 0.205528 -0.011839 0.057405 0.277915 -0.066692 -0.180325 -0.189126 -0.507471 -0.222895 -0.029516 0.051452 -0.179968 0.198437 -0.139566 -0.043338 -0.007829 -0.289996 0.026546 -0.004240 0.208230 0.115944 -0.166904 0.028433 -0.037508 0.119562 0.028767 -0.204465 0.145842 -0.221222 -0.103086 -0.154928 0.038658 -0.074250 -0.070229 0.220916 0.182264 -0.071516 -0.026984 -0.008623 0.016372 0.014380 0.149067 0.056626 0.005548 0.047879 -0.116606 -0.108919 0.118872 0.040403 -0.003611 -0.061584 0.011446 -0.153116 -0.003808 0.068407 0.094058 -0.174202 -0.056975 -0.201720 -0.031828 -0.148749 0.569908 0.056096 0.151623 0.062123 0.130219 0.021048 0.032440 -0.017138 0.054839 0.284342 0.108283 -0.013839 -0.107247 -0.153336 -0.113181 0.063886 -0.055774 -0.075596 0.092008 -0.130901 0.070009 0.059930 -0.011498 0.050727 -0.010977 0.102556 -0.027290 -0.039459 -0.061635 0.013501 -0.049221 -0.093448 0.063322 0.117380 -0.052849 0.015940 0.096027 -0.189507
385 0.042826 0.206690 0.213951 0.125931 0.261933 0.009770 -0.111470 0.178424 -0.505263 -0.077922 -0.000657 0.161731 0.067256 0.066014 0.126629 -0.013867 -0.051873 -0.150339 -0.076512 0.044147 0.187522 0.147731 0.020332 -0.069385 0.100841 0.177298 -0.081480 0.015394 -0.214420 -0.228622 0.058913 -0.133509 0.033133 -0.047205 0.192770 0.249931 0.092538 -0.025275 0.029717 -0.223710 -0.127236 0.109166 0.015250 -0.012202 0.007200 0.256519 -0.116677 0.032035 -0.102650 0.025849 0.012477 -0.162748 -0.122231 -0.059066 -0.064200 0.133241 -0.085948 -0.041994 -0.042843 -0.021250 0.181284 0.081968 0.558869 -0.360322 0.120125 0.030396 0.193195 -0.078631 -0.128072 -0.062143 0.154273 0.132574 -0.013462 0.064410 -0.202147 0.167881 -0.085950 -0.126835 0.133294 0.158114 -0.114397 -0.089035 0.224176 -0.137723 0.087399 -0.071559 0.017119 -0.108752 -0.017781 0.071061 -0.057370 -0.075605 -0.022324 -0.002181 0.057818 0.010338 -0.061547 0.146815 -0.043335 0.035247
388 -0.056491 0.198297 -0.081868 0.019363 0.228508 0.046173 -0.035534 0.023837 -0.490534 -0.124460 -0.105543 -0.032764 -0.057169 0.069969 -0.041826 -0.205892 0.134289 -0.037443 0.250873 -0.017944 -0.043189 -0.146655 -0.034589 -0.020997 0.010530 0.078368 -0.098027 -0.294062 -0.118272 -0.230905 0.132030 0.007217 0.023090 0.048332 -0.109632 0.218389 -0.017412 0.185099 0.030075 -0.080845 0.040253 0.053450 0.029055 -0.032557 0.059917 0.066182 0.133938 -0.062854 -0.134370 0.021124 0.004239 0.036375 -0.160504 0.167970 -0.033324 -0.069335 0.014288 -0.029878 -0.005785 -0.038114 0.063104 -0.073206 0.536436 -0.158918 -0.006280 0.139528 -0.176035 0.051652 0.061886 0.023373 -0.194817 0.007281 -0.054451 0.034442 0.167738 -0.130485 -0.146893 0.074249 -0.013981 0.015741 -0.124447 0.007929 -0.105960 0.117405 -0.065875 0.007791 -0.014435 0.068152 -0.028202 0.057370 -0.011308 -0.025484 -0.058802 -0.085991 0.048816 0.176579 -0.043859 0.065654 0.021563 0.216933
45 0.011835 -0.182258 -0.425992 -0.095351 0.296355 -0.087572 0.196933 -0.267479 10.977045 -0.010939 0.033944 0.191146 0.119790 -0.243818 0.076241 -0.111032 -0.158504 -0.280794 0.024463 0.114769 0.242568 -0.118196 0.316553 0.152705 0.133500 -0.029657 -0.007771 0.092980 -0.198299 3.012871 0.026971 0.053529 0.066285 -0.040570 -0.142485 5.721688 0.203390 0.002411 0.050861 0.125629 0.045523 -0.136073 0.011068 0.177412 0.013283 -0.135557 0.056299 0.105017 0.091182 0.047396 -0.029420 0.070607 0.034958 -0.208263 -0.072223 -0.310725 -0.044061 -0.017780 -0.126452 0.080713 -0.057737 0.139737 -0.642474 0.150100 0.105812 0.057467 0.112044 0.141172 -0.022870 -0.036814 0.075351 0.137416 -0.254166 0.392723 0.290094 0.342620 0.119322 0.067364 0.156833 0.175770 -0.044761 -0.038239 0.260411 0.002599 0.005907 -0.147535 -0.001861 0.113341 -0.065988 -0.079134 -0.156874 -0.061724 -0.091962 -0.180212 0.028424 0.247763 -0.030332 -0.087951 0.228344 0.178791
124 -0.159894 -0.188806 -0.272839 -0.171202 0.288456 -0.068813 0.394115 0.018282 10.760380 0.012879 0.261213 0.501596 0.370741 0.002622 0.019977 0.005675 0.142827 -0.440329 0.044764 -0.025740 -0.097021 -0.055581 -0.555014 -0.108735 -0.107673 0.225507 -0.023433 -0.082467 0.012013 4.158944 0.240422 -0.286271 0.059461 0.035867 0.216448 5.609252 -0.171528 0.356552 -0.009130 -0.117032 -0.197096 -0.171733 0.019421 -0.121345 -0.341997 -0.030091 -0.033722 0.080129 -0.215004 0.073829 -0.110892 0.047990 0.285152 -0.210201 -0.013317 -0.027204 0.198456 0.004044 0.529480 -0.203450 -0.305485 -0.218517 -0.615013 -0.098421 0.061226 0.148315 -0.045311 0.182722 0.236262 -0.081499 -0.099436 0.108318 0.210812 -0.345159 0.172917 -0.035109 -0.129561 -0.053985 -0.014468 -0.135113 -0.259060 0.111054 -0.009749 0.138874 0.044147 0.171595 0.056622 -0.012891 -0.075772 0.156329 -0.170806 0.078648 -0.040969 -0.086611 0.045834 0.374492 -0.025167 0.081448 -0.191039 0.384764
7 0.120720 -0.205330 0.110105 -0.045352 0.324636 0.148948 0.013165 -0.064752 11.105639 -0.102898 -0.188742 0.249738 -0.108427 0.140154 -0.014904 0.011966 0.111989 0.150407 0.005184 -0.022877 -0.351666 0.302552 0.111306 -0.059659 -0.118090 -0.545325 -0.010091 0.054801 -0.228951 2.662610 0.310734 -0.306931 0.068649 0.041282 0.171318 5.770506 -0.034471 -0.228332 0.003949 0.054133 -0.116381 0.195897 0.457825 0.359954 -0.092017 0.051668 -0.162027 -0.027456 -0.018428 0.068290 0.127133 0.188265 -0.058071 -0.004126 -0.128426 0.195236 0.252972 -0.090357 0.239706 0.120255 0.009574 -0.024628 -0.597099 -0.037485 0.329284 0.062070 -0.271599 -0.267591 -0.078434 0.028266 0.009914 0.022606 0.006077 -0.112682 0.141298 0.067598 -0.201928 -0.093666 0.111646 0.183202 0.227123 0.093503 0.046565 0.149232 -0.011255 -0.120575 0.075309 0.033880 -0.074822 -0.130176 -0.102543 0.046101 -0.028683 0.126220 0.023830 0.194455 -0.018775 -0.138330 0.002011 -0.114879
470 -0.097740 0.243880 -0.041411 0.233381 0.106919 0.052624 0.044563 -0.323015 -0.123482 0.083011 0.036297 0.126778 -0.228755 0.014845 -0.019032 0.074712 -0.117360 0.029360 0.059478 0.042204 -0.137472 -0.187688 0.287952 -0.018076 0.020017 0.024048 0.063926 0.059965 0.203090 -0.239162 0.071967 0.183937 0.031840 0.166214 -0.155663 -0.395110 -0.127521 0.061639 0.014953 0.123301 -0.081360 -0.036965 0.097551 -0.178032 -0.284889 0.137247 -0.215130 0.090340 0.133953 0.020298 0.143835 0.075045 -0.242865 -0.005727 -0.082736 0.098355 -0.014178 0.107719 -0.115799 0.318020 0.075768 0.013977 0.621964 0.239862 0.000348 -0.112643 0.103542 0.243794 -0.046220 -0.166580 -0.028410 -0.088486 0.101146 0.149246 0.068028 0.006624 -0.108831 -0.054393 -0.041704 -0.035685 0.029022 -0.067383 -0.029495 -0.005098 0.067566 -0.064958 0.001384 -0.056442 -0.020515 0.013918 -0.009281 0.175545 -0.022912 -0.016971 0.070429 0.085969 -0.048028 0.150826 0.025091 -0.244082
72 0.071006 -0.180264 -0.163643 0.224027 0.309516 0.218108 -0.022213 0.267819 11.015779 -0.159700 -0.140321 0.065107 -0.113063 0.190210 -0.132038 -0.264360 0.020008 -0.124378 0.105903 0.039151 0.291700 0.204251 0.082070 0.097040 -0.182305 -0.167218 -0.046063 0.004896 -0.130377 2.738370 -0.013149 0.268789 0.067272 -0.030585 -0.093779 5.732749 0.114358 0.019825 0.035126 0.090714 0.076953 0.108087 -0.125133 -0.084953 0.111755 0.032168 -0.140821 -0.088312 0.186871 0.054178 0.141287 -0.056403 0.421923 0.028789 0.133918 0.074167 -0.070721 -0.140347 0.011097 -0.122266 -0.122062 0.113968 -0.657628 -0.118459 0.431097 0.015633 -0.001055 -0.059492 -0.096496 0.125087 0.040121 0.187640 0.115568 0.242205 -0.013559 0.172978 -0.210511 -0.069396 -0.072072 -0.064628 0.090470 -0.059431 -0.127703 -0.050192 -0.188977 -0.008400 0.034867 -0.101760 -0.064910 0.220271 -0.094571 0.098023 -0.071666 -0.166535 0.014406 0.116187 -0.030302 0.177079 0.068693 -0.031166
404 0.048195 0.204680 -0.005643 0.104314 0.228163 -0.009109 -0.107775 0.131258 -0.443570 -0.067699 -0.067276 0.220169 0.249253 0.066965 0.046163 -0.162332 0.009216 -0.152728 -0.017770 0.009636 -0.043835 -0.067217 0.289185 -0.168707 0.069355 0.122249 0.032046 -0.176857 -0.087843 -0.232483 -0.210590 0.051145 0.023374 -0.122520 0.095459 0.152142 0.224064 0.010596 -0.020972 -0.050735 -0.030500 0.034750 0.002118 0.183399 0.084491 -0.014545 -0.020165 0.104617 -0.089521 0.036231 0.110964 0.047910 -0.093901 0.029061 -0.150784 0.022224 0.177100 0.281151 0.092679 -0.218238 0.175892 0.174351 0.529352 0.040830 -0.141422 -0.103574 -0.022072 0.093268 0.030212 -0.085204 -0.020816 0.080029 -0.038707 -0.103205 0.073419 -0.069984 -0.031740 -0.114490 0.094161 0.140955 -0.027484 -0.066625 0.047290 0.350157 0.044644 -0.070098 0.051228 -0.130538 -0.020957 0.006637 -0.054569 0.192056 0.027486 0.098498 0.058737 0.053437 -0.061885 -0.021003 -0.062988 0.062960
102 -0.175419 -0.197116 -0.146867 0.060020 0.300032 0.090024 -0.070997 0.011341 10.682734 0.094559 -0.021347 -0.014735 -0.075832 -0.106040 -0.114480 0.088928 0.123682 0.072715 0.063995 0.067058 0.018817 -0.161126 -0.079505 -0.183913 -0.055715 0.036694 -0.075592 -0.041794 -0.066793 2.812818 0.033916 0.147742 0.061554 0.068780 0.128794 5.486111 -0.104341 -0.025767 0.004880 0.292815 0.027131 0.028050 0.076823 0.051463 0.035882 0.031856 0.135654 0.066756 0.076417 0.057771 0.091643 -0.110723 0.209141 0.207341 0.144291 0.196858 0.031156 -0.113948 0.028440 0.065576 -0.041292 -0.105129 -0.598800 0.054705 0.069379 0.148250 0.026792 0.048051 -0.000352 0.044831 -0.120283 -0.046881 -0.046895 0.080207 0.082543 0.104201 0.147567 0.014736 -0.149106 0.002156 -0.050761 -0.171735 -0.037542 -0.161223 -0.140455 -0.142817 0.034890 -0.130423 -0.070392 0.034644 -0.119634 -0.054807 -0.076327 -0.034038 0.020978 -0.102993 -0.015802 0.050870 -0.077068 0.081877
405 -0.092288 0.202119 0.244642 0.081483 0.269295 0.121450 -0.020122 0.078072 -0.485107 -0.177056 -0.036812 0.185064 0.107145 -0.125717 0.134730 0.107079 -0.080880 -0.036481 -0.140529 -0.074194 0.110082 -0.023617 -0.061216 0.036317 0.106707 -0.073028 -0.008033 -0.214547 -0.100096 -0.220742 0.013142 0.201055 0.030477 -0.022080 0.147121 0.183148 0.028992 -0.101735 0.003107 0.058580 0.004468 0.024118 0.098704 0.038446 0.132855 0.182432 -0.110144 -0.114640 0.153725 0.018109 -0.015524 -0.010116 -0.219743 0.064615 -0.147280 0.202445 0.151484 -0.015459 -0.151241 -0.200704 0.020837 0.092486 0.546046 -0.069127 -0.228629 0.065715 0.388615 -0.000091 -0.227995 -0.153995 0.004052 0.089625 -0.235883 0.055239 -0.169264 -0.037375 0.208434 -0.187442 0.052408 0.037594 0.103148 -0.179970 0.028666 0.103977 0.009799 -0.055983 0.027584 -0.009502 -0.024677 -0.025281 -0.063346 0.030672 -0.017866 -0.019520 0.068728 0.155323 -0.051044 0.053808 0.037721 -0.151693
408 0.078228 0.242981 -0.149171 0.009943 0.226200 -0.045749 0.148037 -0.027757 -0.204279 0.096632 -0.043738 0.119411 0.021000 -0.056975 -0.110232 0.212796 -0.089445 -0.241881 -0.095957 0.014654 0.005032 -0.069715 -0.180764 -0.069919 -0.012793 -0.270329 -0.109541 -0.126662 -0.036079 -0.233151 -0.077033 -0.470775 0.027731 -0.040509 -0.041887 -0.346808 -0.028245 0.021837 0.002632 -0.200092 0.044451 -0.055646 0.034453 -0.156503 0.193568 0.131556 0.034247 0.053178 0.133293 0.016418 -0.144064 0.035793 -0.071450 -0.010528 -0.104242 0.041470 -0.014675 -0.191994 -0.107166 -0.025643 0.002702 -0.018322 0.535483 0.078511 0.343431 0.157181 -0.086053 -0.004162 -0.008458 -0.023429 -0.001860 -0.017312 0.061463 -0.010174 0.034804 -0.009881 -0.139721 0.170052 0.152329 0.118464 -0.095104 -0.144426 0.024905 0.092911 -0.033802 0.132052 -0.025831 0.035685 -0.026581 -0.038247 -0.060988 -0.010472 -0.046133 0.056145 0.036272 -0.318780 -0.061299 -0.037444 -0.115966 0.000469
180 0.146729 -0.183289 0.300072 -0.186781 0.298816 0.017350 -0.070169 -0.020250 10.965396 -0.160309 0.155338 -0.017141 -0.135403 -0.161591 -0.305480 0.334156 -0.209229 -0.064340 0.243425 -0.066902 -0.107805 0.101891 0.150531 -0.115136 -0.202899 -0.289471 0.022352 0.126816 -0.134139 2.780784 0.259104 -0.050384 0.079187 0.046938 -0.121888 5.698118 -0.034110 0.234271 0.018764 -0.030625 0.089483 -0.145912 0.347028 0.025274 0.296172 0.039508 -0.107685 -0.023290 -0.093068 0.072829 0.328356 0.096051 0.060411 -0.004388 -0.403017 0.126797 0.306704 0.306226 0.131350 0.197537 -0.069802 -0.094641 -0.589213 -0.083779 0.174206 0.262381 0.034159 0.201408 0.282200 -0.182299 -0.184809 -0.033420 0.147329 -0.079737 0.300915 -0.201151 0.351730 -0.137479 0.021745 0.021680 0.113915 0.007862 0.092182 -0.108529 0.136072 0.088414 -0.054823 0.072474 -0.073798 -0.099913 -0.108337 0.110197 -0.153081 0.196642 0.026780 -0.195163 -0.037147 -0.229616 -0.100400 0.105705
140 -0.087275 -0.174745 0.315419 0.223695 0.303490 -0.061654 0.366668 0.008761 10.887990 0.307937 -0.123631 0.058514 0.362009 -0.229434 -0.156145 -0.333502 -0.161847 0.020048 0.004762 0.309828 0.154619 0.521980 0.011869 -0.206122 -0.021488 -0.152117 -0.214399 -0.105140 -0.167049 3.376727 -0.143151 -0.218327 0.067302 0.377561 -0.298118 5.657865 0.034888 0.197202 0.007910 0.496295 -0.126182 0.015190 -0.076080 -0.111471 -0.125455 -0.144715 0.513621 0.278732 0.089300 0.070542 0.118192 -0.041416 -0.147674 0.298907 -0.287703 0.167762 -0.183980 0.192955 -0.125476 0.390626 0.015485 -0.166706 -0.612543 -0.032108 -0.169231 -0.151028 -0.212707 -0.295372 0.151752 0.179385 0.230940 -0.078841 -0.235599 -0.273625 -0.319750 -0.341726 0.130832 -0.098042 -0.273950 -0.529371 0.352746 -0.192723 0.274276 0.095364 0.170808 -0.084991 0.062299 0.191116 -0.063643 -0.232192 -0.125068 0.112005 -0.044369 0.243828 0.030397 0.044849 -0.028868 0.158582 -0.373783 -0.047026
89 -0.138717 -0.178296 -0.080231 0.086070 0.291492 0.346016 -0.030447 0.078970 10.588114 -0.034485 0.045174 -0.078844 -0.001286 -0.221993 -0.149280 -0.418906 0.118960 -0.040474 -0.103407 0.117862 -0.266717 0.032373 -0.073889 -0.089329 0.021055 -0.138241 0.065914 0.118591 -0.128798 3.062369 0.079934 -0.083955 0.062186 -0.050442 -0.134221 5.504947 -0.181865 -0.139189 0.015482 -0.043334 0.135150 0.164297 0.008014 0.186655 -0.138155 0.208859 0.080852 -0.018476 -0.083502 0.076216 0.069383 -0.003379 -0.026981 0.146932 -0.010450 0.019337 -0.043354 0.056246 -0.120331 -0.031526 0.144643 -0.088085 -0.614797 0.015738 -0.103467 -0.062948 -0.004874 -0.259674 -0.251948 -0.401136 0.029838 0.167670 -0.048608 -0.017687 -0.070728 -0.021498 0.069024 0.079892 0.070766 -0.040259 -0.039713 -0.063902 0.085459 -0.018994 -0.021464 -0.104818 0.018011 0.009040 -0.068814 0.076637 -0.081475 0.035859 -0.088085 0.355093 0.027639 0.008190 -0.037083 -0.010855 -0.114984 -0.173829
