1111 128
0 0.05971705 -0.066880144 0.0059281494 0.09445002 -0.049164902 0.04077831 0.30336577 -0.051100824 0.10207973 -0.08682784 -0.10608733 -0.011191065 -0.17257802 -0.120482855 0.24510266 -0.0815626 0.041398805 -0.25672248 -0.017031055 0.031026375 0.23859872 -0.17213957 -0.02118237 -0.04475836 0.18956889 0.10000409 0.012877056 -0.24166168 0.05309513 -0.12493675 0.1162335 -0.021233464 -0.059680987 0.052421317 0.29709676 -0.10597065 0.014926112 0.09367906 -0.13604288 -0.20302127 0.00027669244 0.02324691 0.07923306 0.2445178 -0.022204371 0.24766311 0.12859847 -0.18123718 0.002293122 0.14651364 -0.18549414 0.02807494 0.013526843 -0.039074488 0.062863454 0.20996217 -0.14944401 0.20149115 -0.19693843 -0.12081963 0.32450876 -0.1040571 -0.043052755 0.1872055 -0.091781266 0.055098843 -0.122480154 -0.02266073 -0.20564008 -0.16675824 0.117559336 0.19952574 0.23180641 0.06479202 0.4124516 0.0988767 -0.013349424 0.072544806 -0.08542975 -0.08745823 0.07698617 0.05941021 -0.17953835 0.0541714 -0.1954628 0.023521852 -0.09819221 0.059656866 0.064763606 0.22732432 0.020820485 0.09069514 0.03380377 0.1650541 0.08559595 0.10381737 -0.0948327 -0.22313778 -0.031585556 0.019832944 0.0007652339 -0.13858087 0.07944557 -0.033333577 -0.11271534 -0.06215289 0.018621508 0.18825795 0.09234723 -0.028809095 -0.005584876 0.08663348 -0.21904275 0.20129102 -0.10843086 0.0553064 -0.2364914 0.31923297 -0.039997365 -0.18306927 -0.11348915 0.05808244 0.0019999545 0.19196856 -0.07157468 0.27321288 0.05694104 0.092944
5 0.025228385 -0.06395867 0.024360083 0.24403603 0.12297035 -0.0529169 0.1412259 0.2841666 0.107193515 0.008168854 -0.21003823 0.055064958 -0.113237806 -0.008184326 -0.16857605 -0.036553293 -0.055321768 -0.14942491 -0.1308387 0.044336475 0.1428484 -0.10338724 0.098983645 0.023546252 -0.04537143 0.06464255 0.013666356 -0.22589281 -0.13674228 -0.19653477 -0.008500206 -0.019260172 -0.18612896 0.18661551 -0.091400884 -0.019564927 -0.002015428 0.05052181 0.06484541 -0.18422368 0.047135133 0.34166613 -0.06493383 -0.013909058 -0.10854993 0.34526226 0.06956054 -0.10549602 0.28960627 -0.0008813895 0.106623605 0.11882886 0.067923196 0.050558936 -0.03560786 0.023600748 0.1333789 0.07944428 -0.24045455 -0.14535713 0.08231657 -0.0054500625 -0.04303975 0.1386365 -0.031407744 0.08816288 0.1049913 -0.16859275 0.0231468 0.014985558 -0.004757259 0.22623216 0.033042848 -0.1672191 0.14713584 0.10783337 0.17217766 -0.052229147 -0.10605081 -0.027575087 0.03781444 -0.040570643 -0.11054988 -0.10182677 -0.025318315 -0.02912402 0.09314864 0.054522935 0.011696963 0.029426225 0.117094725 0.0025626982 0.07888296 0.14854425 -0.05533642 0.08494217 -0.015365255 -0.1717506 0.016040558 -0.030036846 -0.15276821 -0.19192372 0.04570391 0.08904889 -0.15013845 0.051525533 0.04622607 0.29787335 0.13373016 0.24142215 0.005798103 -0.08835163 0.15631087 -0.06336622 -0.11483236 0.019810433 -0.12496384 0.15534829 -0.04331066 -0.16448605 -0.102421515 -0.05856151 -0.077201925 -0.06419187 -0.30238146 0.19834156 -0.12016805 0.090089254
359 0.018929102 -0.14431049 0.17129494 -0.013156479 -0.080508165 0.030834949 0.12297771 -0.043189496 0.12072221 0.10486516 -0.17998306 -0.12336057 -0.21002655 -0.20593391 0.08734681 0.07261472 0.10186289 -0.10561548 -0.005747089 0.24793601 0.061037656 0.008195701 0.055829294 0.038318075 0.010996972 0.075089335 0.22256069 -0.043417227 0.11060946 -0.16677065 0.0948589 -0.040945258 -0.122696385 0.097948186 0.12642431 -0.110330954 0.14941934 0.038446624 -0.005304026 -0.047552317 -0.16913313 0.032969527 -0.057394557 0.2295866 0.12736434 0.19742508 0.030049594 -0.19240643 0.17264126 0.049781878 -0.022932423 0.024255773 0.17473954 -0.11633372 -0.11895213 0.067982085 0.021460613 0.08569244 -0.18248968 -0.046118215 0.2024305 -0.114537954 0.13070495 0.12309969 0.04691577 -0.03842301 -0.030868104 0.08598779 -0.040996846 0.04471769 0.00098624 0.08866393 0.19318606 -0.04521746 0.26689044 0.06863696 0.26290762 -0.084138945 -0.24456576 0.027800912 0.23001301 0.088986434 -0.015072708 -0.05010882 -0.112601265 0.06631298 -0.08180717 0.036060806 0.0986269 0.1511605 0.19832753 0.10886233 0.03983673 0.010944707 0.10940988 0.31985262 -0.0031053443 -0.04081211 0.09043219 0.12182905 -0.15220147 -0.11618408 0.088453874 -0.068913326 -0.05706734 0.25677118 -0.031772137 0.11634816 0.00514019 0.02823487 0.007671257 -0.0026574743 0.038823076 0.010994073 0.045802202 0.14067405 -0.31119245 0.27310488 -0.21559443 0.04803739 -0.06489076 0.2312644 0.029322814 0.113563865 -0.03456979 -0.0063298354 0.11162888 0.10146452
375 -0.09648105 -0.016014948 0.02584277 0.13700704 0.030039243 -0.03403223 0.013390164 0.03955231 0.15668856 0.17155334 -0.12672445 -0.29971498 0.036219604 -0.05240043 0.116235375 0.15870726 0.05100945 0.045348432 0.29217833 0.14928491 0.023769598 0.051859967 -0.035580385 -0.12301707 -0.06941194 0.06601087 -0.12771004 -0.19805416 0.14188965 0.22068754 0.13206512 0.03322154 0.0033266083 -0.0013836982 -0.097731456 0.08762831 0.10831765 -0.060725786 -0.15953095 0.038494743 0.057841152 -0.028630223 -0.05111042 -0.050484024 0.17054513 -0.06417484 -0.0138782915 -0.2754065 0.08910595 0.042290438 0.047146056 0.027923249 0.12686008 0.30131507 -0.090491734 -0.09637665 -0.050105996 0.023762358 0.10493529 -0.02260375 0.19631465 0.02206909 -0.248559 0.12197713 -0.02559943 0.10241981 0.021497378 -0.1449191 -0.08027957 -0.0048320866 0.08823487 -0.062021922 0.083761536 -0.054721937 0.0938821 0.38849056 0.10004771 0.005413891 0.100866646 -0.094358556 0.12487422 -0.115738764 -0.025393676 0.062063225 0.016989542 0.01902286 0.15472779 0.041660074 0.013234413 0.15524554 0.08369475 -0.11764504 0.09497628 0.08666548 -0.23531182 -0.14459443 0.2525991 0.14306882 -0.1714423 0.068156704 -0.061363984 0.040492892 0.19248483 -0.1285528 0.04505612 0.073159605 0.088532634 -0.05012332 -0.20205313 0.042943798 0.1521846 0.14060456 -0.075027116 -0.23611422 0.15412457 0.13055778 -0.073589884 0.04834025 0.06296111 -0.037558828 -0.03076178 -0.00926382 0.0022531718 0.08107901 -0.15698051 0.087955266 -0.10378499 0.107296556
14 0.06501154 -0.04909505 0.06601061 0.12838833 -0.033331145 -0.10480748 0.14512765 0.2803492 0.05759773 0.17815335 -0.25781426 -0.04007438 0.0090925945 -0.15492103 -0.049407 0.06382591 -0.019238938 -0.21838473 0.10823342 -0.034558587 -0.056232125 -0.2827696 -0.12317931 0.16314901 -0.02882436 -0.023835938 -0.13537286 0.13811229 -0.0052647674 0.028179513 -0.046290345 -0.03932348 0.046462044 0.115991965 0.10058029 -0.077375494 0.2360838 -0.1424491 -0.12527668 0.20778988 -0.030864138 0.14707927 -0.10853192 0.05798239 -0.09648029 0.21942027 0.096861914 -0.13916251 0.13774988 0.15685982 -0.08528225 0.19757146 0.001956669 -0.12857981 -0.12547095 -0.084235646 -0.02896825 -0.02996888 -0.15155561 -0.08955964 0.005326931 -0.088880174 -0.10358096 0.10785408 -0.047230806 0.010279942 -0.1582811 -0.09193319 -0.012777687 -0.112649895 0.06651006 -0.13106772 0.07721931 0.24079035 -0.07070167 0.15905158 0.23402466 -0.01566406 -0.1896084 -0.092011206 0.08767696 0.0065141497 -0.07620207 -0.06940178 -0.0634079 -0.09289642 -0.061087538 -0.045496803 0.05893164 0.28525233 0.17150834 0.01085765 0.09850742 0.12191604 0.039604723 0.07301944 -0.17300834 -0.21531323 0.16287875 0.21871541 -0.21111408 0.011538928 0.13402791 0.08592515 -0.06679216 -0.017413346 0.0900414 0.11348309 0.0378858 0.08205174 0.13502717 -0.03668037 0.013592245 -0.14228246 -0.053373404 0.1923525 -0.26315436 0.14651161 0.100233056 -0.03228204 0.051883634 0.18425605 -0.1411306 -0.15783627 -0.073243305 0.13553762 0.067244366 -0.16777559
41 -0.07732584 -0.0665004 -0.0065178624 -0.12181693 0.07253527 -0.20332973 0.09031781 0.057263594 0.03429698 -0.0939783 -0.08019397 0.028374098 -0.009493704 0.078156225 -0.050069377 0.0045532524 -0.111304395 -0.14898428 -0.040011745 -0.040239725 0.2472889 -0.10431852 -0.047664285 0.024277015 -0.058652334 0.13026302 0.049497064 -0.11008755 0.040604945 -0.04282144 -0.06855588 0.1627319 -0.12769401 0.099332646 0.011586717 -0.012478783 0.101134904 -0.07659349 -0.056197956 -0.16044664 0.039070882 0.12888668 -0.08648061 0.14280955 -0.19935916 0.16797565 -0.009766265 -0.04093191 0.057445757 0.043458298 -0.08001023 -0.07313755 0.27211362 0.15082504 -0.05259121 -0.13002369 0.1071438 0.033929233 -0.012910779 0.0068912255 0.083201535 -0.16465133 -0.22060353 0.19349964 -0.11094915 0.0081422925 -0.12652513 -0.14569779 -0.087140515 0.12452735 0.12653334 0.028564857 -0.014638582 -0.16129361 0.17220916 0.021403044 0.06918379 0.09572656 -0.15720163 0.015569272 0.07292196 0.024965918 -0.20568827 -0.17321447 -0.06977675 -0.11121356 0.2187309 0.058206305 -0.16942535 -0.030154895 0.1524922 0.056211088 -0.02790623 -0.088296406 -0.025032407 -0.043998543 -0.00496943 -0.06109045 0.03784031 0.05462538 -0.060737662 -0.19626223 0.02814937 -0.0076082502 0.08786209 0.11851971 0.061053064 0.099369064 0.051179532 0.064303815 0.14318806 -0.031042678 0.017195681 0.1669365 -0.04525857 0.1255827 -0.48125666 0.09183153 -0.16861401 0.11512524 0.022674257 0.118539974 -0.119725235 -0.0981576 -0.09774833 0.16933884 0.12583864 0.030179156
16 0.00063301675 -0.13727255 0.013070284 0.038496956 0.035295513 -0.27970016 -0.14136454 -0.12119061 -0.015040671 -0.051679425 0.04666776 0.11716088 0.031718258 -0.052989993 -0.052640304 -0.082033664 0.09575843 -0.06894105 0.0633343 0.18279785 0.12404536 -0.06107675 -0.11025928 0.042810656 0.07066123 -0.05948023 -0.02924288 0.051381156 0.082876354 -0.17389543 -0.0011507832 0.03463072 -0.15434782 -0.024903733 -0.0038754453 -0.14163153 -0.07390959 0.15703541 0.10663719 -0.18866092 -0.14707136 0.13523449 -0.035414357 0.35475126 0.20093495 0.04443061 0.05765009 -0.18784782 -0.082292095 -0.015502174 -0.034101658 0.13991396 0.16774997 -0.063540205 0.10970464 -0.07062792 0.11200566 0.1224842 -0.01729048 0.086797364 0.02618572 -0.21212317 0.0931011 0.13936965 0.0027354416 0.14222741 -0.03261894 -0.016358288 -0.22069705 -0.29885894 0.30540767 -0.032031078 0.0943565 0.0019914056 -0.0076837726 0.16128638 -0.016387325 -0.0444086 -0.055287287 -0.017454104 0.12346808 -0.014148907 -0.046001293 0.062429123 0.0139952665 -0.17270909 0.28443107 -0.016482934 0.00568812 0.05948666 0.120461404 0.10093737 0.08116709 -0.026944041 -0.016408054 0.034336254 -0.030270763 -0.13537946 -0.096073546 0.005334146 -0.3588972 -0.036281176 -0.052088924 -0.08914755 0.03509867 0.1534621 0.14240108 0.23816386 0.0031270813 0.20057477 0.20128138 0.032296877 -0.17087145 -0.23420319 -0.065888055 0.18238978 -0.12846094 0.21094404 0.1520438 0.046930388 -0.020915868 0.058983266 -0.20551832 -0.064723566 -0.058978785 0.2681937 -0.0045335907 -0.10281893
10 0.084918976 -0.26271614 -0.09264245 0.07174787 -0.0014914409 -0.026313454 0.12249518 -0.11223385 0.11555147 -0.069968745 0.0859542 -0.072448656 -0.20696849 -0.2934781 0.034249913 -0.17872547 -0.19074339 -0.17781557 -0.05023017 0.1274026 0.08873739 -0.03965779 -0.18609661 0.060385466 -0.0048445216 0.050349317 0.061333656 -0.041922435 0.041405942 -0.054565463 0.13993827 0.030166784 -0.020310657 -0.022351533 -0.16920987 -0.042907383 -0.0009426401 0.020908125 -0.063245475 -0.030673424 -0.12477651 0.13541594 -0.09764418 0.16465831 0.1968761 0.16433124 0.0074807163 -0.18848062 0.02285531 -0.032058883 0.059144776 0.15594156 -0.08882008 -0.07443772 0.0171614 -0.00792333 0.15260144 0.1558833 0.04309715 0.16214962 0.066902414 -0.004963361 0.034131978 0.17064202 0.03971422 0.24458326 -0.0985118 0.020910434 -0.11967961 -0.06337363 0.06969355 0.21343865 0.18360014 0.026362797 0.2750833 0.05872571 0.13660507 -0.103902906 -0.0950165 -0.11801928 0.18906848 0.0793323 -0.14525628 0.05654059 -0.23022749 -0.15600348 0.10059861 0.06862439 0.012654654 0.1623304 -0.07721951 0.21951428 0.025870692 -0.0068708765 -0.09946926 0.1085603 -0.039735634 -0.07850127 0.11103338 0.01659989 -0.22648625 -0.11366402 -0.04319593 -0.26829502 -0.051729485 0.13641827 0.11206415 0.20733611 0.059355676 -0.08700897 -0.00018817483 -0.01268069 0.11353431 -0.044755165 -0.01931153 0.15586343 -0.24566945 0.19971596 0.08867281 0.013017803 -0.13306132 0.008503085 0.13007899 0.09367488 -0.1808793 0.082693666 -0.21908161 0.21464474
20 0.05297068 -0.26580104 -0.015508274 -0.08794665 -0.056896705 0.04801139 0.13459294 -0.072173774 -0.043853592 0.013617172 0.042739574 -0.04615157 -0.16555145 -0.093085654 -0.006433128 0.043324083 -0.32879442 0.09325002 0.1335338 0.08182504 -0.01354415 0.05446749 -0.082064606 0.071170196 -0.11427238 0.27636206 0.051122174 0.040245175 0.04219946 -0.08770211 -0.13054053 0.03900976 0.037598584 -0.014883037 -0.13281713 -0.068209834 0.061330274 0.06851795 -0.101336055 -0.14928766 -0.29492038 0.32769826 0.040978376 -0.052198317 -0.024703773 0.23975788 -0.116959706 -0.25259522 0.035563238 -0.029935112 -0.12357226 -0.032385323 0.03897944 0.14406455 -0.0010376287 -0.12223776 0.10239987 0.015086594 -0.020642208 0.1788036 0.11077266 -0.05773536 0.06512038 0.07377441 0.01589974 0.12899469 -0.011195567 -0.26036778 0.0759188 0.06975441 0.061413426 -0.0023532095 0.22050793 -0.10328596 0.41709125 -0.06752764 0.09959236 0.0112383915 -0.17765091 -0.021690974 0.19518377 0.012863588 -0.18872605 -0.076137625 -0.1265092 0.11545683 0.19080879 0.15193307 -0.17981766 0.18301779 -0.007906833 -0.043835 0.28382805 0.038047776 -0.13485888 0.048199803 -0.07372072 -0.052589327 0.12914087 0.026850136 -0.17883168 -0.07831991 0.06812593 -0.020403475 0.14733472 0.19193968 -0.048420694 0.04208684 -0.10070879 -0.083410695 -0.008347414 0.1953122 -0.09114272 -0.14195041 -0.058845434 -0.048896138 -0.1161415 0.14393595 0.03774548 0.021446517 -0.21850947 0.12044481 -0.06960908 -0.11663591 -0.1009026 -0.06812898 0.0440008 -0.066400856
23 -0.07754728 -0.08525495 -0.009771448 0.12508503 -0.042626802 -0.07760428 0.13578214 0.31732795 0.021736443 0.16827455 -0.21230729 -0.05495806 0.10197766 -0.10162259 -0.14569576 -0.014590287 -0.060734913 -0.050586533 0.08161273 -0.18368474 0.05413406 -0.2805807 -0.17942162 0.11420258 -0.063450135 0.07309776 -0.04236213 0.07826881 -0.021395309 0.019693822 -0.056973696 0.03624279 0.024422107 -0.015476809 -0.07002389 0.0502956 0.19584957 -0.03511315 -0.005156672 0.011215913 -0.11327611 0.14076367 0.031180933 -0.011455104 -0.08674197 0.15296786 -0.08093516 -0.3596204 0.143515 0.106531724 -0.18912658 0.13816488 -0.037022594 -0.10471233 -0.11450462 -0.21962793 -0.08667202 0.109788544 -0.12643456 -0.10125946 0.1250641 -0.006677439 0.06784432 0.05605678 0.04039351 0.028442614 -0.08967478 -0.24480739 -0.0034182128 -0.11401106 0.034919146 -0.13803929 0.1562341 0.112428784 -0.17956468 -0.081938826 0.16253754 -0.044295583 -0.20008683 -0.04480008 0.05516348 -0.11941871 0.04593545 -0.027236521 -0.07617838 0.11834477 0.09254947 0.111450315 -0.012331771 0.2689441 0.21675834 -0.011406912 0.16601154 0.01809888 -0.04360446 0.118675694 -0.008534743 -0.1907102 0.12001903 0.23509008 -0.14047919 -0.020869529 0.12621166 0.08407181 0.008422542 0.022186156 0.11859807 0.12426078 -0.062088184 0.013730591 -0.09762544 0.091712244 -0.15427929 -0.04665207 -0.03508204 0.069996394 -0.19097115 0.050397664 -0.057591125 0.030380096 0.17863731 0.110498056 -0.08280933 -0.11898124 -0.14334655 0.05977001 0.1244362 -0.07662385
376 -0.12528089 0.017712835 0.04411733 0.17254733 -0.048700646 -0.15635614 -0.06469461 -0.10860678 0.082145944 0.12623441 -0.07729027 -0.22784151 -0.07229565 -0.03886944 0.049175993 0.24243453 0.024146369 -0.058116246 0.2257862 0.084556855 0.059394076 0.081832446 -0.11619942 -0.093214795 -0.017633839 0.037768755 -0.11286251 -0.046181258 0.085310616 0.19786644 0.03294113 -0.07600953 0.17090489 0.041854102 -0.098957025 0.019567424 0.03451601 -0.04209758 -0.086294636 0.031304717 0.085800394 -0.085894465 0.013400595 0.03961101 0.0007074888 -0.07989669 -0.072880186 -0.37625545 0.052604556 -0.16577971 -0.018294588 -0.051429614 0.13021338 0.3615348 -0.15491179 -0.08981273 0.058260135 0.008163408 0.09140146 0.026056144 0.14101155 0.0014457869 -0.13510981 0.09921204 -0.009246611 0.21137103 0.060298666 -0.26017827 -0.16423991 0.034192827 -0.025561124 -0.030989055 0.17511514 -0.033351164 -0.023933806 0.3424646 0.03413505 0.020315394 0.1590852 -0.044693876 0.14722276 0.011533456 -0.022823151 0.018338207 -0.10216192 0.106955 0.093057714 -0.016277859 0.07714992 0.028701171 0.026162686 0.021256723 0.03386601 -0.058509834 -0.23188768 -0.12029185 0.23859745 0.051130258 -0.087320656 0.03315826 -0.1802753 -0.09512205 0.17612654 -0.013886973 0.027031079 -0.094897605 0.111768186 0.05746354 0.061860252 0.031515595 0.21446154 0.13987623 0.014550822 -0.18837184 0.06902864 0.2513588 -0.12055605 0.09071905 0.05899057 -0.10951458 0.08681683 -0.0053748386 0.0385653 0.25916222 -0.06400778 0.17239042 -0.08300354 0.10935887
19 0.14553976 0.06272635 0.120741546 0.060922883 -0.04175987 -0.19064045 -0.05380476 0.16668904 0.00034957967 0.06362183 -0.16613756 0.1351406 -0.054887567 -0.07045868 -0.055148687 0.1732844 -0.12612294 -0.03855631 -0.057743285 0.25261986 0.08186564 0.013180306 -0.007191258 -0.009393807 -0.14012344 0.10618791 0.22607392 0.07462783 -0.0017744865 -0.115242936 -0.17248273 -0.0101999855 -0.08798094 -0.05145815 -0.06345886 0.17265658 0.120942995 0.039300382 0.15647538 0.011227383 -0.07298625 -0.07365781 -0.12961987 0.14835964 0.088325486 0.21115188 -0.024308188 -0.2771481 0.1403503 0.027775802 -0.023450105 0.02124779 0.10005305 0.19137911 0.020417664 -0.288227 -0.23945439 0.004826709 -0.15713897 -0.026597982 0.17296633 -0.14573257 -0.03487405 0.12345945 -0.085888505 0.0661754 -0.087954715 -0.35140797 0.030498764 -0.007946692 0.101442516 -0.17862359 0.10674243 -0.039040703 0.08623365 -0.024682859 0.13905832 -0.021536682 -0.107644305 0.120646745 0.02719522 -0.05951535 -0.05284247 -0.058954384 -0.03853604 0.13842261 0.32616374 -0.02830306 -0.18904251 0.062418114 0.039632075 -0.15742908 0.11568552 -0.12976393 0.026865387 -0.030202081 -0.10713995 -0.045222685 0.24322604 0.12437847 -0.17791626 0.010166192 0.047471087 -0.0104123745 0.20951243 0.10520961 -0.008406426 0.27486542 -0.021667834 0.0513341 0.12221911 -0.07714629 -0.073842816 -0.1858558 -0.1354871 -0.023089092 -0.32620144 0.14516415 0.0700854 0.08507478 -0.13669075 0.090246685 -0.10596496 0.025324384 -0.079067364 0.21719018 0.032099172 -0.011326688
67 0.13514784 -0.06513695 -0.013552914 -0.08339346 -0.022681156 -0.086323865 -0.0687361 0.2133291 0.010173765 -0.018643035 -0.08456363 -0.023329122 -0.110272065 -0.07332129 -0.16690822 -0.13367897 -0.112024024 -0.008308052 0.07891923 0.1482738 0.18444179 0.091724135 -0.061504435 0.025016164 0.09122268 0.14722534 -0.01791768 -0.0014018748 -0.0336639 0.015443273 -0.048141513 -0.05560267 0.02718826 -0.06815368 -0.20920892 -0.05003011 0.17378931 0.09084106 -0.1128999 -0.13537419 -0.17516848 0.011599629 -0.2397457 0.19698119 -0.1841143 0.051104404 0.052951515 -0.056294322 -0.15183508 0.08150784 -0.0053739925 0.046112504 0.02982608 0.2513617 -0.08420131 -0.29768673 0.015807841 -0.07776049 -0.21080716 0.15558414 0.09390458 -0.08808542 -0.18842834 0.24273477 -0.033573113 -0.099729024 -0.099812336 -0.18141077 -0.2678991 -0.119021975 0.11576205 -0.051896434 0.050939776 -0.017774073 0.074831575 0.0033363083 0.11061684 -0.01988687 -0.03156116 0.024185333 -0.020001095 -0.0035860538 -0.11819361 0.02285223 -0.06032912 -0.007772145 0.08489699 0.030965352 -0.10974285 0.08649886 -0.0642676 0.09092685 0.08644732 -0.054962765 -0.013897124 -0.059988618 0.14097168 -0.09092281 0.1407577 0.09389133 -0.110506065 0.19896138 0.020394327 0.09355157 0.1727653 0.19309211 0.075781114 0.18309462 0.11910059 -0.107897855 0.15228711 -0.009566408 0.0052915993 -0.18236281 -0.09890569 0.14737825 -0.22568667 0.1472522 0.19868702 0.11885527 -0.09164523 0.03743268 -0.10191077 -0.13037784 0.025742479 0.18881984 -0.13550907 -0.043847594
8 -0.11142584 -0.13367237 0.15880807 0.017216396 0.26225993 0.024622668 0.06940137 0.0654079 0.07877086 0.28283292 0.0056232745 -0.12810713 -0.049440507 -0.18441135 0.010189986 -0.0959362 0.018613435 -0.18458715 0.07982451 0.02471317 0.3759916 -0.09000827 -0.038202584 0.15719882 -0.052495364 0.24146532 -0.08733001 -0.01092449 -0.0042001135 0.01588252 0.13045777 0.12018204 0.06705322 0.1958864 -0.06539586 -0.06374291 0.27473247 0.063207015 -0.01864789 -0.108857624 -0.052207563 0.29115358 0.10916278 0.2281932 -0.15421449 -0.0037940275 -0.11619668 -0.22952488 0.046541624 -0.01854434 -0.23977849 -0.14593217 0.24745959 0.09822841 0.06606749 0.02496341 -0.23328097 -0.15034659 0.2078844 0.056049768 0.1457147 -0.23187944 -0.110707365 0.111669786 -0.0653392 0.0833118 -0.16940345 -0.12653689 -0.026163451 -0.1692303 0.10275171 -0.082929984 -0.12239217 0.15735973 0.11914792 0.032784235 -0.08501232 0.16055968 -0.22886127 -0.17410664 -0.0002959084 0.33184412 -0.15375414 -0.01360631 -0.065265596 -0.07488318 0.008849351 -0.19500147 0.05511222 0.043179657 -0.0012181352 0.1841118 -0.050945513 0.2425486 -0.109871015 -0.11753676 -0.0066676037 -0.19579752 -0.1260887 0.05521907 0.037490897 0.058541924 0.026037952 0.15297228 0.1536897 0.0088143675 -0.11659431 0.1098717 0.042334422 -0.15925385 0.2109983 -0.035780214 -0.060056414 0.03194439 -0.1083497 0.08703912 -0.08447631 0.10706879 -0.040935617 -0.12534535 -0.09985965 -0.15834612 0.04336308 0.069263525 0.02142 0.15764494 0.2172706 0.08765609
24 0.10054535 -0.14802408 -0.014777386 -0.007882166 0.18758272 0.043997053 -0.06838041 0.060025465 0.007000763 0.20324872 0.098430805 0.19573183 -0.18177822 -0.20762113 -0.002382649 -0.094754696 0.072776586 -0.08078021 0.2117037 -0.12279174 0.32282993 -0.22366056 0.012883865 0.06756051 0.09865384 0.029596323 -0.108148955 -0.08633671 0.023033755 -0.04026775 0.07275418 -0.020626193 0.09360739 0.103104316 0.02569655 0.1287929 0.34190187 0.063090526 0.15671901 -0.056250326 -0.25873822 0.33166587 0.08478139 -0.30187145 -0.410543 -0.00996411 0.059455767 0.057845883 -0.029101985 0.32566893 0.06397467 0.17198399 0.17380439 0.4154534 -0.21955696 0.13457601 0.1388773 -0.2701891 -0.12919249 0.023639848 0.021906966 -0.11453859 0.041299414 0.17872763 0.038723778 0.0761057 -0.09884297 -0.13561739 0.06124916 -0.24164237 -0.04890161 0.07398693 -0.019962674 0.020415766 0.015404221 0.01676194 0.13532487 -0.17558655 0.0059798583 -0.3831942 0.026628576 0.024846194 -0.028854651 -0.035010744 0.0008161517 -0.1415619 0.012398835 -0.01256925 0.0061621545 0.056524877 0.026548691 0.13748969 0.079274446 0.05358133 -0.019154469 0.16441676 -0.013028665 -0.09631613 -0.08662575 0.028999679 -0.16096811 -0.0024014234 0.16849063 0.24840301 0.09841308 0.278265 0.26794285 0.06395377 0.08251878 -0.05902524 0.13267742 -0.10637324 0.105690666 -0.17381783 0.082539335 0.39871314 -0.12896565 0.22929005 -0.060674112 -0.0651065 0.045453202 -0.19334535 0.1394051 -0.06660032 0.13189338 0.13003819 0.10783039 0.12864539
11 0.029516507 -0.33375004 -0.021074876 0.07076539 0.0073131444 0.051823292 -0.030158928 0.04537884 0.006052949 0.03142392 0.0148501415 -0.049623612 -0.16442272 -0.22430742 0.06812119 -0.22424795 -0.14397721 -0.20299208 -0.0058047357 0.14716525 0.13760214 -0.028102925 -0.016346652 0.0755138 0.08353974 0.08582894 -0.13699116 0.034755617 0.08335687 0.05893489 -0.052218016 0.09573583 0.068026654 -0.016261961 -0.15038703 -0.030278193 0.017681139 0.08561218 -0.014035101 0.08733115 0.043344308 0.20256782 -0.09646792 0.17668551 0.08994918 0.24517713 0.16588524 -0.20824052 0.040449355 0.18377313 0.15724263 0.13972814 -0.19455679 0.07878514 -0.049052287 -0.008541403 0.14583394 0.119278476 0.04483423 0.20339286 0.2736212 -0.14300425 0.19999725 0.26988026 -0.046928804 0.15129036 0.023699043 -0.03214468 -0.06326058 0.037706416 0.12012991 0.116356224 0.13123976 0.023639407 0.07740085 0.05786324 0.045086462 -0.038902994 -0.091244504 -0.17132664 0.11353288 -0.18605842 -0.12929747 0.06851356 -0.072254874 -0.1493992 0.0074761007 0.091499686 0.2616461 -0.004646047 0.16879271 0.11679183 -0.14991264 -0.0632873 -0.13193148 0.040217537 -0.063713305 0.15500921 0.17384727 0.09733578 -0.174651 -0.100608386 0.006162739 -0.24115022 0.069038525 0.02001566 0.19200028 0.25598055 0.050561983 -0.02782886 -0.09166405 -0.08017823 0.19045916 -0.127493 -0.057504144 0.22077402 -0.2130983 0.005755268 0.086732425 0.16582362 -0.18378334 -0.017708702 0.14153369 0.042015377 -0.09618568 0.11021627 0.030697921 -0.03848917
387 -0.09274793 -0.116625786 0.11671089 0.30452365 0.047862645 0.033573538 0.14265068 -0.023052644 0.1479093 0.11637246 -0.053217 -0.13764587 0.13110957 0.01875617 -0.052093282 0.0086972 -0.06362019 -0.081784956 0.15636949 -0.010557612 -0.15216115 0.03230973 0.018621128 -0.12821051 -0.078117505 0.102007866 -0.17303053 -0.037921708 0.0038600515 0.23571694 0.16182543 -0.010862403 0.098023795 0.07623998 -0.11833111 0.09581994 0.0797262 0.07331101 -0.1277951 0.06814358 0.012082338 -0.027526716 0.045136843 -0.013512793 -0.006981414 -0.0035940662 -0.07474634 -0.4058766 -0.12187161 -0.08888312 0.025317883 0.0014133697 -0.0098476615 0.37131056 -0.05098321 -0.14351566 0.01082213 0.07352065 0.11535024 -0.020362891 0.14920837 -0.015469763 -0.1204578 0.06536345 0.04318231 0.20855847 -0.0349743 -0.08520525 -0.26640004 -0.02590478 -0.0062899194 0.017503472 0.089172065 -0.11591875 0.12907444 0.23360601 -0.06979961 -0.03800122 -0.057791907 -0.068760924 0.06023142 -0.08693984 0.009283689 0.03617271 -0.0051427837 -0.19247942 0.025130933 -0.096371554 0.01806009 0.019083465 0.14466144 -0.18187869 0.008145126 -0.054502953 -0.12701282 -0.08742371 0.18347895 0.10953645 -0.16801974 0.053538635 -0.10062006 -0.09810592 0.23813754 -0.06832168 0.0993494 0.0123365335 0.03314185 -0.031980846 -0.09620801 0.027008202 0.071160816 0.097745135 0.03189961 -0.1578161 0.09838904 0.25523606 -0.15984285 0.054898597 0.18892078 -0.03377052 -0.043482307 -0.106763676 -0.11471303 0.08951336 -0.15296131 -0.0063044857 -0.12140236 0.06494038
26 -0.1489256 0.07943463 0.0232696 0.15795685 -0.03636984 -0.039186005 0.15285905 0.05297375 0.07219592 -0.019454453 -0.217332 -0.0750871 -0.16585083 -0.22523879 0.14404939 -0.051177137 -0.06580678 -0.25072843 -0.04066512 -0.0012156948 0.18243922 0.11808389 -0.123180285 0.34257212 -0.22725171 0.057029665 0.007724326 0.03962767 -0.037398063 -0.2087712 -0.013792988 0.18433149 -0.1770963 -0.11121106 -0.14091636 -0.20180006 0.11227725 0.0106956875 -0.07271145 -0.1659833 0.0037906638 0.16693816 0.20846665 -0.08116199 -0.27923527 0.28079796 -0.035446722 -0.21512747 0.040023487 0.20043652 -0.17256245 0.005537611 0.084035695 0.28657773 -0.13146178 -0.27561167 -0.047693793 0.11286924 -0.07300429 0.08479036 -0.04779242 -0.13066503 -0.15511979 0.101384945 -0.07479241 0.06709219 0.0010873671 -0.12833996 -0.051384345 0.082632504 0.12091956 0.026152186 -0.21154417 0.042357776 0.18886726 0.26803213 -0.13196085 0.1002003 -0.20767394 -0.22329341 -0.13209686 -0.015666114 0.11914909 0.04158448 -0.118515156 0.08993748 -0.0580994 -0.15687828 0.24822989 -0.22129561 0.11951291 -0.1276408 -0.15162836 -0.016244877 0.01394179 -0.00313264 -0.030718677 0.10289496 0.14407355 0.1731878 -0.11719266 -0.09471027 0.23364322 0.11843509 0.15312582 -0.012262694 0.03654705 0.033170592 -0.078069404 -0.13028704 0.08660382 0.07377323 0.11907745 0.11134853 -0.28630373 -0.007586878 -0.11372627 0.0018581057 -0.045311835 -0.1016075 -0.09949596 -0.16869946 -0.07701811 -0.12315176 -0.10580831 0.15607965 0.00085513166 0.0066653714
36 0.096315235 -0.09719242 0.069897495 0.17498004 -0.072329015 -0.16631669 0.14468747 0.11407635 0.18063991 0.03898521 -0.09312217 0.016475007 0.18840626 -0.21021482 0.022872157 0.013743037 0.08522446 -0.023426129 -0.121408835 0.019501144 0.12934355 -0.22954637 -0.0661912 0.117667854 0.112160414 0.14021663 -0.2982901 -0.09760727 0.022908824 -0.1519159 0.12322885 0.0075118877 -0.0023875486 -0.11037274 -0.040652037 -0.11432253 0.12664635 0.04803307 -0.23394947 -0.086754344 0.002770766 0.15421525 -0.0012265962 0.027246786 -0.107573606 0.086063296 0.1454107 -0.06335637 0.019855242 0.07088474 -0.26010633 0.052770697 0.1874923 0.14682953 0.03482961 -0.18513183 -0.28879493 0.07916627 0.03571434 -0.03796964 -0.02246658 -0.04477118 -0.047658365 0.24135603 -0.15335092 0.08276253 -0.070056535 -0.02455622 -0.06721742 0.007991846 0.019407958 -0.19689316 -0.10355671 0.09309795 0.20981935 0.017966775 0.025606943 0.06366963 0.031825718 -0.07716014 0.10219102 -0.123927504 0.13749722 -0.014173885 -0.26544052 -0.09257194 0.028001117 0.005808706 0.045526754 0.03435162 -0.03999474 0.1761694 0.08181147 0.117188096 -0.01962984 0.290135 -0.1994702 -0.03765381 -0.1353362 -0.09207075 -0.34714824 0.020476151 -0.0116177015 0.038600266 0.14841081 -0.091846384 0.25608936 0.030667262 -0.093301766 0.11717983 0.038200215 0.1396631 -0.14273497 -0.039910115 -0.043722093 0.12261219 -0.2265703 0.0993414 -0.027944103 -0.080847494 -0.17368732 -0.11051701 0.023060758 -0.14909275 -0.09609388 0.092389986 -0.0313155 0.032452594
6 0.09011445 -0.2660084 -0.08918529 0.11881223 0.115669355 -0.20035487 0.069993906 0.099084094 -0.109198235 -0.015820501 -0.05338145 -0.13355835 -0.04331606 -0.093295015 -0.01972863 -0.19111064 0.02997361 0.014408889 0.21772946 -0.14111461 0.14441131 -0.012223645 -0.17196879 0.22137675 -0.03125145 -0.042816885 0.15018961 0.07882878 0.04344496 0.020900548 0.050400548 -0.08317954 -0.07495748 0.003981618 0.015188727 -0.13840596 0.19523191 0.13429719 -0.092600554 -0.13897216 -0.12775275 0.2169304 0.036605835 0.08037487 -0.042053327 0.1290802 0.04047679 -0.15662335 0.009606713 -0.0055686296 -0.068818346 0.111734785 0.1408545 0.09439409 -0.14186642 0.09182459 0.12278223 0.08171637 0.04253214 0.26147878 0.036371548 -0.010123813 -0.1066439 0.018393368 0.036659244 0.16213451 0.07078072 0.13756162 -0.019757958 -0.18191583 0.09669537 -0.026374102 0.076216206 -0.06439452 0.13123283 -0.07659415 0.12569427 0.08669189 -0.03441957 0.028583135 0.17608885 -0.037913468 0.0067701973 0.06964726 -0.13318561 0.058725268 -0.010722607 0.16459928 -0.017605355 0.13863046 0.25156304 0.041633062 0.19802776 0.087586634 0.07581874 0.122912094 -0.00052207784 -0.22586177 -0.11799305 0.05657801 -0.26274067 -0.07288148 0.139046 0.051320132 0.0654321 0.13767979 0.16299708 0.1584718 0.047840305 -0.01736981 -0.0040933965 -0.048268083 -0.084308006 -0.0023308897 0.042023703 0.20045696 -0.1336842 0.15151647 -0.016523272 0.084575504 0.015652865 -0.040449988 0.060355473 -0.036699705 -0.08589132 0.1761335 -0.044208664 -0.03568511
40 -0.07351375 -0.08654843 0.023926008 -0.10705522 0.13968551 -0.19726893 0.1056383 0.053271625 0.08615629 -0.014294214 -0.131003 0.10192315 -0.01541251 0.22038974 -0.24796247 -0.14378537 -0.0665586 -0.14394137 0.05365286 0.0719607 0.03250333 -0.17533451 -0.11922468 -0.03659232 -0.010640916 0.20397088 -0.09210774 0.00082921254 -0.04888192 -0.07925986 -0.13262506 0.12680276 -0.18552288 -0.011572086 0.003918594 0.2115708 0.20150013 -0.19100821 -0.14539576 -0.015204316 -0.073495954 0.11309448 -0.040264655 0.13809867 0.032715663 0.06851103 0.04722075 -0.19070484 -0.10729042 0.021386921 -0.0197743 -0.04417049 0.14496562 0.243283 0.1149967 -0.13284914 0.09477457 0.15634158 -0.2072866 -0.019452147 0.08309373 -0.12055312 -0.09057456 0.12570746 0.016295439 0.1269195 -0.025391316 -0.33870032 -0.09255481 0.061964724 0.04043869 -0.22846659 0.14632228 -0.0051615583 0.013610229 0.14615919 -0.13808475 0.03583302 -0.10927677 0.03863584 0.11470241 -0.035008498 -0.138738 -0.111235 -0.02248804 0.055090275 0.29605103 -0.0074639227 -0.18520127 0.023991013 0.27892235 -0.013504131 -0.13220063 0.09811969 -0.006870839 0.10067754 0.014436129 -0.111390665 -0.06351017 0.2564231 -0.0747419 -0.10757769 0.030460143 -0.18136635 0.13311437 0.10616022 0.12672256 -0.09909848 -0.25009194 0.017997302 0.1746428 -0.14740932 -0.020162782 0.09280295 0.11487833 -0.042640742 -0.31858912 -0.043817263 -0.06475797 0.14059235 -0.009961867 0.14769872 -0.18209895 -0.20133135 -0.07783001 0.16333199 0.17915408 -0.11462252
81 0.19825095 -0.15420347 -0.0066592167 -0.16631007 -0.03408405 0.08109265 0.028400047 -0.06879292 -0.06815298 -0.055190764 -0.22248633 -0.023337808 0.041578855 -0.20262338 0.07435973 -0.04553937 0.04846634 -0.065880604 0.00464338 0.10746831 -0.012356487 0.11245645 -0.13563609 0.0043771407 -0.08216118 0.20377603 -0.09760399 -0.26229283 -0.1730137 -0.12576717 0.05704572 0.07753357 0.02068492 -0.026421238 -0.10549982 -0.024852782 0.20298691 -0.083056115 -0.05840265 0.21209092 -0.22759834 0.10953312 0.02211287 0.016409313 0.21152562 0.081558384 0.024547843 -0.1658562 -0.17790931 -0.016920963 0.0063100057 0.041633066 -0.029070819 0.046458095 0.09214083 -0.18913452 0.05753009 -0.023896946 -0.088090055 -0.073146254 0.34415856 -0.27880755 0.028287476 0.1648528 0.17813346 -0.02823896 -0.036675997 -0.33922708 -0.16799079 -0.14654334 0.07083596 0.09378229 0.14313449 -0.017823188 0.017521158 0.027993806 0.18595448 0.1375855 -0.009799542 -0.0011136627 -0.12955673 -0.17117047 -0.28983563 0.009016976 -0.08293169 -0.28143996 0.09118573 -0.14721996 -0.07445163 0.12599714 0.14328526 0.23829924 -0.06816274 0.2353234 -0.21043353 0.083312735 0.031140625 -0.23066354 0.12873915 0.2969985 -0.13335757 0.17778799 0.077614374 -0.09477757 0.09754328 -0.07956098 0.030677544 0.13735037 -0.031904075 -0.024196282 0.064146414 0.09414256 0.06263447 0.07981932 -0.060207464 -0.04744673 -0.36439243 -0.0061196643 0.18914609 0.106376044 0.07536731 0.0015906742 0.047125306 -0.038931306 -0.14496832 0.07049349 -0.05512026 0.015685063
35 0.1030562 -0.16321132 0.21969654 0.07072985 0.02712078 -0.062269982 0.124808535 0.355579 -0.10550677 0.054211695 -0.12399795 0.18000588 -0.15550505 -0.13701421 0.04738065 0.15267603 0.028533265 -0.07296349 -0.12535863 -0.025523115 0.24228096 0.12059383 0.27272326 0.21892312 -0.18044809 0.12063982 -0.00502058 -0.21227339 0.15243095 0.041156214 0.073635295 -0.06940272 -0.13525222 -0.035036404 -0.07647845 -0.13809209 0.14704406 0.20561604 0.11652033 -0.1549111 -0.11125805 0.0604655 0.09668286 0.043298036 -0.21702333 0.1830069 0.29595712 -0.19150108 -0.0036971322 0.019156078 -0.03286095 0.15746632 0.1941814 0.14466678 -0.14056948 -0.12517945 -0.2200443 -0.21111374 -0.10137832 -0.10925777 0.09453178 -0.08809348 -0.21342184 0.3604014 -0.20476322 0.07128115 0.028879242 -0.19385597 -0.07258584 0.21881337 -0.100391835 -0.0717057 0.21508212 -0.035682727 0.036357485 0.10184672 0.05078039 -0.08019604 -0.11968865 0.15479441 0.0042425543 -0.0030053882 0.039241817 -0.108333245 -0.20628254 0.057517335 -0.19925751 0.03447659 0.062431324 0.14686428 0.099843174 -0.16475293 -0.06345543 -0.070664 0.10638478 -0.08898071 0.026492497 -0.0001958674 0.075069234 0.12399072 -0.16726921 0.046902664 0.1133116 0.029133692 0.059702456 -0.17920223 0.0724352 0.18416397 -0.13553011 0.10082544 0.007658816 -0.070921555 0.09589431 -0.15315899 -0.14556758 -0.19340874 -0.11792042 -0.099288076 -0.11235 0.08264761 0.12269179 0.036920533 0.08852217 0.19484672 -0.25619423 0.23093465 0.01834896 0.044353243
47 -0.09231178 -0.20155501 -0.08501768 -0.028731244 0.055143036 0.043729886 -0.021340422 0.17472298 -0.09688679 -0.09720786 -0.13851672 -0.13744795 -0.10411877 0.094338164 -0.12137461 -0.19231586 0.1563047 -0.07224989 0.2078625 0.060760453 0.020093815 -0.027968684 0.018382952 0.13879395 0.03488354 0.11294675 0.06633787 -0.010843127 0.16088165 0.06267897 0.06635107 0.04490406 -0.14399768 -0.030653602 -0.12144899 -0.07319323 0.13084501 0.04740244 -0.23407686 -0.006163495 -0.18145372 0.11963472 -0.0065717218 0.3019999 -0.073711924 0.0060122986 0.05696759 -0.12989894 -0.032575656 0.027671665 0.04624789 -0.023102665 0.18193354 0.11004496 -0.045618724 -0.33280423 0.046430852 0.064898446 -0.073554516 0.119329244 0.070458494 -0.28299865 -0.01650886 0.22777863 -0.020626992 0.03233079 -0.05755822 -0.05676729 -0.12585378 0.021144392 -0.06783614 0.07237803 0.02909737 -0.01645448 0.090290986 0.0108595835 0.1489671 0.044936445 -0.16405489 -0.13265337 0.08040742 0.10080248 -0.16456102 -0.1340074 0.00048527526 0.06599208 -0.01607706 0.16127437 0.075456925 0.12205253 0.30876213 0.020614492 -0.06512385 -0.010158413 -0.025443776 -0.023494119 0.11429069 -0.17278846 0.06900231 0.055359483 -0.041612845 0.059376903 0.18056957 -0.049003504 -0.16612063 0.21955995 -0.094565846 0.07721806 -0.14373985 -0.0696334 0.070017524 0.03182866 0.12914637 -0.056308817 0.036213044 0.1271458 -0.08971748 0.09232127 -0.0052577094 0.10528695 0.001827624 0.041383736 -0.058786485 0.09878362 -0.1626968 -0.0037524772 0.26248357 0.02851372
43 -0.14681959 0.021048136 -0.05905191 -0.023832506 -0.016253764 -0.10814764 0.16605361 0.1259191 -0.12883466 -0.18412676 -0.06583382 -0.050091002 0.00038722492 -0.0602602 0.039227724 -0.23655574 -0.13520351 0.051203765 0.0971006 0.023335468 -0.014578011 0.013387225 -0.00092191156 0.15075727 -0.15582839 0.20947808 0.0063079786 -0.064492896 -0.057728022 -0.14775302 0.091749236 0.17545731 -0.03222828 -0.22088923 -0.17673576 -0.12504603 0.21006455 -0.027341206 -0.011437543 -0.15420146 -0.0004889071 0.20076428 0.2304801 0.069947414 -0.07434842 0.11341039 -0.15460926 -0.19926198 -0.17993085 -0.20526838 -0.07324818 0.1710303 0.34721437 -0.007004631 -0.06799579 -0.14083685 0.13650294 -0.038292345 -0.26337767 0.22037338 -0.001676753 -0.052132167 -0.1041306 0.17180796 -0.041336663 0.12027546 -0.011297119 -0.10901267 0.027284324 -0.031615846 0.074481145 0.083423495 0.22777826 -0.17199473 0.05350523 0.076837935 -0.14917797 0.094785176 -0.101307176 0.008258837 0.10926132 0.04174227 -0.093296565 -0.20749632 -0.006720341 0.036135998 0.18829288 -0.06486904 -0.15698788 0.10507802 0.10340705 -0.05949616 0.039994065 -0.19969052 -0.16961448 0.049850855 0.036372017 -0.2441393 -0.17753974 0.099704936 -0.078937545 -0.03887624 0.015464797 0.12424524 0.07307531 0.064900994 0.088608764 -0.010902496 0.02239768 -0.09561934 0.07023577 -0.058056884 -0.018685428 -0.19797736 0.1254982 0.09989964 -0.26401293 0.19730476 -0.10477175 -0.07294212 0.064546816 -0.10624654 0.0013164695 0.18966559 -0.07707684 -0.02111919 0.15114847 0.068471886
53 -0.07192141 -0.2496404 0.03288055 0.10681245 0.046428666 -0.14098819 0.117318995 0.037918698 -0.14222787 0.09231887 -0.24715404 -0.08908852 -0.16653335 0.048448917 -0.14535232 -0.15288185 0.09061451 0.10181767 0.028401084 0.17701514 0.017901892 0.05606554 -0.018485315 -0.030980706 0.06561987 0.039000902 -0.023759445 0.004285151 0.030780165 -0.083662406 -0.14544716 -0.16861393 0.038539514 0.012533897 -0.013459064 -0.09898767 0.19461414 0.14754784 -0.093094796 -0.017751751 -0.19824903 0.21422856 -0.028418021 0.11397936 -0.1085576 0.084162354 0.041966118 -0.0906515 -0.046194687 0.14827444 -0.027618216 -0.055946026 0.17396133 0.10906785 0.066437304 -0.14787868 -0.09152129 -0.04231826 -0.07436863 -0.085342854 0.07885676 0.12432778 -0.06058927 0.008661636 -0.07874392 0.087593965 -0.07740244 0.053463634 -0.07666973 -0.0758822 0.013433608 0.05931895 0.17237076 0.15282291 0.04977481 0.23326571 0.089726 0.10349309 -0.05344748 -0.16129386 0.13637373 -0.11236838 0.017797176 -0.09232394 0.05780097 0.13141431 0.119084574 0.10282835 0.110483654 0.108546056 0.29918092 -0.02436221 0.08382382 -0.095397346 0.042273108 0.11614429 -0.055671483 -0.15664527 -0.28549016 0.1140378 -0.26167914 0.01846707 -0.0028400663 0.015498003 0.0859902 0.28304112 0.2058168 -0.031598967 -0.03233744 -0.0081362855 0.14845534 0.12065688 -0.043400813 0.023833347 -0.14497712 0.21246985 -0.12205303 0.17488365 -0.15992326 0.058298603 -0.014498222 -0.096772395 -0.052898716 0.0099586295 0.1853892 0.20565476 0.052443005 0.06266659
21 -0.07579217 -0.21203634 -0.05526099 -0.050915174 0.07376543 0.25227624 -0.018960116 -0.071005896 0.021800572 0.09080084 0.07397537 0.011953255 -0.13859853 -0.12865391 -0.06821252 0.087731816 -0.27974513 0.073068865 0.19446531 0.11487822 0.049200803 -0.1339317 -0.13826077 0.08943736 -0.09392872 0.07902317 -0.1310079 -0.20953998 -0.098364145 -0.105351366 -0.0714907 0.038301624 0.06916005 -0.030042915 -0.16253182 -0.2633703 0.09369917 0.19123627 -0.07687329 -0.10707831 -0.25948998 0.24106756 -0.11133947 -0.03371497 -0.092742674 0.3563791 -0.019250337 -0.13169234 0.00016116863 0.187406 -0.06399285 -0.15588352 -0.056457415 0.16201004 -0.09033823 0.06160237 0.09386018 0.08102439 -0.014842516 0.13132067 0.08921714 -0.07995744 0.07552257 0.08611265 -0.1233958 0.09606045 -0.059582494 -0.16542059 0.16681023 0.21149145 -0.0024103886 -0.17028373 0.13989343 -0.29412684 0.43124467 0.09560991 0.08085914 -0.05268021 0.007069793 -0.117942944 0.26748627 0.08127238 -0.1734109 0.07239379 -0.23021281 -0.21044381 0.21019298 -0.017335117 -0.051253784 -0.000765256 -0.05825627 -0.09703607 0.10346947 0.14786941 -0.18442157 0.13303842 0.015612301 -0.027242152 0.18948342 -0.06522648 -0.3280495 -0.02739205 0.033361744 -0.009551123 0.13183169 0.20387593 0.16945253 -0.018872036 -0.055746496 0.0053739646 0.050819382 0.05017427 0.0143458145 -0.109756686 0.092732266 -0.0908636 -0.12873568 0.1465743 0.24646375 0.1646337 -0.14224528 -0.03127085 -0.10347806 -0.11499087 0.053420745 0.081864245 -0.0073960302 -0.15591249
42 -0.06137925 -0.044400338 -0.08506839 -0.09637212 0.18795212 -0.0041414974 -0.12397947 0.09428249 0.14886402 -0.16652259 -0.023840265 0.031732053 0.09307815 -0.041289516 0.029424801 0.007220081 -0.07463133 0.03325896 -0.107765004 0.084504776 0.2945012 -0.13642621 -0.1378471 0.015252476 -0.026457604 0.007920341 0.02479358 -0.1655132 0.06474993 -0.13024713 0.12451783 0.16398583 -0.05589927 0.19740945 -0.12120228 -0.11799854 0.13871385 0.08077656 -0.13233483 -0.04901182 0.17888892 0.12258312 0.02883577 0.14234151 -0.17038968 0.08812128 0.059205454 -0.010030434 -0.0046142964 0.09598964 0.008997682 -0.1039568 0.33190575 0.099138044 -0.19111487 -0.11885602 0.0151634645 0.04920151 0.17426623 0.052254755 0.07425105 -0.13719401 -0.18573053 0.07796909 -0.08962035 -0.07731766 -0.08246578 0.10522092 -0.10969112 0.09557304 0.1493697 -0.007092482 -0.08316525 -0.30241576 0.08752361 -0.022000538 0.17396396 0.22259071 -0.114305034 -0.0990378 0.15406978 -0.19701244 -0.089304306 -0.11524239 -0.19530095 -0.2896433 0.21852358 -0.06580236 -0.0092582125 -0.085704945 0.17881013 0.16773556 0.019250503 0.068543114 -0.034769915 0.058120105 0.10744414 -0.08350627 0.03576737 0.080240406 0.006847619 0.0072567402 0.12538897 0.09394915 0.052459266 -0.009639143 0.068435654 0.080636315 0.01375922 0.055113506 0.08172173 0.093690835 0.14142545 0.13540934 -0.18633375 0.31192246 -0.31135142 0.17632258 -0.031320833 0.09291472 0.058210824 0.07490668 -0.14460076 -0.2109014 -0.14407143 0.22595929 0.035496663 -0.112792194
401 -0.0936513 -0.14014947 0.11776334 0.3425073 0.18375407 -0.09842284 0.091218404 -0.04299481 0.013531719 0.056885045 -0.17113812 -0.16875263 0.00759651 -0.064234525 0.05294965 0.33342323 0.029738208 -0.052741516 0.081879966 0.08904277 -0.035125233 0.08769133 0.13109733 -0.048248783 0.12199606 0.045587014 -0.06718266 -0.11731968 0.12561594 0.08209367 0.034138422 -0.027412316 0.14443292 -0.010508411 -0.16228803 0.0865603 0.14885141 0.05784697 -0.078493536 0.10213149 0.02522016 -0.049654603 -0.040924538 -0.17403105 0.022039164 -0.08358561 -0.015912104 -0.2664517 -0.036361847 -0.15174167 0.112630844 -0.058535907 0.03657118 0.28682855 -0.08273802 -0.10503171 0.005449748 0.0016461774 0.07791807 0.035605785 0.04230566 -0.050227243 0.0068913554 -0.010302488 0.05718129 0.34462044 -0.074680075 -0.027792787 -0.1558424 0.09041602 0.07490062 -0.18042247 0.07571345 -0.10806168 -0.034093734 0.34665787 -0.07346304 -0.04059858 0.11467271 -0.016110498 -0.1887308 0.030310428 -0.030316548 -0.0632877 -0.07938099 0.015579694 0.14888296 -0.07729502 -0.048614226 0.038731825 0.112115376 -0.15088671 0.0324165 0.06149078 -0.29505506 -0.046935048 0.23449065 -0.07545092 -0.1043277 0.10932473 -0.07136226 -0.057010755 0.2781852 0.06669313 0.18181191 0.06250828 0.13744003 0.12158024 -0.2718582 0.1588273 0.040413544 0.25067785 0.03343339 0.008348486 -0.017277319 0.2938422 -0.14460646 0.15240167 0.07635844 -0.138189 0.034744684 -0.069509745 0.07358767 0.122768015 -0.12678687 0.036406264 -0.036847305 0.032318138
56 -0.07804328 -0.21461609 -0.056976452 0.16287903 0.05637131 -0.25021088 0.049624324 0.048982468 0.017437536 -0.07401795 -0.060814578 0.13998543 -0.035270683 -0.059298206 -0.018911593 -0.15004188 0.010760107 0.03633614 -0.08334497 0.12401768 -0.023750855 0.038899146 0.15821733 -0.10933097 0.18713668 0.02291667 -0.09859362 0.0192308 0.059356466 0.060322497 -0.016111683 0.026101278 -0.13510732 0.093496494 -0.1677031 0.0070517054 0.23810384 0.25046837 -0.017001582 -0.22786982 -0.15021063 0.21868318 0.076540634 0.1655816 0.10720947 0.12899923 -0.16104054 -0.3701564 -0.017042985 0.033201266 -0.041605316 -0.11302746 0.17534436 -0.07725978 0.009218974 -0.26316863 -0.05442728 0.025132602 0.10325724 0.019520707 0.19508755 -0.11802048 -0.034050748 0.1772281 -0.13810237 -0.050193597 -0.06222059 -0.18141744 0.2594041 -0.062677816 -0.06314165 0.118108176 -0.017762778 0.11155914 0.005220744 0.16893522 0.033486515 -0.031555384 -0.034937207 -0.16647056 0.09870196 -0.05240276 -0.04253414 -0.026313031 -0.080949835 -0.013361772 0.0275016 0.0085483575 0.056302518 0.10687739 0.2487468 -0.11700646 0.15397239 -0.066506796 0.00587583 0.2370365 0.007932293 -0.09946172 -0.0012932824 0.011450352 -0.23749354 -0.06159512 -0.18430334 -0.051392023 0.15730059 -0.023618164 0.09230687 -0.10368135 -0.09843335 -0.21752197 0.21919489 0.0917517 -0.33723336 0.090457745 -0.060195085 0.07676763 0.07720735 0.08314477 -0.07864446 0.08857663 -0.01682825 -0.021414418 -0.012354817 0.08646353 -0.07632284 0.21743627 0.11989125 -0.028374245
4 0.10989196 -0.09111768 -0.14911477 -0.16098438 0.0020670942 -0.029871577 -0.11947349 0.2615684 0.017876353 -0.08622876 0.022756001 0.0032955536 0.054541215 -0.31189054 0.070275635 0.06632658 0.19989458 -0.024599338 0.07534624 0.081049904 0.1758672 0.12595764 0.021296063 0.07219764 0.0017633254 0.10090614 -0.035046685 -0.095701836 -0.023276128 -0.12369715 -0.010384463 -0.049401764 -0.025509045 -0.12885101 -0.07309076 -0.11309003 0.081766665 0.18822472 0.08884565 -0.14323933 -0.38421208 -0.09244684 0.19833092 0.15444408 0.005086399 0.24270944 0.03713014 -0.3083481 -0.18973105 -0.15174243 0.09323541 0.049033653 -0.008744075 -0.067501746 -0.1070764 -0.24214374 0.027723193 -0.0431855 0.008498158 1.2481536e-05 0.13061842 -0.1291001 -0.093051754 -0.028748194 0.10257936 0.14633441 -0.16978954 -0.1599648 -0.18462184 -0.18881933 0.086393364 0.100954145 0.21994431 -0.11191825 -0.13516189 0.25927347 0.2985575 -0.028963469 -0.1585655 0.1575784 -0.10060283 -0.34095243 -0.20828967 0.01118817 -0.07932526 -0.033397 0.1058705 0.10839104 -0.002911043 0.05995806 0.14581761 0.098127484 0.17589504 0.2035351 0.02109971 -0.037748583 0.120849624 -0.16816364 0.049389265 0.08525604 -0.11152416 -0.006717359 -0.0320512 -0.04284444 0.1303747 -0.050548263 -0.07699884 0.20019005 0.10083251 -0.03780263 0.01021413 0.26711917 -0.1303209 -0.0928489 0.0074889846 0.20045044 -0.04988759 -0.10769132 0.0868908 0.11238666 0.22134145 0.07385472 -0.14362727 0.08216889 -0.10487887 0.18476598 0.08345741 0.0228042
18 0.07135 -0.002229955 0.101412386 -0.21528457 0.1448328 -0.018110115 0.05382612 0.2235378 0.26613915 0.010987411 0.053788066 0.096461974 -0.036133494 -0.28223595 -0.15378284 -0.0655865 -0.3043155 0.011300723 -0.06860855 0.28727508 0.004547588 -0.12750165 -0.06454121 -0.16782832 -0.0030903209 0.16241069 0.09905594 -0.073593676 0.102439225 -0.19830197 -0.12585045 0.15489389 -0.13664535 -0.11707866 -0.0780632 -0.01699314 0.014218046 0.06471463 -0.07202313 -0.025619263 -0.042929485 0.0057492587 -0.17235604 0.18127652 -0.041830353 0.039495513 0.047952443 -0.07164582 -0.17559393 -0.020556893 -0.040125802 -0.0899583 0.13837957 0.18488473 -0.12453774 -0.05532904 0.059986677 -0.028542524 -0.1219092 0.08967839 -0.051562466 -0.06051264 -0.068156384 0.0047731763 -0.014709322 0.007744433 0.025711166 -0.15172836 -0.07783728 0.06974391 0.1937623 -0.1445518 0.1713744 -0.2547249 0.34322298 0.12348163 -0.13067883 -0.11527424 0.017047524 -0.051759534 0.1632965 -0.14346524 -0.055368524 -0.18744886 0.08389943 -0.20183262 0.36285514 -0.09470107 -0.25814733 -0.10272301 -0.027475657 -0.097139165 0.08119202 -0.031847667 -0.0956337 0.057634074 -0.095701925 0.0112400055 0.010917296 0.028343275 -0.23640683 -0.04361171 -0.015822979 0.11392462 0.10541709 0.20232771 0.18410255 0.12098113 -0.005278093 -0.10753057 0.24747221 0.10990889 -0.24523221 -0.40315905 -0.040695336 -0.0063110073 -0.24095938 0.22846715 0.09155712 0.054422885 -0.13664474 -0.07513397 -0.111925535 0.07136973 -0.03221754 -0.04643369 -0.114157565 -0.1182159
54 0.12285365 -0.34277564 0.06623768 0.065757684 0.038603462 0.016319802 0.070455745 0.066578545 0.020988503 0.13737033 -0.10522098 -0.016532723 -0.0094789425 -0.39951855 0.3134189 0.12150397 0.17058381 -0.06673981 -0.021228759 0.11917545 -0.1175652 -0.029238334 0.039627083 -0.057008784 0.19222192 0.030280635 -0.05461936 -0.24245994 -0.07434618 -0.2058971 0.2561192 0.07157435 -0.07175455 -0.01645978 0.18612212 -0.16486122 0.126274 0.12099255 -0.1556294 -0.19213153 -0.18977205 -0.03057633 0.107922845 -0.012915664 0.24684943 0.16840315 0.075382076 -0.29823643 0.20026653 -0.09994347 0.0058976207 -0.06399479 0.2277472 -0.118629076 0.0037709866 -0.12566301 -0.19367546 0.0802813 -0.099124394 0.047873925 0.09416111 -0.17502624 0.18199039 0.041301936 -0.04742379 -0.084887095 0.136985 -0.10813383 -0.07797425 -0.2654631 0.12526442 -0.008384625 0.12439988 -0.18473895 -0.025002453 0.24832319 0.14392179 -0.0127598485 -0.089238085 0.10860534 0.20055585 -0.03374721 -0.04220618 -0.13450034 -0.13351984 -0.0076951636 -0.012698531 -0.010523853 0.11048907 0.06440103 0.2799064 0.18068506 -0.054212637 0.15450047 0.062387567 0.52041 -0.0074612102 0.044082582 0.07655785 -0.021460755 -0.2182977 -0.017515598 -0.08235897 -0.2511448 -0.110365525 0.022196786 -0.07623219 -0.01886973 -0.16173208 -0.066364355 -0.031539112 0.08140522 0.03949093 0.004301163 0.02824054 0.21137767 -0.08797714 0.0693665 -0.10463089 0.09013188 0.028203622 0.11362842 0.17763838 0.16913189 -0.2189238 -0.04774005 0.12712479 0.056203235
108 -0.16993187 0.11637361 -0.039075173 0.099663995 -0.10109857 0.07604563 0.084661074 0.10033442 0.10533504 -0.03458084 -0.16673431 -0.15710339 -0.122795425 -0.29887554 0.1706978 -0.03426165 -0.07704302 -0.24497572 0.0302596 0.092130855 0.15260914 0.087472774 -0.15431103 0.32491735 -0.23956582 0.06496309 -0.05554132 0.06585738 -0.096489996 -0.18944132 -0.0077779144 0.114382416 -0.104160406 -0.12624155 -0.24906091 -0.14337339 0.047169633 -0.02564087 0.037671123 -0.049650654 0.10308769 0.16510178 0.18891774 -0.061368737 -0.36949596 0.28800863 -0.13003351 -0.28809452 0.10733958 0.11548062 -0.20927356 0.025462363 -0.017999781 0.23243994 -0.122219086 -0.23222448 -0.0700463 0.123726785 -0.2448085 0.04128043 -0.0157322 -0.11490337 -0.17935894 0.10734706 0.011450372 0.14875714 -0.03309044 -0.116823606 -0.11332957 0.18197824 0.039234016 0.07708521 -0.12558804 0.028718209 0.18881205 0.21770301 -0.14981249 0.17947681 -0.26631278 -0.18510285 -0.09468457 -0.0071185953 0.071183264 0.065195985 -0.17066658 0.11589463 -0.028629757 -0.17534019 0.3287956 -0.11238372 0.056451973 -0.04464199 -0.1594222 -0.11573055 -0.030971909 -0.013214332 -0.07720262 0.10929735 0.1552896 0.18447773 -0.13776475 0.057280313 0.06232056 0.04329346 0.18293865 -0.022230452 0.0056814705 -0.008862723 0.026275726 -0.2168221 0.053073447 0.14385003 0.07008154 0.008229033 -0.22807641 -0.049090628 -0.13834625 0.04327543 -0.11971847 -0.10693775 -0.08919326 -0.18560323 -0.109511815 -0.12926695 -0.118984915 0.06350611 -0.019996734 -0.024456108
476 -0.08343835 -0.13653603 0.13528863 0.33621022 -0.047420457 -0.07615907 0.021078316 -0.067301236 0.10696734 0.1216361 -0.051578168 -0.08226046 0.004395123 0.021432454 0.06950304 0.03946121 0.09170045 0.0057593747 0.23009576 -0.0033816227 -0.05071125 0.041297775 -0.074689016 -0.120871104 0.2065762 0.102832824 -0.06485175 -0.0798782 0.12239577 0.17911011 0.13272202 0.034843504 -0.041918363 0.11536527 -0.2008586 0.058910567 -0.012116714 -0.017989865 -0.17671046 0.010610813 -0.05961343 0.060651734 0.14125854 -0.013783943 0.14594814 0.054634906 -0.10273653 -0.376614 0.0827394 -0.03792304 -0.015443068 -0.17978683 0.050787337 0.39284116 -0.19085969 -0.08560415 -0.046109803 -0.04093589 0.15899248 0.13433987 0.07922557 0.040485986 -0.17489527 -0.00010914141 0.019755032 0.1726577 0.015709184 -0.14540885 -0.07914012 -0.11799453 -0.045219965 -0.083470374 -0.06481673 -0.07409306 0.16244683 0.30436012 -0.13235343 0.08564459 0.015046935 0.1408123 -0.0124584865 -0.077688746 -0.02510655 -0.0798946 -0.08319836 0.07956876 0.11840524 -0.054643486 -0.01909982 -0.0069880434 0.13518476 -0.017942024 0.17773949 -0.034096587 -0.097816706 -0.07250006 0.2029823 0.06783681 -0.16968356 0.11737403 -0.03548572 -0.008207181 0.20924439 -0.023186667 0.13604702 -0.02120431 -0.019842623 -0.045101803 -0.1548021 0.09560967 0.19040781 0.13080086 -0.02463847 -0.19791739 0.19522431 0.15101749 -0.24213825 0.23909618 0.24037506 -0.16869918 0.056311905 0.08861117 0.02664654 -0.009359242 0.015768563 0.06008599 -0.080476314 0.04466305
398 -0.028018987 -0.027925665 -0.1748668 0.2034109 -0.118788384 -0.10133067 0.029490007 0.14994034 0.12087574 0.122436054 -0.082823955 -0.28489447 -0.039562218 -0.05174849 0.012799311 0.1391847 0.015452107 -0.018055443 0.05248943 0.06974138 0.034141812 -0.018247133 0.10938531 -0.07255217 0.14496645 0.17653546 -0.23565061 0.029539635 0.17652982 0.13349918 0.18270132 -0.07163525 -0.18741979 -0.07528208 -0.11736756 0.15941088 0.09983049 0.16625254 0.029479442 0.105164215 0.030900141 -0.026857605 0.024922756 -0.009672246 0.052740004 0.02672948 -0.091602325 -0.25423965 0.06832616 -0.06642756 0.03810844 -0.24482703 0.024480501 0.14631565 -0.043644506 -0.04112712 0.116075166 0.23529251 0.06022559 0.08463762 0.067462966 -0.058044802 -0.18761022 0.011886808 -0.030389652 -0.19230245 -0.03793307 -0.10208061 -0.2635391 -0.074187614 0.03631906 -0.066787116 0.029121058 -0.12843877 0.124925405 0.12775584 -0.0072263447 0.12922111 -0.071575806 -0.18696998 0.12939756 -0.11966798 -0.069812395 0.16365394 -0.11790571 -0.059586547 0.12595603 0.15571329 0.0040500397 0.062397666 0.16118526 -0.21944547 -0.10698833 0.1566946 -0.26594272 -0.12929171 0.21754493 0.006319688 -0.09681525 -0.06049446 -0.031742606 -0.04935062 0.15823576 -0.13831222 0.053016838 -0.026468137 -0.022168618 0.012472449 -0.12346704 0.06639621 0.2786666 -0.009685473 -0.023751039 -0.2231623 0.07112739 0.27091157 -0.22046779 -0.02771135 0.07668905 0.051181078 0.054783467 0.020199552 0.008778727 0.055911794 -0.10153929 0.08317025 -0.13820282 0.12245445
13 -0.03332669 -0.19206385 0.013688047 0.20499127 0.0987855 -0.04354949 -0.059394795 0.16595396 -0.0023093931 -0.07349803 -0.014644951 -0.11791759 0.10778883 -0.20271495 -0.07651104 -0.19183837 -0.20688982 -0.08087105 0.13553081 -0.04519976 0.32593918 -0.11610724 -0.07235112 0.067991674 -0.15155245 -0.15184271 0.114039436 0.08293572 0.14595158 -0.10168823 0.10739728 0.22697708 -0.018269995 -0.17352185 -0.13317752 -0.05428944 0.07100949 -0.105714664 0.068555325 -0.15453798 -0.11575757 0.32869327 -0.06521592 0.118422486 -0.059392884 0.02637697 0.004525293 -0.20835553 0.094877385 -0.036642205 -0.012948531 0.064861745 0.14172035 0.14991684 -0.10013523 -0.15409443 0.006428272 0.11741423 -0.04416897 0.019911436 0.07887152 -0.1386245 -0.1278424 -0.04995164 -0.10475716 0.24933201 -0.034414046 -0.023885608 -0.08885668 -0.13192707 0.17613214 -0.04813958 0.03458732 0.021095032 0.003193542 0.10179758 0.052942496 0.000939491 0.022638496 0.091500774 0.025914123 -0.06303267 0.005239773 0.0070748404 -0.06646736 -0.16090666 0.15183394 -0.023803996 0.00041036887 -0.17270175 -0.04737455 -0.121868074 -0.004989726 -0.041348945 -0.16251133 0.0056338287 -0.09064142 -0.2720016 0.019198153 0.18354607 -0.17340407 -0.033890318 0.16505563 -0.015365526 0.09346476 -0.03814892 0.12546186 -0.024548065 -0.015792564 -0.14575164 -0.023092411 -0.063440636 -0.06038131 -0.24791028 -0.03769005 -0.05509824 -0.10714747 0.07469662 0.014567233 -0.25283772 -0.04835575 -0.1314395 0.026432272 0.14921467 -0.11437794 0.13275334 0.051134992 0.04058368
57 -0.11748415 -0.24314381 0.15124166 -0.19193883 0.08499615 0.06781259 0.04697061 0.26156533 -0.032349505 0.1673968 -0.1745416 0.042628232 -0.22065023 -0.037102688 -0.021554444 -0.05666552 0.026613723 -0.065018885 0.116675586 0.24120706 -0.06533129 0.053239036 -0.0032203195 -0.08958125 -0.065536186 0.18070172 0.041507784 0.16444466 -0.06770497 0.17414196 -0.088352956 0.062134504 -0.26627162 0.055963434 -0.24856839 0.0027708977 0.15246932 0.1513768 -0.023328912 0.05324525 -0.039741922 0.022241425 0.063297346 0.0008398876 -0.0074627013 0.07504977 -0.29443848 -0.24797079 -0.12959309 -0.052963413 0.042954348 -0.16623913 0.3293297 0.083582744 -0.10385214 -0.15741251 -0.077057794 -0.10789853 -0.041696914 -0.055360995 0.103041746 -0.18923044 -0.07782963 0.20589219 0.010478377 0.11218362 -0.027974542 -0.1493701 -0.075912446 0.16924472 -0.02315145 0.1502079 0.1201362 0.005119889 0.10231651 -0.055499386 0.24371198 0.30650353 -0.1793325 -0.018558916 0.14933266 -0.021846814 -0.16270874 -0.08383725 0.2833897 0.07021255 0.05485225 -0.00028818304 -0.17297584 0.14937462 0.22873928 0.006383923 -0.057281766 0.06276072 -0.15928227 0.08077188 0.0011544155 -0.06968737 0.021777283 0.10280473 -0.32587427 0.14049514 -0.07286744 -0.057897728 0.056873973 -0.010148419 -0.13945627 0.23340787 -0.07270381 0.08336548 0.15105149 0.19251962 -0.04367765 -0.21478313 0.0051674168 0.1031591 -0.02287117 0.11107842 -0.04754709 0.053217653 -0.06925628 0.039894022 -0.097212195 0.18632944 0.055389002 -0.16840228 0.272096 -0.11291796
66 -0.16011883 -0.18177892 0.08529715 0.07969328 0.16101705 0.024626387 0.043034162 0.4337453 -0.037451867 0.16583107 0.012597389 0.10450314 -0.21003929 -0.06939756 0.08375475 0.036602937 -0.08727133 0.16047256 0.11013 -0.08986132 0.27042508 0.016258664 0.056185972 0.25487876 0.046404418 0.06362212 -0.073431715 -0.18273741 0.22919253 -0.1799521 -0.13222983 0.0024881326 -0.02181933 0.16669816 -0.10142326 0.086481854 0.04048836 0.28471324 8.461099e-05 0.042345274 -0.008976949 0.17809887 0.088141255 0.07091266 -0.046363924 0.07787436 0.05712372 -0.20665057 0.0028033843 -0.021691069 0.112517715 0.027010027 -0.027954359 0.19337729 -0.1932097 -0.22102131 0.12273343 0.008077153 -0.14967854 0.011586388 0.15818748 -0.16182455 -0.0006140299 -0.18851683 -0.076823056 0.16060245 0.29674363 -0.09587037 -0.07432559 0.13618125 0.16180907 -0.06072608 -0.035606477 0.13882768 0.05058322 0.1339714 -0.1664769 -0.085206546 -0.043787763 -0.057518903 0.20881125 -0.12164971 -0.08823095 0.014685228 0.046345208 -0.034507193 -0.2679244 0.193792 0.17953801 -0.02470727 0.15376134 0.022524484 -0.18353516 0.020049207 -0.20483558 -0.04013218 0.00438226 -0.03474602 0.32166448 0.0933297 -0.13943097 0.081055984 0.112582594 0.07091588 0.1963099 0.022198051 0.020510964 0.041946076 0.022721924 -0.1041731 0.18081146 0.18265925 -0.008550846 -0.011497265 -0.1394334 0.25739852 -0.15931948 0.22807948 -0.23290104 0.09114626 0.038662374 0.12397378 -0.1052011 -0.10597569 -0.031558435 -0.031596355 0.008180965 -0.11067834
51 -0.1560563 -0.2634913 -0.1902609 0.25614557 0.21131578 -0.14021187 0.12236198 0.13273855 -0.033425868 -0.084794976 -0.010378589 0.08322731 0.05306809 0.08185357 -0.07330776 -0.22394046 0.053391665 0.0498049 0.20943342 0.08547583 0.2257146 -0.057563327 -0.025039148 0.021896863 0.044075225 -0.054754887 -0.048445184 0.047769267 0.058875747 -0.03128172 0.14341182 -0.16651016 0.018927533 0.10004147 -0.032565378 -0.07822482 0.1261717 0.17360261 -0.00084766804 0.02418073 -0.005902029 0.26148525 0.14395608 0.25918674 -0.1720283 0.18939747 -0.1099188 -0.33969972 0.18517597 0.043242242 -0.041245025 -0.07628015 0.036667652 0.033391416 0.18277787 -0.0435784 0.014491013 0.04874178 0.12307037 -0.051270057 -0.033734616 0.06636327 -0.20757025 -0.010519184 -0.08956178 0.16014485 -0.0733964 0.043376297 0.18917646 -0.0377166 0.18357293 -0.06651366 -0.029893385 -0.007398337 -0.0830528 0.18507895 0.19139025 0.046409145 -0.09217281 -0.21729311 0.15472513 -0.10613996 -0.056362566 -0.18703783 0.035396203 0.03848773 -0.04680768 0.021997811 0.20722544 0.09784712 0.23016152 -0.13704722 0.10133827 -0.047262035 0.075911045 0.26009387 -0.17716438 -0.13238211 -0.27349418 0.16044386 -0.31063944 0.21463719 0.15183724 0.07550921 0.02239111 0.0607911 0.23555169 -0.0009096464 -0.16420896 -0.038479015 0.19227944 0.1406491 -0.11926736 -0.06600075 -0.16659616 -0.026173325 0.04110793 0.04477386 -0.12956142 0.23208706 0.058376055 0.0781337 -0.043383222 0.10734914 0.15583895 0.18652122 -0.052265715 -0.1483307
82 0.18020874 -0.24291028 -0.011297341 -0.1370888 -0.01728253 0.2394907 -0.03521832 -0.19835895 -0.1171623 -0.0060224785 0.033755332 -0.06619247 0.08319392 -0.2940322 0.16187796 -0.04969401 -0.06377464 0.046553396 0.040397476 -0.010005434 -0.03606768 0.1063331 -0.09716362 -0.012842768 -0.103218935 0.18813327 -0.10275881 -0.27505 -0.13720098 -0.08665213 0.14452913 0.04463762 0.053614806 -0.04769136 -0.2041395 -0.09129143 0.3113892 0.08604722 -0.0430872 0.22188278 -0.037987992 0.1242651 0.08622213 0.01736042 0.18831998 -0.08087965 -0.1333164 -0.18662663 -0.10252131 0.18658915 -0.0134379035 0.011658163 0.12457565 0.049428627 -0.06933771 -0.18575984 -0.06319497 0.004649739 -0.023182645 0.04253282 0.43909973 -0.31832543 0.06291484 0.1647025 0.02099098 -0.023027297 -0.12854683 -0.23272829 -0.2409495 -0.09674946 0.05912992 0.2476479 0.07040489 -0.22264129 0.04087074 0.052558634 0.15062988 0.14288309 0.1659128 -0.0042957705 0.06458129 -0.3051453 -0.19756465 0.022904748 -0.0049004024 -0.20341183 0.09541405 -0.14563015 -0.06664545 0.06871215 0.11727034 0.18403496 -0.020410916 0.1588615 -0.1131239 0.0277363 0.041969042 -0.21486688 0.23456615 0.18739104 -0.13570571 0.19898395 0.15050393 -0.00092071865 0.10154003 -0.2382252 0.081249356 0.19792037 -0.00952866 0.07081955 0.015566619 0.060050476 0.08978695 0.10980475 -0.029961558 0.065347515 -0.36778334 -0.11425926 0.15744717 0.24951482 0.02400125 0.095427684 0.04467988 -0.10540787 -0.018813414 0.15195306 -0.016627148 -0.06079352
65 0.033085115 -0.2672544 -0.07823402 0.0029206853 0.14426853 0.02121382 -0.0895699 0.15951394 -0.025378937 0.08159458 -0.10806926 -0.10898909 0.053408857 -0.037506755 -0.116600685 -0.15801819 0.061863497 0.045638416 0.05071697 -0.05022007 0.011146908 0.028794598 -0.2425274 -0.0066695563 -0.08881337 0.029346287 -0.09718435 -0.08738235 0.029386781 -0.108843364 0.14183216 0.06432739 -0.026550997 -0.3250559 -0.055926874 -0.08601095 0.226855 0.023700316 -0.120521285 -0.077345125 0.020289749 0.32573438 -0.13097474 0.030441813 -0.037724715 -0.06959336 0.073246926 -0.041211847 0.08026587 -0.20503233 -0.073436506 -0.017573059 0.05333378 0.16425222 0.031220358 -0.008012775 -0.014776438 0.105809905 0.14522587 -0.10703726 0.15775757 -0.06657171 -0.11256033 -0.010551316 -0.0070128413 0.25016603 0.040752843 -0.12392236 -0.20045012 -0.118253544 0.15626626 0.030590335 0.053501587 -0.20944023 -0.056544647 -0.06546034 0.1324617 0.115753874 0.006282935 0.033592798 0.12828152 -0.040456597 -0.019483665 -0.04528725 -0.095793635 -0.04373926 0.09677568 0.027793175 -0.090875536 0.21024103 0.17912307 0.039502464 0.019668605 0.00020748303 -0.13159722 0.0056944056 -0.029837765 -0.14898498 -0.15225387 -0.027873876 -0.40579802 -0.012058931 0.14260997 0.0075377766 -0.03482195 0.12815365 0.04148907 -0.034693386 -0.16713752 0.011095315 0.029671792 -0.1073266 0.052203197 -0.16995655 -0.01002013 0.012129245 -0.04662089 0.23806642 -0.01217714 -0.06523959 0.15049407 -0.13508949 0.060094632 -0.0075667505 -0.07784692 0.21089616 0.14426544 -0.07496842
414 -0.049576484 -0.111161284 0.040769 0.22898193 -0.19457155 -0.20085478 -0.03794884 0.12792419 0.1129637 -0.19495264 -0.086681195 -0.343111 -0.025583128 -0.10615891 0.085355885 0.22475182 -0.0079451585 -0.23833904 0.20889334 0.10732084 0.010028638 0.0063415524 0.10309411 -0.08394468 0.029842889 0.16748318 -0.12829196 -0.09904673 0.034026492 0.07052217 -0.040046524 -0.07148052 -0.09205207 0.08517065 -0.09735845 0.043278415 0.11497464 0.07410707 0.063721955 0.14566423 -0.13415071 0.06293724 -0.036794733 -0.06876192 -0.06446691 0.044134382 -0.25333598 -0.18555512 -0.009803099 0.011265449 0.097973116 -0.06685886 0.024261594 0.12388807 0.02510876 -0.029579412 0.052595124 0.011954035 0.054906256 -0.10982347 0.14476787 -0.149519 0.04289108 0.0204787 -0.10146136 0.14724135 -0.040142078 -0.2374551 -0.15892126 0.011106226 0.13819769 -0.1090374 0.11602337 -0.018875318 -0.0528045 0.18845752 -0.07854669 0.17031904 -0.0072451625 -0.25778988 0.116590515 -0.1608743 -0.015751997 -0.024977336 0.048742563 -0.16097051 0.12151375 0.03798344 0.004031036 0.060168795 0.19271602 0.035034403 0.01057842 -0.05925529 -0.077701546 -0.00018648605 0.22190507 -0.17227557 -0.09923594 -0.19509517 -0.067635074 -0.15132965 0.03315283 0.020180188 0.020643212 0.036149014 -0.019312125 -0.11244569 -0.2328812 0.058286615 0.1601288 0.079451114 -0.0744824 -0.022141572 0.09089333 0.1321184 -0.088549845 0.02913114 -0.034651306 -0.10445305 0.07592154 -0.06899596 -0.01292983 0.12573451 -0.044521496 0.14415011 -0.14225745 0.038203783
79 -0.10258626 -0.39126462 -0.067925364 0.0848735 -0.09823559 -0.30272877 0.04411347 0.22375211 0.098024204 0.0035977508 0.051730227 0.007419541 0.1363944 -0.046147313 -0.092666395 -0.055854212 0.048820212 -0.009165709 -0.03242317 -0.008218154 -0.09356514 -0.1890795 -0.19636036 -0.10497181 0.07738822 -0.09506869 -0.02941848 -0.06994545 0.16669269 -0.13673025 0.06000212 0.044118423 -0.07381274 0.0030527448 -0.071509376 -0.09994118 0.16917782 0.19758196 -0.02977243 -0.30516517 -0.052019753 0.37595093 -0.123339854 -0.23105326 -0.08121071 0.19563319 0.051532295 0.012864504 -0.055957284 0.024212258 -0.18183732 -0.07217209 0.27124396 0.19669273 -0.06180797 -0.08781356 0.07354294 0.20319515 0.17789635 -0.05495473 -0.054947942 -0.18181461 -0.29289457 -0.048374787 0.008711671 0.11999254 0.02639904 -0.0071844156 -0.0015431866 0.03484032 0.3572321 -0.0008270986 -0.14044182 -0.15823112 0.04774964 -0.012485028 -0.060620766 -0.13292485 0.09125426 0.04298369 -0.004597182 -0.24838057 0.03566621 0.032008067 -0.15633532 -0.15169546 0.21766205 0.12795255 -0.06469959 0.116941825 0.19934006 -0.013489486 -0.0030992157 -0.07216345 0.048359714 -0.051016506 0.25538048 -0.1855095 -0.02248727 -0.062557966 -0.34434876 -0.13748768 -0.21245821 -0.17452382 0.16988972 0.09480738 -0.06021211 0.0780592 0.1455182 0.0920341 -0.10131493 -0.010546932 0.17747138 -0.15532032 -0.11223363 0.2564171 -0.08265063 0.22811948 0.077044256 -0.023588309 0.0130221145 -0.15670899 -0.099794626 0.0449545 -0.15189125 0.25432432 0.027289191 -0.14611661
428 -0.1502708 -0.097159065 -0.0055206274 0.14916688 -0.08371265 -0.23348053 -0.14391467 -0.016660992 -0.03942243 0.21395658 -0.0015835474 -0.21202555 -0.08460517 0.061575875 -0.013360294 0.14600967 0.0826014 -0.11458904 0.1607763 0.18971044 -0.025597623 0.049933765 -0.085292295 -0.17373133 -0.1074084 0.19281533 -0.087669946 -0.021404538 0.18987562 0.16369765 0.08013017 -0.08334774 0.0734649 0.2224971 -0.13851966 0.1657005 -0.026951121 0.050350353 -0.089736246 0.08698358 0.04710297 0.032247752 -0.08345754 -0.013484329 0.043746863 0.08793904 -0.05479216 -0.348438 0.18548419 0.011575994 -0.15289655 0.03400538 0.05808999 0.3671181 -0.13161871 -0.2035126 0.027799493 -0.053710207 -0.04279353 0.09997113 0.19699141 0.012846418 -0.10928986 0.06353267 0.009217364 0.032608267 -0.087509 -0.1274085 -0.20205273 0.22689345 0.0012107523 -0.02215823 0.10745843 -0.12551104 -0.06364191 0.34752998 0.011828403 -0.06962191 0.08422674 -0.008878853 0.11319753 -0.056343693 0.009034911 0.0962396 -0.09950295 -0.04403414 0.19060388 -0.082716696 -0.05628951 -0.0020604243 0.101935275 0.023059202 0.04792744 0.11440367 -0.03924018 0.1974537 0.08406059 -0.02881748 -0.04655409 0.0070086294 0.02081057 -0.008889384 0.17586042 0.07823768 -0.013066245 0.032740742 0.02590143 -0.08188268 0.073224485 0.15212883 0.076686665 0.030200865 -0.07218903 -0.19689322 0.10638197 0.26424938 -0.08472637 0.03785385 0.027392054 -0.17184512 0.20048507 -0.06837537 0.026461009 0.3155686 -0.06357721 0.11402879 -0.07182167 0.14005315
3 -0.040789615 -0.0878753 -0.043406937 0.23360226 -0.089639 0.014433596 -0.19550392 0.073469676 -0.0080981655 -0.07345003 -0.05876935 -0.10806222 0.12153363 -0.015761672 0.08536478 -0.23065972 0.048678353 -0.016044162 0.15692551 0.19758584 0.14176506 -0.10213368 -0.024670765 -0.009703061 -0.23915438 0.04057748 -0.11315084 -0.10479 0.08053119 -0.07595436 0.00642391 0.069232 0.14415318 -0.01221131 -0.19871148 -0.15584224 0.17056519 0.14039896 0.07454858 0.15201478 -0.17166248 0.04734202 -0.10410895 0.18539144 -0.08919638 -0.11961396 0.057360906 -0.087906495 -0.24580751 -0.07032198 0.08534332 0.009852957 0.098146155 0.07540057 -0.3305966 -0.40161073 0.018104114 0.07258502 0.040598206 0.062139217 0.060251765 -0.21322834 -0.05543762 0.19608548 -0.026503542 -0.086462304 -0.17570098 0.111704454 -0.21171664 -0.05092741 0.044920806 0.08962984 0.1596691 0.1435352 0.028559279 0.26420823 0.27780178 0.12304686 -0.17615618 0.27059102 -0.044723634 -0.09874935 -0.3566975 -0.034711096 0.19207346 -0.11246152 0.091672316 0.15933144 0.10999887 0.016344005 0.12715647 0.04573984 0.12617981 0.120527424 -0.18096189 0.262034 0.0053381003 -0.19804518 0.11469063 0.0022215594 -0.20199095 -0.037149034 -0.11833264 -0.22893405 0.09016293 0.062703565 -0.060649607 -0.026779251 0.04315535 -0.12554552 0.09855501 0.32104486 -0.03927976 0.08516766 0.04423549 0.23744097 -0.031356685 0.25839725 0.32091358 0.05854794 0.12117218 0.07134817 -0.1280495 0.11091746 0.035309352 0.17726934 0.12856288 -0.09275777
44 -0.08986373 -0.20932971 -0.07081123 0.09238812 0.13675614 0.040588625 0.0720179 0.078505635 0.279563 -0.058980763 0.14925507 -0.24426873 -0.1346819 -0.08486346 -0.2129315 -0.2731714 -0.05395116 0.06014435 -0.013522715 0.019781364 -0.1211975 -0.18213625 0.011291791 0.1735377 -0.14474493 -0.004455351 -0.0040819873 0.071512766 0.118956104 -0.17226344 0.07089075 -0.029657727 -0.036730405 -0.028149212 -0.31596705 0.14855225 0.16194089 -0.08644979 -0.033604156 0.021647766 -0.042874992 0.36721686 0.03019967 0.20206887 -0.0716858 -0.086018145 -0.0297233 -0.20562781 -0.29311275 -0.14686128 -0.025110552 0.2549845 0.011990946 0.21312858 -0.16835049 -0.014679545 -0.04602323 0.14504902 -0.0063268435 0.092263535 -0.0797361 0.07063531 0.0044404184 0.03185553 -0.1305155 0.24189958 -0.21316178 0.07321669 -0.018593809 -0.005470201 0.09460611 0.043464098 0.057046883 -0.047603756 0.011755233 0.17958313 0.048745528 -0.012599504 -0.095682174 -0.080317676 0.07440226 -0.049764346 -0.12825924 -0.082933955 0.017838921 0.031088268 0.2085066 0.18556565 0.033397015 0.12738487 -0.046051577 0.08673273 0.14890045 -0.20477551 -0.12044055 -0.07766321 -0.027181884 -0.10229916 -0.112126864 0.013165512 -0.19433092 -0.10468128 0.019125545 0.08225937 -0.034042235 0.20866312 0.092701636 0.0029674731 0.05169453 0.0017498366 -0.10884878 -0.041507963 -0.008686822 -0.31371483 -0.11130594 0.17256893 -0.008109121 0.3413999 0.07077283 -0.007850367 -0.07619304 -0.23286219 0.22151557 0.038148683 -0.026909169 0.10200795 0.021775924 0.09423672
49 -0.061437137 -0.2986659 -0.03922181 -0.25472242 0.20851088 0.19122961 -0.07536422 0.116218925 0.133375 -0.029484209 -0.08341768 0.020661615 -0.17673412 -0.19761047 0.04839027 0.025309883 0.14714757 0.03418425 -0.034291893 0.113259986 -0.105435885 0.024610152 0.12079667 -0.11261806 0.055096295 0.106897876 0.03798752 -0.18349206 0.09872621 -0.06409097 -0.014951404 0.18481511 -0.07104018 0.02872609 -0.13401861 0.12018933 0.24580191 0.023707895 -0.179957 -0.08292752 0.0785627 0.18790495 0.18561654 0.01475073 -0.0671966 -0.19719657 0.039226666 -0.08260707 -0.00722306 0.009563729 -0.06360396 0.06249952 0.3474472 0.18100308 -0.1773681 -0.3327089 -0.06598361 -0.030595519 -0.053293075 0.035018824 0.27606803 -0.07254629 0.07218579 0.28931192 -0.18022318 -0.038696382 0.17436786 -0.1591203 0.088332504 -0.0035239183 -0.02029427 0.019067788 0.22428091 0.029695172 0.050166193 0.008332511 -0.08131754 -0.08783971 0.14533055 -0.09832251 0.16934472 0.13401142 -0.04531712 0.0038187276 -0.00515056 0.022988908 0.094029434 0.050011113 0.06515754 -0.10253332 0.20812912 -0.005475018 -0.16335607 -0.046380315 -0.084183045 -0.012108632 0.14338705 0.029947758 -0.023869544 -0.033038855 -0.2945634 -0.07876721 -0.100688 0.09623434 0.051102925 0.31629908 -0.053232133 -0.05232385 -0.26902944 0.047026444 0.20733833 0.086520344 -0.0897663 -0.09707322 -0.07905298 -0.022447651 -0.17759229 0.18262611 -0.011862329 0.05247396 0.05126172 -0.16175912 0.08970031 0.1381777 -0.2691439 0.08974388 0.31727338 -0.022093635
98 -0.16512163 -0.28493 0.05683713 -0.112924315 -0.09882133 -0.11249816 0.07467872 0.23673302 0.123242155 -0.05104842 0.034009468 0.034309894 -0.12356162 -0.09571241 -0.06812209 -0.052055914 0.02148907 0.10169725 -0.02328614 0.021033376 0.122592054 0.026586268 -0.20979145 0.081415445 -0.07929797 -0.023947634 -0.07278635 -0.038745284 0.19441429 -0.1839182 0.1543878 0.07855784 -0.012299708 -0.037001718 -0.067873895 -0.04746023 0.12535161 0.24140264 -0.08018061 -0.11596242 0.11174291 0.32055256 -0.001865254 0.07312768 -0.030504689 0.06787405 0.0061797136 0.014869861 -0.20071064 -0.07695937 -0.22223456 0.094317846 0.20950258 0.22838998 -0.1919667 -0.14169867 0.06397797 0.095821954 0.22078167 0.021044662 -0.08814124 -0.18624468 -0.05020541 -0.06351436 -0.061776005 0.09811759 0.077445254 0.063822255 -0.15076868 -0.05733772 0.17770158 0.009290749 0.14326455 -0.05041794 -0.099612035 0.07591143 0.05692365 0.16715157 -0.014749716 0.02942711 0.09644973 -0.14018703 -0.18946971 -0.26206836 -0.25145406 -0.1609348 0.03825833 -0.0044358037 -0.0051490753 -0.02310731 0.15341066 0.029176954 0.2421235 0.0029552057 -0.083037436 -0.030539043 -0.19226928 -0.15230718 -0.2243066 -0.23116896 -0.4009657 -0.028585475 0.14016153 -0.18622759 0.02314598 -0.008972047 -0.08298962 -0.13000408 -0.07645704 0.015690802 0.09275937 0.28828612 -0.013946537 -0.03763408 0.03056209 0.29278272 -0.049835015 0.26540247 -0.16687438 -0.011829637 0.110404566 -0.13501835 0.093259506 -0.08353262 -0.036097225 0.007044058 0.18743163 0.029276805
60 0.053508572 -0.16153091 -0.1386427 0.18738957 -0.12821147 -0.0130771035 0.059499614 -0.00407663 0.21434574 -0.15708885 -0.29306394 -0.08209683 0.03423417 -0.06266964 -0.072555125 0.081023365 -0.001463117 0.0055944533 0.32329836 0.043059234 0.13098383 -0.02449342 -0.015180366 0.073071115 -0.17203376 -0.10145465 0.16324121 -0.012976751 0.10121618 -0.14668305 -0.036810596 -0.062483642 -0.2950429 0.008061069 -0.13021287 0.16404688 -0.088228084 -0.08671145 -0.02652717 0.103554964 0.018857123 0.2374161 0.002526655 -0.08452542 -0.29967806 -0.021221764 -0.048208635 -0.25858036 -0.13287295 0.06297577 -0.0645358 0.13177177 0.11525877 0.1696714 -0.32992214 -0.26844704 0.09442314 0.033137057 -0.081624165 -0.058899783 -0.10861135 -0.21509458 -0.11802716 0.12307658 0.044992555 0.121773705 -0.056416817 -0.0057714125 -0.16452505 0.14267054 0.13339145 0.13526727 0.08738269 0.09315715 0.20516069 -0.06484015 -0.06386658 -0.025304465 -0.2758512 0.09676781 0.20680718 -0.048062712 -0.0631724 0.048310418 -0.096127875 0.18656234 -0.058956143 -0.043525796 -0.15270844 0.22457705 0.2513129 -0.0059114536 0.023620566 -0.15599647 -0.07627938 -0.09896238 0.039289404 -0.011530479 0.05340834 0.065987 -0.013106192 -0.15572971 0.28048867 0.18984194 -0.0080329105 -0.20905247 0.025353624 0.08047403 -0.08109757 -0.16348952 0.01399717 -0.09788804 -0.026534341 -0.18579912 -0.20953652 -0.03508112 -0.18230541 0.17349394 0.00442546 -0.11259979 -0.08436605 -0.043758903 0.1759243 0.012798958 -0.13475285 0.060674846 0.17350723 0.06575713
368 0.04033477 -0.035040602 -0.050676677 0.20775886 0.00076879864 -0.23693675 0.015143336 -0.029524777 -0.040714234 0.04949457 -0.016755091 -0.25276712 -0.00427081 0.0036600707 -0.0044454746 0.24919197 -0.0020037862 -0.08275683 0.032445077 0.12568623 -0.120042235 -0.04509254 0.2031621 -0.02962751 0.09764937 -0.060063746 -0.0733214 -0.05415761 -0.013345491 0.19906309 0.058588833 -0.15550244 -0.05704128 -0.049011618 -0.06149898 0.18245222 0.14317566 0.14021079 0.0009069911 0.10652246 -0.09115326 0.12235703 0.07422307 -0.15294763 0.14789143 0.10194519 -0.12978774 -0.26398158 -0.11185496 -0.12151516 0.00043805927 -0.1142558 0.1604025 0.320903 0.05608154 -0.05122 0.0080188615 0.13875364 0.06957675 0.21538317 0.10990321 -0.07762176 -0.2766642 -0.07922338 -0.107312664 0.024602342 -0.11598286 -0.09929298 -0.086093046 -0.092804946 0.0968419 -0.09702563 0.23458017 -0.024598172 0.058185343 0.17118172 0.02627954 0.07123549 -0.05079784 -0.20864265 0.12940682 -0.07660845 -0.0039106226 0.042301312 -0.17456856 -0.09230989 0.039520744 0.059903644 0.037070516 0.021149524 0.10585579 -0.15080059 -0.001558935 0.044082165 -0.3366679 -0.19001122 0.17781785 -0.015477156 0.17198871 -0.2168267 -0.072853565 -0.13033576 0.19370763 0.0629799 0.05106799 0.12736782 0.077773936 0.020162662 -0.23588416 -0.04229247 0.09784067 0.07530718 0.026449215 -0.04754671 0.12246386 0.22714107 -0.21942124 -0.009565693 0.06087918 -0.117289826 -0.042848658 0.05114184 0.1280456 0.18445107 0.01953794 0.25161403 -0.10892715 0.048685092
31 0.10985547 -0.21275528 -0.010582421 0.1818882 0.0706183 -0.21535133 0.075913504 0.08872185 -0.010026375 -0.15804599 -0.09582047 -0.024094021 0.19000922 -0.17988223 -0.13760462 -0.045564972 -0.06711634 -0.14163353 0.15971291 -0.034383412 0.11525067 -0.15528618 -0.057428546 -0.047620032 -0.059472434 -0.20403023 -0.0032981005 0.12042696 -0.21522966 0.09245968 -0.17154145 -0.01868523 0.0898352 0.023704212 -0.18583718 0.18070129 0.21569777 0.22796635 -0.05767465 -0.17880587 0.11792685 0.23590353 0.09498094 -0.15271203 -0.021681624 0.079213396 0.06547463 -0.3073767 0.42362514 0.009000106 -0.16902003 0.039317388 0.27597272 0.2600058 -0.09283293 0.11314384 0.067637384 0.13123716 0.05315058 -0.04884675 0.16961855 -0.33406577 0.0084363585 -0.10006245 0.021087805 0.14679754 -0.17762023 0.31234184 -0.16036972 -0.09935956 0.15118901 0.0075097173 0.024950357 -0.043892015 -0.10166831 0.15541315 0.20029007 0.1302836 0.14068149 -0.108069025 -0.027722994 0.046988744 -0.07812532 -0.037386686 0.11627184 0.20839922 0.046841517 0.15218796 -0.15619671 -0.14123057 0.045329235 0.03125424 -0.022361595 -0.030743396 0.004930992 0.26021907 -0.045818985 -0.18994032 0.08926147 -0.009057157 -0.10226401 -0.070590265 -0.057318334 -0.26573357 0.14929022 0.032234628 0.15288816 -0.0086387945 -0.03922748 -0.07377842 0.14751765 0.19803733 0.16341169 -0.1839283 0.016220301 0.16375816 -0.08741889 0.14452045 -0.10382405 0.34310997 -0.091591164 -0.1672568 -0.098992355 0.030390143 -0.13216475 0.13160811 0.16050328 -0.121939614
61 -0.01859295 -0.31074998 0.09523986 -0.0041387584 0.06638451 -0.058102373 0.056013387 -0.09208207 0.11418543 -0.111538775 0.10105855 -0.112143435 0.057483986 -0.070592485 -0.02209332 0.11100099 -0.14721955 0.11993322 0.11992734 -0.006714092 0.041974783 0.023681462 -0.002834295 0.0011831027 -0.005855973 -0.16630206 0.07149856 -0.21497904 0.15392186 -0.13178666 0.073062375 -0.21679044 -0.31206527 -0.06291318 -0.293743 -0.03196567 0.110893525 -0.24400458 -0.021102773 0.0012880199 -0.008455438 0.119441636 0.09730384 -0.10284035 -0.2459978 -0.067084044 -0.13930786 -0.24944359 -0.14311475 0.008839144 -0.039935812 0.06197565 0.19747078 0.16083826 0.040176213 -0.095683776 -0.0107661495 -0.031121237 -0.052732535 0.035025008 -0.14172135 -0.31296274 -0.26641312 0.008378941 -0.066149585 0.054967597 -0.20234358 0.027024118 -0.20733333 0.15873167 0.116340764 -0.113164105 0.20503724 0.11713533 0.17447878 0.22976442 -0.039394762 -0.0058349455 -0.06983884 0.19254518 0.47541684 -0.24354221 -0.09329181 -0.13033262 -0.17000836 0.12848341 0.004932878 0.0017037368 -0.20232572 0.20683713 0.22333089 0.0067796446 0.2376913 -0.0002892022 -0.056114547 0.061628066 -0.006135726 -0.046944764 -0.12736978 -0.08290403 0.021623675 -0.03159331 0.1674159 0.089490265 0.003927025 0.0016172896 -0.09122246 -0.020142885 -0.0118014775 -0.14434132 -0.031413577 -0.033795837 0.16904387 -0.08952663 -0.33893728 0.21343416 -0.09917362 -0.02307337 0.05134989 0.26679572 -0.12961508 0.13168818 -0.0032522525 -0.0736539 -0.18457565 0.07703121 0.11275941 0.0657456
50 -0.037634917 -0.051566195 -0.027359849 0.056910206 0.15010968 -0.28483742 -0.021248298 0.13798271 0.041208923 0.15758422 0.034056537 -0.012407465 -0.03864816 0.034301516 -0.0038422176 -0.114487 0.10723133 0.028525114 0.23432001 0.17010751 0.22700538 0.054952003 0.10928235 -0.018173667 0.047812786 0.19265632 -0.0051659886 0.034233484 0.022722924 -0.03779284 0.18155225 -0.19342837 0.03639494 0.08690035 -0.18888564 -0.028409082 0.256011 0.23501644 -0.031812247 0.031153064 -0.11355998 0.11526353 -0.18834469 0.20531349 0.079142496 0.052611478 0.024783192 -0.2907071 0.158266 -0.04917494 0.18133885 -0.22104344 -0.1036779 0.07820733 0.11956662 -0.27461442 -0.011841042 -0.07327432 -0.026339853 -0.0031293237 0.12532555 -0.02572206 -0.00986963 0.07862598 -0.055147048 0.046622742 -0.21870139 -0.027681535 0.31205314 -0.13619637 0.088861056 0.07610842 -0.07609332 0.060560655 0.07441982 0.17060223 0.054322958 -0.04637556 -0.17851655 -0.09566321 0.05922483 -0.065514535 0.12778935 0.024299815 0.005855781 0.07608465 0.22287306 0.20430918 0.2107291 -0.06695276 0.1311366 -0.076200135 0.09407031 -0.21279292 -0.21827012 0.049963947 -0.027612071 -0.18560478 -0.13505787 0.16408627 -0.31873 0.046149768 -0.14069952 0.053450454 -0.13872762 0.17592852 0.23673001 -0.033523876 -0.35022736 -0.014931667 0.1522621 0.1057849 -0.24893568 -0.06589691 -0.21345913 -0.009835903 0.00069644226 0.20393628 -0.027340781 0.25935683 -0.123128995 0.028286489 0.06587035 -0.06889643 0.021846078 0.1530132 0.036420062 0.097813785
445 -0.02593859 -0.08822718 0.07022688 0.21779159 0.0036332572 0.038232997 -0.043702357 -0.023585724 0.13347478 0.06335992 -0.024354566 -0.12199943 0.06890498 -0.07196639 -0.10005342 -0.12824616 0.07630301 -0.18149453 -0.09038187 0.15296772 0.036896788 0.062056474 0.09973127 0.077726625 0.0023214805 0.08380607 -0.0378369 -0.22615424 -0.11194346 0.05838872 0.04933146 -0.12848066 0.06631833 -0.031777315 0.14510809 0.118159585 0.037953775 -0.0057912185 -0.028536994 0.05615486 -0.0041515986 -0.0033120376 -0.038298037 0.0012840547 0.07771607 0.14400338 -0.06260272 -0.17121387 0.15717416 -0.021986801 0.058934323 -0.06538129 0.11729188 0.20862819 -0.21399444 -0.09918111 0.11375624 -0.15035044 -0.033076923 -0.035254523 0.077067696 -0.09415219 -0.10122738 0.010735724 0.044281535 0.0854552 -0.19931991 -0.08986991 -0.21586363 -0.10741832 0.09650327 -0.100723445 -0.061510433 -0.056245834 -0.075352035 0.22940657 -0.109532006 -0.047164597 -0.047253735 -0.14393695 0.13916753 -0.118543886 -0.046535198 -0.06862268 -0.16403414 -0.07247351 -0.05354788 0.076345906 -0.15888782 -0.088735916 0.2892588 -0.23271117 0.017417789 -0.04363636 -0.19011684 -0.05196947 0.3474803 -0.07994892 0.021565108 -0.069175996 -0.1980989 -0.10961013 0.22308397 -0.041050825 0.16031878 0.1008364 0.012727532 -0.07711463 -0.16289106 0.1154899 0.0960639 -0.010070602 -0.2012008 -0.084331065 0.06579856 0.1177697 -0.29707927 0.13043293 0.11278377 -0.070580505 -0.07470972 -0.08748363 0.102118835 0.16441882 -0.0036427747 -0.13166542 -0.051052727 -0.015146756
449 -0.08824961 -0.12365706 0.04435732 0.3236095 -0.15787204 -0.045334063 0.07685914 0.2657956 -0.08623762 0.046586815 0.031235421 -0.2272658 -0.06975368 0.0037449782 0.10280917 0.04935449 -0.042315308 -0.18457672 0.14793827 0.11085831 -0.09583755 0.075891435 0.18463598 0.08822985 0.004769909 0.18043873 0.014530767 -0.050679155 0.003063065 0.069405645 0.04327155 0.070091166 0.11177972 0.04738199 -0.05715966 0.042235468 0.18986563 0.09268018 0.10729611 0.07329433 0.105510205 -0.01877807 -0.02923229 0.006728007 -0.011677795 0.015587699 -0.17561693 -0.23454486 0.037978802 -0.065375246 0.06644545 -0.022601882 -0.06600661 0.21703388 -0.08702002 0.022943044 0.038551345 0.1920317 -0.015979907 -0.018589474 0.08901777 -0.01868783 -0.05604141 0.046516605 0.15278621 0.26280582 -0.07120694 -0.14549975 -0.20257044 0.15632562 -0.044824608 0.023045124 0.08967748 -0.07782896 -0.04063527 0.17989883 0.044989567 0.07495153 0.113248535 -0.20424825 0.115597084 -0.020308446 0.03858669 0.085019566 -0.17056035 -0.06010757 0.19510496 -0.039006237 -0.012652996 0.060689706 0.007110366 -0.17565721 0.035061926 0.039949577 -0.13898884 0.000916966 0.25483638 -0.20961149 -0.18461128 -0.09348491 -0.034172077 -0.076552786 0.04466174 -0.11572746 0.044654384 0.05088462 -0.049506754 -0.062064864 -0.19036566 0.049971692 0.11696045 0.15209194 0.051106095 -0.049929496 -0.10770563 0.21519475 -0.25583303 0.08023507 0.056284852 -0.0054656477 0.025075432 -0.1104003 0.16724674 0.1345883 -0.11734662 0.012510543 -0.13102096 -0.0062460336
384 -0.020778203 -0.15659049 0.14947818 0.21367933 0.05061372 -0.026675498 -0.023757672 0.0052572265 0.09385672 0.17512904 0.099550776 0.039755117 0.01825983 -0.04396635 0.010182402 -0.08274329 0.19145893 -0.12960717 0.042767175 0.20269457 -0.038380463 0.03180749 0.06525644 0.07411222 0.012827991 -0.0007609171 -0.11537042 -0.1888993 -0.11457114 0.27410144 0.12301388 0.010635306 0.106186785 0.15643165 -0.054052252 0.06109084 0.024805551 0.093058795 -0.14161217 -0.12602198 0.10905954 0.050388474 0.023430718 0.06841174 0.15446232 0.09657562 -0.011592802 -0.30267197 0.05233319 -0.12284484 -0.118014775 -0.07703796 0.011051549 0.30672657 -0.1544738 -0.15875071 0.04010353 -0.2235793 0.05491807 -0.025490163 0.13492683 0.091033995 -0.08056968 0.10442437 0.105732545 0.11356485 -0.15339023 0.007975086 -0.24568096 0.07004848 -0.02917102 -0.18716876 0.12568058 0.042008784 0.031803314 0.19730125 0.016876208 0.07999637 -0.049268223 -0.05170441 0.16004293 -0.21582778 0.12413626 -0.06317458 0.0049373806 -0.023962932 0.020335399 -0.026252568 -0.07271721 0.015846755 0.17824711 -0.14536205 0.022002436 -0.044368446 -0.022335457 -0.13065168 0.23030768 0.09455771 0.046669107 -0.0066363546 -0.10591589 -0.12578455 0.23611155 0.04192146 0.13889875 0.036640614 -0.10589234 0.02311808 -0.006053411 0.051194154 0.23291904 0.11450729 -0.09730224 -0.19687551 -0.059304796 0.09193805 -0.17897245 0.08376721 0.18891281 -0.0315656 0.13763003 -0.10351967 0.052343808 0.16466606 -0.09455845 -0.10640422 -0.17950901 0.13412598
58 -0.21469441 -0.16923657 -0.07664159 0.21828417 0.009605804 -0.074300036 -0.04567246 0.28518963 0.18351798 0.0724031 -0.10835415 0.021889525 -0.064410724 -0.053632386 -0.0777326 -0.113043085 0.20762436 -0.0021150056 0.046598095 -0.07627286 -0.266518 0.1781201 -0.014510585 0.09262695 0.045065917 0.22024001 -0.18032335 -0.17099962 -0.064262085 0.08310185 0.30582508 -0.045865506 -0.23552139 0.1203311 -0.18579723 -0.09527952 0.034366183 0.003037689 -0.072714835 -0.276023 0.02848221 0.2538203 -0.14840753 0.16879684 -0.30792192 -0.12114357 -0.011028444 0.0465791 -0.14175072 -0.1767378 -0.24521543 0.100977466 0.29680693 0.12777318 -0.02981213 -0.10775591 0.055906888 0.05651824 0.05545321 0.1539396 0.11343109 -0.02398552 -0.2686799 0.26889154 -0.12095533 0.06833917 0.33021405 0.12344175 0.15101628 -0.024848463 0.2806012 0.056156483 -0.08236524 0.021721497 0.23309502 -0.1408148 0.009717317 0.057269767 0.25969416 -0.098399155 0.21837153 -0.08306227 -0.03976778 -0.019291595 0.0053034932 -0.14720987 -0.067168444 -0.076116964 -0.06539248 0.13636425 0.13994439 -0.08335046 -0.018763661 -0.009756254 -0.018124228 -0.08749056 0.16708587 -0.31336823 -0.21066551 0.13192737 -0.16479981 0.060184672 -0.027967665 0.07305947 -0.026890568 0.049621783 0.21861051 0.018883916 -0.13363014 0.13537791 0.057482004 -0.09351184 -0.0061536096 -0.09419501 -0.1103855 0.20412017 0.058275286 0.30126032 0.23560224 0.0007916776 0.12755425 -0.12731886 0.00032236063 0.022423554 -0.27593637 0.30915165 -0.07974659 -0.11429234
460 -0.13815172 0.023548363 -0.090218075 0.27855963 -0.117779545 0.17034668 -0.123352766 0.117921546 0.037693355 0.07006384 -0.021611914 -0.2575079 -0.3216888 -0.11792332 0.040874206 0.107710764 -0.019371733 0.075812 0.15668619 0.13774362 0.07576165 0.146557 0.111627564 0.065111615 -0.10229559 0.23549512 0.121763036 -0.098936565 0.017356439 0.023213364 0.0015607406 0.121448986 -0.08861949 -0.03669696 0.040115383 0.010103387 0.14716722 -0.040972058 0.04744788 0.27749747 0.000857808 0.16662602 -0.0099497065 0.08587246 0.061602928 -0.009088201 0.076811366 -0.22913793 0.2534101 -0.029047554 -0.03128012 0.091452055 0.081559345 0.058756214 0.110886924 -0.024578514 0.018194584 -0.038157158 0.194957 -0.039044708 -0.018469017 -0.08931892 -0.23210512 0.14205705 0.1356456 -0.027840737 -0.027212417 -0.095042035 -0.21914884 0.011981096 -0.09303775 -0.10395786 0.028827565 -0.09540663 0.07509451 0.28334582 0.08192964 0.12436425 0.025342382 -0.1692246 0.17245318 -0.18594706 -0.038249522 0.07151599 -0.08302956 -0.0023316639 0.15469903 0.15218127 -0.04554338 0.019101435 -0.017977083 -0.34880212 0.09894097 0.0723731 0.1284868 -0.18510802 0.2398366 -0.13916418 -0.113849804 0.0021063706 -0.16530953 0.011205587 0.14043869 -0.15979102 0.1280522 0.019635199 0.16493247 -0.09698741 -0.046674304 -0.055056155 0.026163954 0.14496185 -0.06643138 -0.23617402 0.19817556 0.23568965 -0.15213607 0.24008942 0.06769068 -0.021495536 0.05829426 0.080541715 -0.021025851 0.19939612 -0.17154382 -0.037644062 0.064263135 0.13202387
121 -0.047792543 -0.04004518 0.08745379 0.27718937 0.27826068 -0.10776267 0.056959853 0.13440487 -0.19777468 -0.05256504 0.057517264 -0.10130512 -0.1474446 -0.2506237 0.083543606 0.11790524 -0.2541586 0.055843756 0.014095201 -0.043633524 0.27276537 0.2591717 -0.026424833 0.23485422 -0.15264271 -0.09636905 0.20867586 -0.3477687 0.15600088 -0.060716603 0.15173738 0.19237906 -0.214777 0.0065069282 -0.12766464 0.022195373 0.20176934 0.027585655 0.10192854 0.12596709 -0.026242916 -0.052046344 -0.07670517 0.09026591 -0.2326379 -0.004092657 -0.3117207 -0.41681513 -0.11431432 -0.16628872 -0.16625956 -0.31078574 -0.065906174 0.14859214 -0.27353516 -0.080321625 -0.19569655 0.012976883 0.110121176 0.05350522 0.14530133 -0.20233826 -0.038083993 0.02139399 -0.12488684 0.052579697 -0.019997653 -0.23820719 -0.041859813 -0.104503654 0.21128656 -0.005080039 -0.05265633 -0.16455539 0.19963022 -0.0453069 -0.058244403 -0.30384165 -0.19190297 -0.1071711 0.16896509 0.20463105 -0.1954165 0.04904056 0.13652574 0.068350725 -0.08163853 -0.21998134 -0.09703895 0.26919335 0.14398777 -0.09396405 -0.09626477 0.029090561 -0.07766714 -0.048844606 0.0971128 -0.022848442 -0.009413415 0.06637486 0.20396261 0.22706869 0.015416931 -0.082045265 -0.033832837 0.10864897 0.06314945 0.09969243 -0.061080754 -0.12104241 0.27919552 -0.071047954 -0.16787581 -0.073148936 -0.20290273 0.12643477 -0.16995904 0.009611712 -0.0023323218 -0.16759115 0.12596571 -0.14064723 -0.066458434 0.034158215 -0.020733733 -0.029887058 -0.020827567 -0.21264157
440 0.04899383 -0.13885456 -0.11365481 0.0899795 -0.0721966 -0.058685288 -0.06406394 0.010055235 -0.023504714 0.15197958 -0.12034449 -0.12742338 -0.10802731 0.04494394 0.1092891 -0.12707967 0.013907324 -0.06987422 -0.0055186227 0.2475025 0.10747463 0.017649751 0.12206831 0.095245406 0.15151954 0.14866106 -0.02782369 -0.104462735 -0.013318572 0.13011426 0.048844226 -0.11268322 -0.042433012 0.140602 0.0031167073 0.28599715 0.0650793 -0.021968765 -0.1329555 0.04903387 -0.022577532 -0.07778077 -0.080223575 0.011484381 0.03148496 0.09936772 -0.25891867 -0.23447907 -0.042706564 -0.05220957 0.059933092 -0.03646998 0.17704622 0.2241325 -0.028480157 -0.056863014 0.15626335 0.13826482 0.23430692 -0.116605684 0.08055291 -0.021022884 -0.16362168 0.053023897 0.07837638 0.11402982 -0.120813794 0.024772229 -0.18398382 0.099416345 0.027527723 -0.12787746 -0.008547198 -0.057281848 0.027068825 0.26911092 -0.05514759 0.02346123 -0.026105857 -0.13987507 0.13997723 -0.18875255 0.07314848 0.030306172 -0.1301345 -0.04506466 0.08657095 0.062768646 -0.01245087 0.13568297 0.20342954 -0.19055064 -0.015407029 0.012300406 -0.11715229 0.043686368 0.21476944 -0.14165431 -0.01545264 -0.22903284 -0.0052384054 -0.035732824 0.12435252 0.11656159 0.10918995 0.1319607 -0.0327761 0.113687776 -0.16851635 -0.057176296 0.17757824 0.03576986 -0.07970632 -0.14079922 0.15605663 0.14216515 -0.16067502 0.07012064 0.15362763 0.009733296 0.118312806 0.009319218 0.08414076 0.15660015 -0.07900212 0.090121225 -0.06424182 0.009586209
30 0.24646302 -0.12043185 -0.04006499 0.104931846 -0.14533414 -0.37146175 0.11420647 0.14508604 0.13544011 -0.04532607 -0.11004985 -0.07189045 0.034354847 -0.31812847 -0.104974054 0.13833994 -0.16021873 -0.032634076 0.09473823 0.039194856 0.20140626 -0.074319445 -0.26958945 -0.09555654 -0.05425037 -0.09588444 0.0036824192 0.086741306 -0.16049583 0.16562682 -0.101076335 0.055079438 -0.012600368 -0.04826384 -0.22198467 0.23521204 0.08564855 0.2535457 -0.0450937 -0.26334393 -0.039959222 0.059827976 0.005336388 -0.040160608 0.051900607 -0.04832124 -0.1301496 -0.35554326 0.3713875 0.1384131 -0.21502325 0.06140449 0.18270886 0.23637088 -0.10176524 -0.07536414 -0.10685229 0.081017725 0.17081521 0.077818565 0.062471963 -0.37384427 0.040771034 -0.026200863 -0.006718931 -0.08002888 -0.13952556 0.15908487 -0.2597597 -0.19235343 0.17148124 0.09459202 0.17203477 -0.019954577 0.094923764 0.053183384 0.07713905 0.06302437 0.1484958 0.05304088 -0.060256146 0.18730903 -0.044966258 -0.075889595 0.14095679 0.121614546 0.102903016 0.09328041 -0.24243426 -0.01783164 -0.17281891 0.21740612 0.11406875 -0.13110948 -0.11872766 0.24643524 0.13884723 -0.03817626 0.12442901 -0.10904081 -0.060048547 0.0031887188 -0.0086013675 -0.10784229 0.04054455 -0.11520945 0.10436488 0.025547924 -0.2055028 -0.14873526 0.20268877 0.15470448 -0.010368551 -0.18030983 -0.056032367 -0.006714002 -0.2552102 0.2512602 -0.0886594 0.2132882 0.026617747 -0.14367732 -0.06163105 0.061344896 -0.13340637 0.0023064248 0.360371 0.040740907
94 -0.030812662 -0.27178317 -0.18288061 -0.009934234 0.0052464423 -0.031012153 -0.11608038 0.3538017 0.20595144 0.1579454 0.1009553 0.092218906 -0.21029845 -0.3373812 -0.05178957 0.14006954 0.23461519 0.17418619 -0.072825454 -0.038331483 0.0024683527 0.21743537 -0.019413792 0.13487579 0.0079893945 0.036786254 -0.15401426 -0.105811246 -0.3061051 -0.21262345 0.12623872 0.11681193 -0.20456055 -0.1012577 -0.083502926 0.061087303 0.25336805 0.08223738 -0.014408465 -0.27133793 -0.33782163 0.03571729 0.13685574 -0.14761338 -0.14284053 -0.15724249 0.004796472 -0.18561429 -0.21649536 -0.046399903 -0.05367212 0.1829031 -0.09267715 0.1654707 -0.11246132 0.040904738 0.07909698 0.085369386 0.16082396 0.07646067 -0.030517012 0.17541683 -0.22683714 0.119426 0.043036755 0.17182118 -0.049652502 0.018759515 -0.27933815 -0.041330334 -0.002744545 -0.028055796 0.14889656 -0.20156755 0.046209957 0.009313867 0.24741416 -0.01423479 0.13144442 -0.0007640392 0.08813411 -0.26407292 -0.038080815 0.1163758 -0.12238428 -0.049466927 0.05413195 0.074968144 -0.24564394 0.07847393 0.060608737 0.036576524 0.28147906 0.027776452 -0.24156512 0.15229437 0.05698666 -0.40637475 0.114111744 0.09770586 -0.19427648 0.061074805 0.20600212 -0.04783133 -0.05159539 -0.26393762 0.14775015 -0.049472496 0.1324903 0.040530536 -0.189535 -0.1033356 -0.14423497 -0.3629326 0.054921534 0.06270594 -0.10761942 -0.14539185 -0.015954504 9.155591e-05 0.12757023 -0.084476575 0.07771726 0.09592949 -0.14233504 0.122620806 0.11886088 0.06148453
400 0.0028491167 -0.054660846 0.05575105 0.30619198 0.13978444 -0.13487443 -0.02570315 -0.010081444 0.10945188 -0.013316916 -0.18503416 -0.10856163 0.08396974 -0.06247175 -0.015611049 0.27789164 -0.036110178 0.012054564 0.1399698 0.07037794 -0.052886363 0.057886545 0.21855278 -0.011323602 -0.002681768 0.05749065 -0.11978672 -0.14177004 0.08001518 0.1597078 -0.03046201 -0.07242363 0.21329798 0.10678016 -0.112230375 0.036912765 0.16345748 -0.02839446 -0.06892022 -0.0087104775 0.014101645 -0.024116676 -0.036192656 0.066564314 0.004910223 0.055172376 0.051371817 -0.101364955 -0.012018552 -0.13308917 0.08597845 -0.01641911 0.08872939 0.22630909 0.03636307 0.012837796 0.055898406 -0.07492025 0.10381728 -0.03232484 0.0896121 -0.21727096 -0.14274968 0.10025142 0.1723256 0.2979676 -0.0605292 -0.1580059 -0.1434024 0.061435226 0.16847023 -0.2061073 0.06521737 -0.2924702 -0.01487696 0.37461334 -0.13237822 -0.13757977 0.26901412 -0.22195953 -0.13084768 0.061390106 -0.06927708 -0.10175519 -0.09507983 0.017990058 0.12951271 0.08570457 0.030101212 0.13205546 0.15608925 -0.08731069 0.032348868 0.023436846 -0.33637753 -0.09899894 0.1607285 -0.09105566 0.048056774 0.031594962 -0.07013211 -0.070960276 0.32371518 0.10959456 0.058275174 -0.017979192 0.12527509 0.091288224 -0.23098193 0.11791827 0.26620507 0.25744063 0.12454997 0.116635606 0.01962574 0.16482168 -0.10177207 0.080603704 0.17715403 -0.14869156 -0.10353894 -0.18983614 0.06765792 0.1613479 -0.17062043 0.1244576 0.03050373 0.08123402
427 0.16766983 -0.023699924 -0.05388407 0.13668135 -0.0041996385 -0.054101303 -0.023182897 -0.0075293444 0.09978261 0.11494705 -0.12935576 -0.154115 -0.06687129 -0.06442415 0.12525977 0.10960634 -0.12762667 -0.2466258 0.10375911 0.050873056 0.049249034 0.099219285 0.09813811 -0.0014504323 0.027420862 0.10289105 -0.14012277 -0.023635566 -0.01656926 0.096195154 0.031252198 0.12264784 -0.038159747 -0.04584064 -0.08588364 -0.039863832 0.16033669 0.010616144 0.057742205 0.15089443 -0.07717339 0.15107353 0.058425587 -0.08909411 -0.17008117 -0.14677209 0.009523218 -0.2171538 -0.025241269 -0.08851643 0.01721349 -0.044890724 0.15368383 0.19332722 -0.05871509 -0.037157685 -0.09839855 -0.023068532 0.029502645 -0.060002483 0.025689714 -0.19711408 -0.26102075 -0.03914326 -0.0900775 -0.14759514 -0.0050923056 -0.017017068 -0.081228875 0.080700025 0.03729367 -0.14356412 0.27343377 -0.2216471 -0.06562194 0.21995315 -0.018921675 -0.073464885 -0.10803319 -0.37451035 0.104923226 -0.042167243 0.032314498 0.055004925 -0.1939724 0.04267215 0.081135914 0.026134774 0.13438843 -0.036416437 0.15614793 -0.32403395 0.08479165 0.06955114 -0.048879553 0.0074540474 0.27312627 -0.07917102 -0.09345593 0.06327217 -0.14987282 -0.043877766 -0.15226226 0.0006770817 -0.06770872 -0.0009514695 0.05447426 -0.10159347 -0.06258127 0.10324529 0.113317475 0.18710053 -0.10356371 -0.050358843 -0.072113454 0.28152645 -0.111655205 0.14332294 0.01757783 -0.026692541 -0.028773284 0.047453634 -0.0039983145 0.14644538 0.04528008 -0.15237007 -0.11709187 0.174716
461 -0.0778893 0.057364255 -0.11120894 0.32119405 -0.111119926 0.10675125 -0.2573628 0.06884406 -0.018288638 0.012959815 0.05501039 -0.21487962 -0.33032268 -0.07139127 0.004705708 0.08428387 -0.09371809 -0.036891606 0.13944775 0.06487022 0.03488676 0.11038777 0.0394588 0.031992845 -0.1716653 0.2542169 0.022079581 -0.17480843 0.08084263 -0.00410014 0.021674445 0.058862176 -0.08055307 -0.05935148 0.020900713 0.0067099044 0.16125257 -0.021674508 0.0493544 0.2550161 0.09630246 0.13076028 -0.059971742 0.06806434 0.021425964 -0.10090714 0.008890519 -0.31047112 0.2663571 0.07062917 -0.068118095 0.03511563 -0.04374045 0.10815357 0.114569224 0.060081106 -0.04898688 0.024687849 0.12331527 -0.076038465 -0.024809191 -0.12571597 -0.22203287 0.056585807 0.0376361 0.05014079 -0.043132603 -0.12575288 -0.14354755 0.0645947 -0.045415305 -0.018304389 0.072820775 -0.10048415 0.0022906922 0.26050758 0.06224388 0.16489536 0.060909834 -0.28564638 0.108871035 -0.20388024 -0.029497916 0.12859136 -0.051831234 0.038753144 0.1544462 0.11563894 0.009310236 0.08420378 0.047900077 -0.29732072 0.0349777 0.07299399 0.030743517 -0.19929907 0.15917546 -0.19821477 -0.2096314 0.026813839 -0.14548844 -0.032871388 0.123942554 -0.15134402 0.07407753 -0.03125934 0.13387549 -0.10359545 -0.09061805 0.041232288 0.11544619 0.12842354 -0.04434749 -0.22581956 0.1426942 0.19318098 -0.12491997 0.23653156 -0.0021352468 -0.01981097 0.11114218 0.07152871 0.03209508 0.2056975 -0.21167172 -0.050543886 0.06455372 0.111729
